{"layer_weights": [[[-0.07532220007773296, 0.04209289255866706, -0.012962308400438449, -0.0014956529601705634, -0.006127309139893451, 0.028659732983767075, 0.014996779896235228, -0.013291275242547479, -0.0009378092308421171, 0.030107319831409837, 0.014049292606557524, -0.06548086359805928, 0.0035655783397196016, -0.027825185621653585, 0.030445274954235487, 0.02109919659609086, 0.04367958029153056, 0.029035084588545833, 0.018335732114627797, 0.002125414220661943, 0.003409296401737301, -0.0695462427519333, 0.049566224737475136, -0.09907696245787115, -0.05849915404085491, 0.029361231566665737, -0.010119639768836095, 0.03967781158843921, -0.012821920069573589, 0.058377430566220176, -0.07944736597265731, 0.03883828407735102, 0.04170600925613243, -0.06400119753534649, -0.0045096440894900796, 0.038549276604814775, -0.003359395999864092, 0.07615987253553022, 0.03927631243501469, -0.045239380297592564, 0.10309961523689141, 0.04679677175542918, 0.037095853656401896, -0.06294323600349863, -0.0008728414369241231, -0.03631957603840084, -0.04829915944460241, 0.02135028047406983, -0.02996351704347468, 0.16089936943218305, -0.08606619693321552, 0.03964550401976185, 0.0428237915936409, -0.012014879566308511, -0.01191657329916331, 0.030214651351940083, 0.012222547604947825, 0.023930609929919407, -0.04850059460458989, 0.02378356883891038, -0.029674695809911555, -0.03964293970876034, -0.010567851856451442, -0.024233604056093396], [0.025752815182712427, 0.016552846669171544, 0.08049312447755445, 0.05156395387517876, 0.07090946376288992, -0.06293712766402426, 0.09794095107723214, 0.0018246834452709149, 0.0029270398444919857, 0.0060234725091994745, -0.07058902615484221, -0.0044001141555636445, -0.062231462295117106, -0.0020939987838635298, 0.038883403127529415, 0.005099537731793282, 0.042885472544489815, 0.03289049776478404, 0.03779852488502956, -0.0519215939594858, 0.04317529878902182, 0.0014034844976586918, 0.019736628705755762, -0.07585509394599975, -0.01456730374433641, 0.015445208857739166, -0.008799991266289749, 0.002880555303588257, 0.00788561540261592, -0.004955553865858974, 0.0460894843429115, -0.01869384836834603, 0.04133643945569076, 0.07845822799729622, -0.0163771166549094, 0.10766802169010266, -0.06857621443928019, 0.028157578856589153, -0.04743990217886422, 0.007274788336809411, 0.056931691357605126, 0.05487571994200062, -0.05019141015276178, -0.0561177689708167, 0.011686287911480017, 0.02124819872947969, 0.010503652421922723, -0.07812061076150438, -0.03673119332132187, 0.07458716092478426, -0.007134120513482206, 0.0036620975191181595, -0.026892310259364526, -0.07660786506357263, -0.046423744964999424, -0.031053938841855828, 0.02435626884378514, -0.038274213814915505, -0.05244074766806646, -0.020472500373426065, -0.0034002190699161466, -0.041746066194754024, 0.08213245573453695, -0.04487356972627194], [0.03981150605757035, -0.002375527586016036, -0.056614357345910755, 0.0606626167008697, -0.024282257440744748, 0.04214080805146177, -0.11140841098445464, 0.009551444528304845, -0.08401382832887891, 0.10621108946278746, 0.026126170537887405, -0.06063423158838463, 0.07305833345318985, 0.11053925031959605, 0.08543105031443299, 0.07990926081552756, -0.011804678287877434, 0.03568963910883175, 0.006310594888779395, -0.03140445176241168, -0.012451668686274085, -0.009674907666029678, 0.06400643245054151, 0.06687039966514857, 0.007116609374510295, -0.003731374835771514, 0.02264783313578277, -0.04767476058029834, -0.033677385030690246, -0.013233391091317902, 0.02600813663563024, 0.009694037969588887, -0.051010852924133786, -0.05152196600051877, 0.07356335347516002, -0.014087606910187959, 0.029538467874967986, -0.03792029557823318, -0.06340530474780222, -0.01959395687268898, 0.02602863078787907, 0.07130250135953614, 0.0007711010508923036, 0.0259862501732212, 0.11854649942152808, 0.08466421879870088, 0.01116501357518103, -0.08436426537015713, 0.03274898683664028, 0.02359300917135393, -0.0007150051432544343, 0.012229592236927616, -0.021216115047615277, 0.031559800834299045, -0.03227466574425406, 0.03519696146731384, 0.00031357308196479735, 0.04411645523903726, -0.014809861576461815, -0.04427207134767722, 0.027359614572598438, 0.06898879219840486, -0.0523899804048855, 0.04531550566974991], [-0.06342257001221846, 0.0016707391589224358, 0.017591199115234817, 0.06388203578373527, -0.05704082785139419, 0.0327785158858792, 0.046398728121715936, -0.033566222177545534, 0.003908492522981858, 0.07212144375126382, 0.10365291467715847, 0.06329767767144732, 0.026143474508080997, -0.005385035462079181, 0.06978357771868902, -0.026635434319237292, -0.04342569539307897, 0.014437302050411962, 0.09008547705425725, -0.013764637857908405, 0.018582872070262074, 0.040768224433825, -0.019126484257079576, 0.0275260701555775, -0.0166308990978739, -0.002674181014356691, 0.05994551171746881, -0.03312377055752269, 0.09321203921863226, 0.015474638498852384, 0.00021892341586805117, -0.130386922975674, 0.04185352816908889, -0.04373773372800326, 0.05895484557977336, -0.08789199703979833, -0.02051859524791628, -0.04431049698555598, 0.011506161172090287, -0.03744010597953078, 0.02849644347469451, 0.038583662836614734, 0.0067890444567775265, -0.09291993691200348, 0.01019408154890147, -0.02019968148470545, 0.053682399623472835, 0.05565658403642293, 0.08904826104714876, 0.0202322940870137, 0.04430968108158553, 0.009869479436009784, 0.05858691443387552, 0.08065001456431964, -0.022513691072258094, 0.04183557188067764, 0.01639892085788555, 0.07833809270255812, 0.021455000043245985, -0.06365486968896453, -0.025859748617798464, 0.019594204380366485, 0.05571473935890035, 0.09023945978697122], [0.11431470370179135, -0.036658330636492015, -0.035389468918147204, 0.08959497233952146, 0.025257270585149833, -0.05120099934829876, 0.07767944578891967, 0.03995050963112759, 0.006240695851827964, 0.07666085964301018, -0.018417597830644127, -0.03769608132350989, 0.022562199558411336, -0.04864891846212008, 0.03606417773036533, 0.03006236642178694, -0.0006737522343264015, 0.02622700590459999, -0.049997940665821715, 0.04444109919593493, -0.014710241561089393, 0.06001031140563952, -0.0212977073162653, -0.03870033623860001, -0.038563964802472865, -0.042139000894638304, -0.05997122694024488, -0.04966196972632473, -0.03238767719839258, 0.05578853186936412, -0.05731472395289508, -0.05210855729870839, -0.10517157842040514, 0.021037193305091434, -0.00852030219810188, -0.017014955249992345, -0.008250957333492275, 0.0001605035060928887, 0.015828017314480722, 0.009310961257694652, 0.002282877818465298, 0.06395027657888296, -0.038013996147504385, 0.025550246866508215, 0.09195296838077165, -0.03407634062111983, -0.05527527107365445, 0.013898114114046732, -0.018905003095555477, -0.10618247097834951, -0.04212747051627827, -0.07284498711678661, -0.10202858213426708, -0.09212896840823452, -0.005582014372385889, 0.07044079106141968, 0.0007964952703563361, 0.05336786430647945, 0.001685536944393095, 0.028119804507299378, 0.06567103659899914, 0.010892949378305148, 0.04859727173892699, -0.045756949160711324], [0.038896257510920046, 0.018236347454782934, 0.11122783344120539, -0.021943945991653502, 0.011397036096472876, -0.015662772756888127, 0.021431088262373218, 0.06892609086697245, 0.020892706001163695, 0.005188880038370875, -0.06787287878983886, 0.1349078032170923, -0.004374584144525087, -0.03612248919958421, 0.028634010887313058, -0.05260834599706793, -0.08267907865068841, -0.04540190414738694, 0.01307607841925523, 0.07538617837353971, 0.0038188892760528145, -0.04141658369302713, -0.019385874824818388, 0.13773679283637566, 0.06184452724296415, -0.005282919273404237, 0.027016934823179448, 0.009604021010181788, 0.014422143355659833, -0.024871929083447698, -0.04082463235934234, 0.0544165399794534, -0.029056347568827638, 0.006029942114084215, 0.0004017501343655426, 0.014588011975695942, -0.02584843768630169, 0.012647318740324683, 0.04729708656217335, 0.020089986947464004, -0.056213068306466926, 0.04236195194041899, -0.04378196277009624, 0.01947122160530366, -0.04776628349938655, -0.047973523422567506, 0.06276101665571586, -0.016334673280182715, -0.024896450681286226, 0.06330966029836262, 0.1803873356057914, 0.026238623341994758, 0.008137021168595823, -0.05356448364537583, 0.057273310560866236, 0.04346723783728965, -0.11166040244593788, 0.02383813376140513, -0.01406857403418117, 0.02081824221738925, 0.058111265852067426, 0.061138801279191024, -0.0717862232364754, -0.024468403230296518], [-0.03870073503631472, 0.039947001853072796, -0.009881140963961725, 0.06280621973830207, -0.07843941398164726, 0.03968241886010815, 0.053797144033028856, 0.04642021917347167, 0.05451168379321353, -0.04264793769282276, 0.03099741307801455, -0.03855962701797496, 0.03927130005020048, -0.042619721496348226, 0.024936045174957653, -0.04418437127426382, -0.009854477820016763, -0.044407623426230745, -0.011631376312785255, 0.042038321945670774, 0.06943920608903308, -0.015919278353570137, -0.02892911231356659, 0.009300983848163108, 0.06571083698582998, 0.017721016461229998, -0.011384347203498683, -0.04114384498021413, 0.009525167921148332, 0.006926330768872985, 0.10275233104755897, -0.03270444413713012, -0.01389893245123073, -0.03682865510821926, 0.07682310465461224, -0.09293227593505235, -0.07447809539586939, 0.05762301455246342, 0.046242012625096265, 0.0060406055892554015, -0.02000278371697984, 0.014121623323704268, -0.0368693522088836, 0.02251446420091903, -0.10963494829597809, 0.0281408932687521, -0.04195579743682293, 0.045772769229713, 0.029978451233440243, 0.027178898216376462, 0.0027877576621740223, 0.03785715003541251, -0.08155016474312385, -0.02859494341947119, -0.06121164611796522, -0.04874734630367011, -0.06932164752672205, -0.03878597055631386, -0.0399239131612061, -0.04315346016508802, 0.026274816408436905, 0.004249435273626507, 0.002740111222324897, -0.07696447632986815], [-0.021014513936138058, 0.022829935570668505, 0.03431253589081609, 0.06605335967150494, 0.0541981882965203, 0.026710973578120238, 0.01766849851881579, -0.005017920269066916, -0.04829708041255054, -0.014261805345377774, -0.02855749387979212, 0.006641193376226858, 0.007027393101366562, 0.04381968909373475, 0.05884522484731938, -0.014348501901983125, 0.013019914469204677, -0.009102623879119786, 0.005618459303266516, -0.01751103883926447, 0.040214911795323514, 0.036276931787291945, -0.06858945077503106, 0.03873560699937468, -0.02564759449236801, 6.354943160576131e-05, -0.06782680287760524, -0.01623599377153591, 0.06517698509762118, 0.03704860288503017, -0.02984533694641802, -0.05552259238124771, -0.028257616306475566, 0.03176685837299714, 0.006280984084044302, -0.01687686907724823, 0.057869899369186885, 0.1548890537910789, 0.008318421647281677, -0.08623782117157064, -0.024493648673077847, 0.008225206094699209, -0.06439067354865557, 0.036193115736215295, 0.04431959689030927, 0.050642805727325706, 0.0028993552160743417, 0.03579794926484717, -0.02515856329628626, -0.040923457981518356, -0.06897409427777022, 0.041014331551035066, -0.06719718116562602, 0.01866673087343061, 0.025640065972941953, 0.012920417304732219, -0.02726058723673413, 0.012787328327220423, -0.021823905031946783, -3.0628118815583476e-05, -0.10509879153654124, 0.05263917589371493, 0.04543287090748585, 0.11689078417990983], [-0.07777172895447405, 0.020067576954500885, -0.04499591648817563, 0.039459150725679494, 0.02313834924933244, 0.02906715962885416, -0.01711898226018213, 0.008019642126998221, 0.04114248199728649, -0.06143257269011921, 0.011709649829250568, 0.08069878639201522, 0.08367817316564684, 0.04250364090030192, -0.03502175254220193, -0.0014014339851236026, 0.0018371031280827513, -0.039905253606650294, 0.06685959375279131, -0.025743959022092165, 0.016047971387000624, 0.022073951914956716, 0.0037041124782081717, 0.0369800746534465, 0.038255942889712395, 0.05770005867266974, 0.09002702375149063, 0.040528609667500506, -0.02427126237546282, -0.03777387616926477, -0.06961611033426385, -0.031186175370682367, -0.05607642081100032, -0.08833130009238971, -0.09154113364265076, -0.1221417573083096, -0.051820053501113794, 0.14331452857234078, -0.028504581362856257, 0.04666937305087559, -0.07632006996974892, 0.002887923117926509, 0.013617261363176768, -0.04926469457071738, 0.0017438726021213082, 0.004814670701542, -0.015008691191589383, -0.018207890292114847, -0.03031119793137652, 0.02404407595444887, -0.08957321365472441, -0.10259495938038068, 0.04689479401917389, 0.037623303607370595, -0.05319422520177829, 0.03468491153171742, 0.10259845483364387, -0.015963549073607027, 0.10299497673176451, 0.03289573601599432, -0.017778111916822187, -0.031009411060439633, -0.05088149120683867, -0.0505692812411362], [0.04638436687154022, -0.014828374425841482, 0.0190396543932691, -0.08836233280108487, 0.0071460324712177455, -0.008446384178900075, -0.008884294081401045, -0.012219360657225061, -0.05512837963027617, -0.14614857643750243, -0.07152235632539383, -0.018993711652122113, -0.05419036181386268, 0.08943748493057314, -0.06531133872798175, 0.059353919961883404, -0.011957007957489288, -0.015686388402233648, -0.03193708954495062, -0.026693141123201616, -0.013909629193628797, 0.05468620621771626, -0.026160987527937354, 0.01943207106143591, 0.06865012942189494, -0.10261065565341794, -0.0376068610105605, -0.027607789304340397, 0.07190018558585351, 0.030894047016943975, 0.011357997958257829, -0.011551878687719458, -0.02164609663231898, -0.05951586440565772, 0.044964673321635326, 0.04043161384780241, 0.05672997625183382, 0.035252952283715465, -0.036692271969963317, -0.037700886699065725, 0.04143021398546812, 0.04167416550880338, 0.15504648163867643, -0.05941503711343622, 0.03646505261920197, -0.03294359758718302, -0.031095600035959473, -0.06633021561987408, 0.035891570107893664, 0.0013460969926707828, 0.03665212718448344, -0.004537709757802691, 0.022671642920897857, -0.03754725852284992, 0.02213069466988716, -0.0050788544412833725, 0.002217694321194246, 0.101598354639362, -0.059193631615054275, -0.0013525963331974902, 0.006939828131684731, -0.06952340100745656, -0.04280231761231272, -0.10640645098381185], [-0.047483890391427364, -0.04516549078470379, 0.018054187937723454, 0.020578835710745695, -0.02579857753358037, -0.05833386439160669, 0.06322631909743077, -0.04474150846793744, 0.03700117112066222, 0.009831264587829411, -0.022459623929085935, -0.12839705160364728, -0.06591944166284695, -0.05000419759570074, 0.00989162398938877, -0.030631367498310864, 0.0043182919756065705, 0.11684172529569083, 0.017529286908450473, -0.09084102185979474, 0.04628581538644772, 0.058707018353657554, -0.03737002348359925, -0.021300863040846035, 0.017234888002016596, -0.07684381386250552, -0.0576143991754211, -0.004057970325736843, 0.018060042420800386, 0.03036307114021915, -0.0829203888619265, -0.04835926477694525, 0.08475838544444536, 0.02381065745003851, -0.0786601871531529, 0.07493185247749079, -0.015075821809953361, -0.07543890804929726, 0.01530218299497461, 0.016826979487157976, 0.024991954327575713, 0.037390368799012655, -0.08839962666089544, -0.025883171025618212, 0.08617780237455822, 0.04923961445332299, 0.041148929341655587, -0.09771145722324154, 0.041502990225206086, -0.02085647775768036, -0.038356960230961155, 0.03434755961760075, 0.012007278576761187, 0.013454578723459757, 0.00528847826114429, 0.03969908304261475, 0.06416988205446973, 0.05429038187608683, -0.014157529900340943, 0.02012399182399039, 0.10176608556636191, 0.023942906333669443, -0.07914658280506838, 0.006329379141920247], [0.0025509228061641803, -0.05659583607650648, -0.07786114326164496, -0.07443983943576683, 0.03468297519651775, 0.008078342875473344, 0.07004609937184382, 0.09463203774196119, -0.04125023983730678, -0.03334819463969232, 0.004285902249219983, -0.04149606536187603, 0.017192671641181816, 0.023724056984391475, -0.03681572857024557, -0.054212648351914035, 0.08634057929048644, 0.025908253501708285, -0.06591666225977062, 0.009786175869559634, -0.02303729687093251, -0.053285555597617364, 0.0019349422552881652, -0.042854723776906224, 0.04972765898035676, 0.0071220411698993385, -0.026912043667980865, -0.015808817188125487, -0.030537794839916185, -0.04684331699456825, -0.09007439008243219, 0.11323958280616532, -0.04410414743125423, -0.01949719711972864, -0.015116500443543172, -0.002557775968585518, 0.0052666821899728655, -0.040534616558285184, -0.0380231498835399, 0.026042052195226716, -0.0009631724651975482, -0.04565581780691026, 0.03634636715128467, -0.010479553335051505, -0.01191390879197866, -0.03141328124205951, -0.07091677070058396, -0.038038540957263306, 0.024250640092251256, 0.03118796652520935, -0.04305601346180872, 0.06402762003910907, 0.06423701536669282, -0.05802678972759322, 0.05322825866965791, -0.008432617604500241, 0.014065062836319558, 0.03775484871555672, -0.02767248643660445, -0.12334597788505017, 0.031436736423506896, 0.008268203002344295, 0.039802751182373884, -0.1079812523883445], [-0.017239643526636934, 0.04220848458989592, -0.07077310662583693, 0.05505479290005028, -0.01351144755946539, 0.005446153738696671, -0.023426275599582456, -0.031589790566355906, 0.005833119424838698, -0.011160605530015154, -0.01831015855647253, -0.031808795007100744, 0.015582361286680365, -0.05134360923968699, -0.0435683428805727, 0.032355546826859566, 0.042014847254085254, -0.012386382502374678, 0.029366220569533506, 0.06725549926331614, -0.05807466288004843, 0.06135178592691288, 0.004687493475650757, 0.025470767562547174, -0.04449019134787962, 0.025571903518926978, 0.03187859380087933, 0.003372311698095298, -0.003740186253198743, 0.02384627876473385, -0.021151812455840937, 0.0321579241074816, -0.07701527912586258, 0.0314307882769003, 0.024880803371983538, 0.04854442673517795, -0.07261874849786193, 0.02128785139784067, 0.05874048480883382, -0.031032803246873485, -0.06283684813012877, 0.025653661716929656, 0.005225367496412206, -0.01685574896717626, -0.029027885580918098, -0.04538483082583948, -0.07425331462365295, -0.003810740693659124, 0.006141489290701623, 0.009801993280900988, 0.04249715641841345, -0.05833540214393197, -0.02262086200292514, 0.007218838286262818, 0.00642282131338627, 0.0712603538045721, -0.08133825975839903, 0.08986218224947909, 0.02728395340866874, 0.00991743643240887, -0.04519175904189725, 0.017118106226764646, -0.02098521121308662, 0.005798262138516665], [0.028861061771876934, 0.038532305439243096, -0.016404862830517328, 0.03875845018368058, 0.010864267353292458, -0.00041847725493761014, 0.025262660643668257, 0.05554016780787214, 0.01716864182065944, -0.012314849831235984, 0.012271754617613283, -0.07106531026403623, 0.016052434546809893, 0.0652150146917655, -0.06379313989111247, -0.1616397142804058, 0.008017384948133057, 0.021094792237247164, 0.02785597194746579, 0.011143698263583668, -0.03869537185597675, -0.1630936523132138, 0.05399215186923839, -0.11226296421220751, 0.07000719135044536, -0.003141929071823272, -0.018351834693849184, -0.05855982620951541, -0.005861028835941591, 0.04061238694368737, 0.03763174406206464, 0.059115646469259105, -0.018547347307607886, -0.02264848068097928, -0.025530466301898543, 0.020480829024132674, 0.08387182205873889, -0.008051974715217814, 0.0070455045578393565, 0.06374012502515626, -0.04447337668052025, 0.043410320528503306, -0.1370522061389424, 0.026085333594347462, 0.06754107444185363, 0.06790061789403762, 0.045438388739003265, 0.01668303056662515, -0.012477934640120696, -0.05593909626497532, -0.04149470262637087, 0.027322156592501572, -0.023533420514391706, -0.010678090292122121, -0.007894326976202347, 0.018065871702466704, -0.05703093361015347, 0.01183873505265649, 0.060793246420755495, 0.06245640812789402, -0.05985087886634376, -0.022152177807772302, 0.0010069653444329326, -0.031295873340189136], [-0.10247434563664633, 0.002471033778942967, 0.027337827337398486, -0.049990302303388204, -0.016312335273563183, 0.02716397305352978, 0.031934290054212965, -0.016722778152918276, 0.04827273715527939, -0.020666789958388245, -0.006483927276291263, 0.018804236175978827, 0.043455581317224774, 0.11638901443107709, -0.013146207814879164, 0.07421668878880418, -0.018087677444238295, -0.012609581717972796, -0.0406295728882477, -0.04951812617897688, -0.023860192723492844, -0.016551856039316134, -0.0676239045908982, -0.06865439010247067, -0.05575434890355006, 0.09214810584686269, 0.0896439547056647, 0.020828357366453287, 0.1049674870145454, 0.05607514923877093, 0.004254931717241639, -0.040973355476993316, 0.012681007876446312, 0.061604315525425384, -0.011505969920464865, -0.006745082540902646, 0.0480132941923961, -0.032076585417550145, -0.02162649873990571, -0.023034615635740715, -0.001187762654820547, 0.08334521287291687, -0.046544146060887116, 0.03285175091389381, -0.012796735780914358, -0.028559097367332115, -0.044635140245033844, 0.023908046739475455, -0.012902746252441786, 0.021272237384081013, 0.022642259382857615, -0.03140118743196002, 0.04722522030344626, 0.00022972937901081104, -0.06514119075314942, 0.04964056985536191, -0.02236521282864804, -0.006493754361308046, 0.0015568534692761947, 0.03086354297312144, -0.02542323500725391, 0.0030992860431755024, 0.10577983303525598, 0.035414487643230755], [0.03240731682936676, -0.037321934872417674, 0.10161210148075212, -0.022810365376948537, 0.039144834114603975, -0.09595868365462525, -0.006812244745822112, -0.03480238811395974, 0.08741944840838402, 0.13226526598632904, -0.10041388392793997, 0.024737103446215613, -0.020673982726617433, -0.00021771364464785037, -0.041281399154040596, 0.03507069297057451, -0.001518663042369251, 0.06393369587947957, 0.036358984497347153, 0.012354918570056087, -0.07337071068805114, -0.05744723995143846, -0.009290961855805214, -0.02807236592696848, 0.024056691025685657, 0.004439097231928167, 0.01883984112330008, 0.024792777547258955, -0.030408279290756485, 0.03998503589930895, 0.011102604448004929, -2.773167266299968e-05, -0.042660662009998754, -0.0092193278626872, -0.014872402537910626, 0.037729013279730855, -0.05744728350471363, 0.016857096176252744, 0.034197883118007213, -0.05724944064392836, -0.025931863249866027, -0.025304437408437512, 0.037655974429229466, 0.02312797597694177, 0.05667359267391938, -0.007098380162088892, -0.018262302076652404, 0.013080477388915365, -0.038895196219932246, -0.029604041442764472, 0.011883091846897856, 0.003758907377528447, -0.015273811789580857, -0.07781339788324877, -0.03059758753534378, -0.007724498379558484, 0.0246074726481948, -0.017950662634408816, 0.03696990901380817, -0.0198633915666359, -0.05334002614920037, 0.03806849899451939, 0.034523706815066224, -0.060524744450146085], [-0.05615091351035416, -0.0007715844277259533, -0.05508072782787547, 0.0038367073648773323, -0.008471450212420947, 0.01288646962713683, -0.013243465221199601, 0.016452691373987915, -0.042523875096378276, 0.017746887831498883, 0.08181759813646762, -0.057420747958030094, -0.04811856799785047, -0.050946329957914975, -0.007030664050718618, 0.07615791788351382, 0.06366312110465705, -0.012272521609194672, 0.003712836862683806, 0.019145689509061245, -0.05521658113701297, -0.010393454188227238, -0.002676841181419656, -0.0775877824637932, -0.06037880118863207, 0.06780773711657928, -0.006435801957429481, 0.0604854284873987, -0.006924707086145476, -0.0199833504384593, -0.04204952050663692, 0.019973216920556557, -0.016274880913852947, 0.028573980813310952, -0.06701260312351183, -0.001562695248869355, -0.08907031675310352, 0.00048347669263137, -0.0038812628185404797, -0.06293830043674786, -0.06067893246886396, -0.012759088257480776, 0.057433407608465, -0.015913351553971188, -0.11052736073640804, 0.0834393766240042, -0.050510255522320004, 0.007802549423900337, -0.06823677870695752, -0.017175572381075508, 0.05084108248952801, -0.05671034650151903, 0.024891529791615293, -0.029082223197887457, -0.12199130861548849, 0.01732280270484073, -0.015608008511393278, 0.03083890625904606, 0.1306125202161055, -0.049669271333173295, -0.0019498449523310283, -0.0756799907403749, -0.016484477426226506, -0.05612206079049992], [-0.059362510895562264, 0.011449988911175218, 0.08271762264170009, -0.03329128828772552, -0.013968277860259243, 0.06849302424290954, -0.10255221113319883, -0.025518974000956658, -0.034907352126249375, 0.022597629337239994, 0.008008795260125576, -0.028463186206855583, 0.11301874368133176, 0.03546859316751076, 0.09799851856736178, 0.05567602438628536, -0.038103470405284626, -0.06389844357276357, 0.024043517011007036, 0.09100245038130098, -0.0070140407037320145, 0.0450286780159499, 0.0001132800328831889, 0.02861247934593541, 0.0018107358230507072, -0.03148407919019748, 0.09114891866127973, 0.027593908463522096, 0.005887865404990585, 0.03878186235174074, 0.03897298673387628, 0.0301735659369756, -0.06296595240096549, 0.016423671578395853, 0.08061872250060209, 0.10546692883680045, 0.029631796283170402, -0.021168034569138204, -0.05178300011292049, -0.07247445776317195, -0.06505597416191952, 0.01511988305454084, 0.0026502849468036027, -0.05030554613388285, -0.0227982109376754, 0.016787191313514464, 0.016715352272031803, -0.06937964712126297, 0.012534302976195533, 0.07999397851185969, 0.009058725025367328, -0.007564304265525524, 0.05517976577951366, -0.017526989810668116, 0.06501483454379572, -0.09027939311904948, 0.07887688233194819, 0.016736031571588685, 0.012916718714708302, -0.02712652300759553, -0.01572936212201565, -0.0945818003284725, -0.004214613120858546, 0.009833843314525925], [-0.015755817262949084, 0.06316150292144007, 0.048600635028917386, -0.01735877022037151, -0.06572066650580344, 0.027729994332269668, -0.10343906117062383, -0.016804133015604395, 0.039128982533741696, 0.03940962572418437, -0.00970652677604106, 0.08560553870327972, -0.03997916935341324, 0.06885798253280007, -0.042904417548293876, -0.05751169568274511, 0.04449196360487727, 0.004657209855741125, -0.016973448324500057, 0.07606701973768323, 0.026244475279632355, 0.04876717590159368, -0.02513520379183046, -0.03367178496976913, -0.03098386699567705, 0.02252487191968328, -0.02859168254721986, 0.0023885248845174215, 0.05559808293950286, -0.0016131299700248767, 0.01326690756562709, -0.0016993540262456761, -0.029411238231347, 0.04077514625868621, -0.003597065394133041, 0.047463655488809466, -0.0497259184235087, -0.044898635028988575, 0.003635235705867658, 0.055550574710905555, 0.008380206744273894, 0.07203856443635523, -0.025652719642338274, -0.0015494901974704488, -0.06675002017413614, -0.09706595994986952, 0.06896473992016347, -0.05945203042707973, -0.021792903865127496, -0.061230199646279355, 0.04556786227281159, -0.01846965941323763, 0.02916636843599467, 0.12848383831623864, -0.04922474744259376, 0.013270366499869134, 0.038483866894198436, -0.012714271685622242, -0.027478613484372392, -0.09599057588187594, -0.00947349287164592, -0.08956414979752629, 0.03499053027187276, -0.07249564468809483], [-0.025615330057035254, -0.05572873287442461, 0.02117999137271587, -0.05680084460510773, -0.044639835965966664, -0.00033869643920996347, 0.020876107848095182, -0.013937236808684667, 0.049596411641813824, -0.09541252935295551, 0.02022757262872476, 0.05594786730231876, 0.046203730105407355, 0.07971209992924568, -0.06480275787767585, 0.030511325071742604, -0.006454289550043845, -0.051240734550902854, 0.04410697681076547, -0.02778597825412762, 0.026450309122797187, -0.0056796654059592675, -0.046932167003487686, 0.037616720680439995, -0.06002081881152482, -0.02284893514544938, -0.010900801252816067, 0.003847055618895942, -0.0017402155743233415, 0.008476425817001424, 0.015579328147736129, 0.017340268279863826, -0.06111015506722097, 0.03812628085358139, -0.017197428575438233, 0.004521095916717764, 0.11878511962343215, -0.0986317882798498, -0.030705663392578318, 0.01688867757384192, 0.012791078261962676, 0.026107905626336844, -0.048287101718679615, -0.06733378893343517, 0.020536071794139226, -0.004917426976522715, 0.046772153861362326, -0.04041077280022286, 0.04335801516930432, -0.020087621348637966, 0.10899255205099216, 0.058770825955107416, 0.023541334998951217, -0.0042181637300706155, 0.018442452758279326, -0.013497441974324733, 0.03724139463035809, -0.012532512850148942, 0.0970997045916216, 0.09968299798015902, 0.024385962646600454, -0.072268165324621, 0.04936903036184362, -0.003382324841274986], [-0.009351036630380127, -0.04736135088916391, -0.018252650757820756, 0.02538822384858558, -0.02656858170329355, 0.012569381090606723, 0.03782686792067783, 0.09307972263358742, -0.00019779286636874353, -0.01857446140052252, -0.0340512231581647, -0.056725933111720986, 0.08938797213684464, -0.04517855098137393, 0.004380388469456315, 0.025218181533835364, -0.039285151039197025, -0.032887183397756876, -0.04479141325541373, -0.08278133431915509, 0.005569133694051514, 8.0109707243016e-05, -0.050276261010629875, 0.027697389770914384, 0.008362656469305632, -0.0791992999401114, 0.08679363273130888, 0.11455751540831283, 0.009855132420770792, 0.10813888379225067, -0.0484479831251749, -0.030092214767532485, 0.02429815315069908, -0.08306324207661897, 0.008127427275544082, 0.103639366360353, 0.060553457535639225, -0.01852195456731645, -0.027500038801883838, 0.03285540065274944, -0.05838175907413659, -0.021178911384876205, 0.0010416657535314128, -0.03864270442663183, -0.04835838053633716, -0.05196304032962437, 0.046599338758980806, 0.01475132716814099, -0.027152047750948035, -0.033469168636017115, -0.07193465731927874, -0.01338370636059153, -0.02598740911155566, 0.026872952433700505, 0.027406766813210588, 0.06057639584003843, -0.009315727228492025, 0.030129320378509163, 0.016857184213688377, -0.02038016227679224, -0.029660704942565157, 0.0017036258003427546, -0.04429997789324316, 0.025340999020762103], [-0.043827238235329295, -0.006188336738591419, 0.00377760316836133, 0.0428895854900406, 0.047955264494814416, 0.03984652213048367, -0.042569979367063464, 0.039994641068649264, 0.011111520247159883, -0.014373308462432878, -0.046154776324343526, 0.04598336900097693, 0.01573736999080384, 0.00614150467007088, 0.023355845382365473, -0.061818206030730766, -0.014063421863252384, -0.029091715694554383, 0.028178501104781803, 0.10499234248556018, -0.033711953389464665, 0.08394527814543107, 0.015226642219438914, 0.03310238727866132, 0.0022300775901001125, -0.07404400455103954, -0.004483981196649131, -0.11762153692781295, -0.022325442995225084, -0.06357828689275712, -0.02346955513091091, 0.02003106258052423, -0.004456928285882075, 0.04296054057182427, -0.07136066382223079, 0.01831938123668481, -0.014348165890336722, 0.02659163719128891, 0.045717017647473074, -0.03000476527529816, 0.02942869800697241, -0.07395441746249545, 0.0038551476091121546, -0.05213293617146789, -0.008911246930726613, 0.04293189845292513, 0.09842650147789955, 0.025265055030102783, 0.001899300951223706, -0.00517305173983645, -0.06261001600076997, -0.022290097594872882, 0.002617153410866598, -0.02782124412400626, 0.010928315054830755, 0.03699404865497292, -0.04017402674349802, -0.024809580583311286, -0.10574740387095576, -0.03465893214821205, -0.05809379232826413, 0.06687359223743665, -0.07665799038830716, 0.0037712312010344754], [0.0009586334749798986, -0.050621974359285206, 0.004506237796244649, -0.04482818694439075, 0.038784744433271554, 0.05403413517938146, 0.03990899373662482, 0.08943420119043925, 0.12048651258810264, -0.009324598491462922, -0.08947284415492092, -0.016045657869210056, 0.07891472092261133, 0.037766684952804185, 0.005959911761563664, 0.004728004189813799, 0.04572200548935588, 0.0509184742589683, 0.02869035373013076, 0.013874176387504364, 0.01383940234333497, 0.0368039758815099, 0.06583789731051176, 0.030966631922354444, 0.10693319425615523, -0.04244101280498608, -0.018400977668790595, -0.012060695751126796, -0.049751560350705853, -0.011018008697433959, 0.08961433710033993, 0.004886084408801465, -0.03219446866907012, -0.006239324914916228, -0.07658392903166902, 0.0012508696808480927, -0.1006872645887262, 0.039635369968972003, 0.05337361585296061, 0.10775251118312829, -0.03610089012278225, -0.007994770930687026, -0.02669430192757543, -0.030281426526199282, -0.07444993122052034, 0.07419103500552954, 0.10981082604715768, 0.04889958448629455, -0.03147060427804125, 0.012552478760656524, -0.01534956323948511, -0.039928929685821624, 0.014529256666316699, -0.007855549929546162, 0.06932594343661277, 0.002437246583246192, 0.040062939567259155, 0.0007736114028285506, -0.03830057526984574, 0.041685535647572936, -0.06236406051863438, -0.06019116141229859, 0.07997095462462947, 0.048406597209591645], [-0.022301541216812413, -0.03400943937173612, 0.13638441393277773, -0.019525514658672572, 0.08334469430182316, -0.06012643475453834, 0.01020670094259959, 0.09985001780814202, -0.02162984002314232, -0.06194515722797265, -0.010981490802318758, 0.10686503874141008, -0.01672986600779342, -0.039689249616641324, -0.06740206153465265, -0.014959179648524196, 0.04154851009828356, 0.08330980183177215, 0.03316592597966138, 0.006535549901379075, 0.062881229604867, 0.05564281831967631, 0.05678436410510286, -0.09268465812685865, -0.009771645736969545, 0.06281242998568559, -0.09745476026888296, -0.04301406027081734, -0.024725667478915712, -0.04874242025756762, -0.043716916312915986, 0.04673982680724164, 0.029408068605112685, -0.06014692811172291, 0.071115031580003, 0.03925896242845345, -0.005371731686548523, 0.0047582074802377545, 0.0080431760425835, 0.02622655977910712, -0.05550784056920717, -0.042317040754271416, -0.10380285622555116, -0.0768921834802589, -0.05598890118988364, 0.06450766047700787, 0.016913186827143167, -0.05911319922735445, 0.008077097000773229, 0.06608193931051518, -0.02485321706075177, 0.0180625827449881, -0.031283221203587015, -0.01606268613905694, 0.005649099023347164, -0.035863436300495266, -0.00895876454609428, 0.006616592894886471, -0.0032512846477820495, 0.0496745269480654, -0.009344535368774658, -0.028312582705183793, -0.03598711737999132, 0.032311155977835467], [0.09799676796705914, 0.06376486108574153, -0.07010568135126496, 0.025505396238138977, 0.015612371245754358, 0.022315894951068862, -0.05716349784963728, 0.020784339356600106, -0.02028374738019637, -0.004843170261917647, 0.052731253571494364, 0.03598874159201813, -0.07005743967271304, -0.05055484668441481, 0.005603650006525634, 0.0005175938278886643, -0.06937068705529444, 0.04112704410829664, -0.008194316399624865, -0.05780428557755219, 0.039790253596605214, -0.016096404068157828, -0.06875588623037283, -0.005033950040875671, 0.02483121702406701, 0.03722688760493484, -0.01342832096182639, 0.017389365632045704, 0.01995066243948661, 0.03889241646874774, -0.01640051664635004, 0.07676976957852791, -0.06326382292509979, 0.0963615396284046, -0.007939892259109342, -0.05148482483992635, -0.036718479318321666, -0.04265111818546748, 0.010520006630821258, 0.012844236379915828, -0.06931903933505035, 0.05239519669313219, -0.07065521074385155, 0.05889341199866611, -0.06817622465248815, 0.02670109456169064, 0.035960499319228754, -0.07216479016030619, -0.03139086482263938, -0.019909514607954624, -0.06084604611932589, -0.04625828764312432, -0.020511864573850076, 0.010678223350504883, -0.03528532768574844, 0.027752271280862013, -0.014794735875828238, -0.07563842743602191, 0.08673439951360021, -0.014776241316914952, -0.03136362846299812, 0.03177628436913037, 0.008538340473510403, -0.0435570921504726], [0.03372111827842367, -0.012085143924597619, 0.042450620483021624, 0.0017632320060299138, -0.0006542279517323142, -0.005285160518033084, -0.017326066787950466, -0.11527698017368423, 0.022302634645810365, 0.07790935610727777, 0.010965597632826308, -0.0153883743359767, 0.04740011093470632, -0.07477130715262371, -0.009200943058393408, -0.01789115077973212, -0.00762108723520069, 0.03240701406615275, 0.029369961932033582, 0.050188683438729294, -0.030480933287569966, 0.02357253641879037, -0.04911037489336622, -0.02732824626987365, -0.09506514473412399, -0.019020364136010454, 0.022912799422911464, -0.04281205538789728, 0.12387447780789813, 0.034691189068666965, -0.010258217290734903, -0.08581471286096622, -0.07177080138521981, -0.05164750191233837, 0.024990277590842404, 0.028329838689266022, -0.005918535030394953, -0.03779330541459052, -0.038791699500942814, -0.031109792797447695, -0.04018867576343836, -0.05463633508381274, 0.04385312258318353, -0.01317910933739821, -0.019754261539588078, -0.01465359693819, 0.030994397677338595, 0.016061273945556145, 0.0032944273662046534, -0.05847707172543455, -0.015471116769514497, -0.03329029369273595, -0.02579993607006534, 0.047797572829310575, -0.03250693701961046, -0.061609303728912906, 0.08860351822238309, 0.13001699232525638, -0.038048900277554046, 0.011266990163518125, 0.0008006366676895761, -0.014069716338667895, 0.03511063766197726, -0.06279465398701393], [-0.025339742867078144, 0.0373959260798764, 0.024967802141052927, -0.05640596526951485, -0.007945013191857125, 0.024152923999116255, -0.010907331332719825, -0.05421786290993826, 0.01373615040832543, -0.00011145854274846286, -0.0035032607677673733, -0.0077145116067089, -0.016348204477704877, 0.015045165416200493, 0.035381454344919884, -0.09779301550041962, 0.006359090572655305, -0.05919331799658544, -0.03942933903461898, -0.008068301348365984, -0.044379410274176904, 0.0075062788618427976, 0.01898859258556, -0.058935984015947775, 0.03318194976317267, 0.06979634069847977, -0.06995377152112175, 0.047207043985542076, 0.03466651475498699, -0.032678701569185654, 0.008452094672303083, 0.0028200603033345715, 0.017704238406121404, 0.03863737005496668, -0.018665887465574727, -0.07334040198659472, -0.07176207679126763, -0.0495434229840892, -0.03756725208082847, 0.0028015943393767512, 0.015092993201164142, 0.026318504860948187, -0.020376621687653564, -0.056932928251548456, 0.018616596453238102, 0.00012597525332220117, -0.033384995086135086, 0.029883769818474813, 0.03972073445920906, 0.03459299490810229, -0.026052481920327865, 0.006590337475978616, -0.029988290163903853, -0.07152615692220987, 0.05910487631785942, -0.0270289587923503, -0.028606633177324044, -0.04340171705077943, 0.0034702344911436518, 0.026067821918797335, -0.03500901107675665, 0.02006863487219796, -0.04872695869226181, 0.04707534347052011], [-0.04603768625230671, -0.020889148724212832, -0.060741182475291706, 0.0048656663948531, 0.09551765553679677, -0.055354099871289086, 0.015151470655782867, 0.027527229399556985, -0.009769459488970896, 0.029711476824227746, 0.03971538987164457, -0.058297969864281325, 0.07886625930530226, -0.08663674264998304, -0.030801449193596415, 0.0021344378235163743, -0.045823434465242216, 0.04179840206875645, -0.02712491753293239, -0.04271550053049692, -0.07270179966553866, 0.002192904384232566, -0.02446861755349446, 0.010950702128025737, -0.07604469558381843, -0.03506271937645218, 0.005199916139744413, 0.012463109939417122, 0.00604849588040127, 0.039435870804403826, 0.006055958263746461, -0.0592111282611979, 0.013262476881709553, -0.05548888022517392, -0.06312296395463808, 0.0008208392683941172, -0.008372695513285814, 0.0541251245951193, 0.05955733227571058, 0.0002031545519102878, 0.003501302349301673, -0.08080640428925784, -0.031262840283289156, 0.011123862366397643, -0.07419924931829165, 0.03336841835897584, -0.01765233430507888, -0.02565817557883239, 0.007740384227894445, -0.011049967383041247, -0.008360707936418035, 0.09714179040689501, 0.08620398340609634, 0.0510109884817072, 0.06857512640478776, 0.06248815135466156, 0.02068611976555696, 0.07847272710159146, -0.035276990313114445, -0.08623460465675674, -0.03877111008877461, -0.030396047461371013, -0.06268657301435793, -0.0608623685761749], [0.02636937333762918, -0.0859851826547749, -0.06556467797293412, -0.030278196502377126, -0.002824144145791501, -0.028945664780936443, 0.04326382040617936, -0.017346902860346482, -0.12185946277960219, -0.060313354631804685, -0.09978355189664337, -0.0018575741294869236, 0.008311646671399827, -0.03497311512198793, 0.00043913106219984564, -0.04548201133994753, 0.05262131521069638, 0.005483942940112024, -0.043079713441788584, -0.07058727940696934, 0.016982916748320833, 0.008747054846551985, -0.0152988252467889, 0.01860472055007151, 0.01025209980974888, -0.027982604660641293, 0.046895810090217836, 0.06569642673484515, -0.03985690601374032, -0.03196752510003279, 0.07020140316396195, 0.057369715625738164, -0.022984185248604135, -0.05805832224143439, 0.025944997813492996, -0.046223698801140224, 0.021060532065843327, -0.03183113889209679, -0.07400814615120861, 0.01783092690831772, 0.09043664056944868, -0.04150567919020698, 0.13591142302461245, 0.05994598209922202, -0.05369466471843906, -0.05326819067985655, 0.056458297262151035, -0.04617623746862782, -0.10078413035435406, 0.08511566793066791, 0.04570364739842469, -0.05221026886779483, -0.03455179294106302, 0.02170477289297149, 0.0007381933786538537, -0.004783034444493, 0.040939920816272866, -0.060025418627870454, 0.0581598998191892, -0.06980228991635082, 0.0643743704477054, 0.028830575853369626, -0.004697156538393877, -0.014855291232176628], [0.01053332164141878, -0.011839004934489215, -0.14098802556511572, 0.037699708008910676, -0.13590299546590398, 0.05848496205019539, 0.09016110546791478, -0.05369574575046662, -0.03744159938646625, 0.08300619209674562, 0.008355482408978413, -0.013459212476243229, -0.02579844735679971, 0.012047423759105978, -0.03127283172590171, -0.06421072450035985, 0.08569419147747358, 0.014212229732650128, -0.006995270589424374, -0.09356915652695678, -0.033668709997992666, 0.0015241476084354893, 0.032049986794167505, 0.019847722957095797, 0.04807772220787251, 0.041018271822665056, -0.03722995974162034, -0.009357070972316077, 0.04016426319005179, 0.009452318184584366, 0.05025306643276748, 0.08261408138383836, -0.0430680959772131, -0.06374255123043802, 0.01131268276795448, 0.06669362934525555, -0.011735646001479994, -0.019843349205816947, -0.02609308244022461, 0.03344296782140423, -0.03899114609251207, 0.09908321433245441, 0.06326424318933214, -0.059341317900548494, -0.012523488704141031, -0.021042278566428547, -0.05829913939132877, 0.010274995447959677, 0.0241529854647413, 0.036467026280855325, 0.016164411014414258, 0.0791586432041094, 0.047724733014172835, -0.0328558006807194, -0.003560850674616741, 0.016969138677475144, 0.005817923320174918, -0.009004592909687418, 0.048198646046796724, 0.033800226749787846, -0.03486035519322875, 0.04091879173404959, -0.0047479079486124655, -0.044907336949388706], [-0.027467734339491987, -0.028629834465054523, -0.0441007819797156, -0.046374593154199555, -0.014489361019801207, 0.12014776386162479, 0.09130091165907464, 0.013938909643241201, 0.0379714708948362, -0.02274150107648881, -0.02563437714766329, -0.015019621498602875, -0.05919910688472393, 0.045041500666805186, 0.0210085101499014, -0.09592366238187623, 0.014936389110166452, 0.05198691513108478, 0.0032452044615123733, 0.05642397137024998, 0.0666563139568343, 0.03373351105323729, 0.048070918916021284, 0.0019765659197932984, -0.0283210631167461, 0.0525983650556397, 0.04267193835393735, -0.05914522146679924, -0.03256930147970269, 0.010828852401103945, -0.15933413221031822, 0.02850663656777612, 0.03214011178817416, 0.017296409906499263, 0.03613033229415378, 0.03560380641762614, 0.08624006873160893, -0.053970272762540836, -0.026830275581358053, 0.020601280513465, 0.011691609110382174, -0.05545435403174428, -0.02805492637385508, 0.014805774403492233, -0.03824362501851439, -0.03857442094354559, 0.013623488392967873, 0.02980094474670235, 0.10444339853980994, 0.05351423373884235, 0.022840043762526623, -0.003386808544717934, -0.044766194452058754, 0.07168841888170337, 0.020989125016455085, -0.0664801955781, -0.03527837329333135, -0.03434774369207019, -0.11934203300110903, 0.02933075300025934, -0.005049613601507428, 0.04191218403156627, 0.012213235863786615, -0.014029032573689076], [-0.009378607815847467, -0.009466986256708443, -0.020440295174617602, -0.06487150765164157, 0.016049447328982006, 0.027238816492915836, 0.0007617300348366895, -0.002734683185955578, -0.02003331126254946, 0.012593696831908016, -0.08491206021166586, -0.0009921057194938136, -0.005605318660647237, 0.0517783480889682, -0.002797969622570058, -0.11023446914504116, -0.005702792012000122, -0.014847535626406701, 0.025360858436136467, -0.03816285166803795, -0.07284917298063831, 0.019560995537545575, -0.00497129322191441, 0.12575146382014962, -0.05266870493925955, -0.03680738736130258, 0.002745215562117118, -0.011471095274344392, 0.01781563609351636, -0.0014681241300588213, 0.030187100134132616, 0.062236593240664974, 0.032180250290283985, -0.04407365341616385, 0.06607375344933233, 0.054107889534955496, 0.07767476584714084, -0.0011710052844098897, 0.01741711787569242, -0.006034777892880406, -0.0472246439137382, 0.07861908122208332, 0.0642004122048496, 0.10313380683895626, 0.09256746133291263, 0.0332882294722285, -0.014595292983284517, -0.07491277625707626, 0.016301984067217806, 0.040751609134577434, 0.03579197563670124, -0.024714046558569843, 0.016340849982794805, -0.0407626542359368, 0.05115650566906874, 0.04549121712306059, 0.030358047916124085, 0.002745690434747125, -0.02408814713842795, -0.02516384653951186, -0.08149448443831589, 0.06630770064458034, 0.05785628706801795, -0.06604152784555625], [-0.005394590599906087, 0.020227755530515416, -0.03223882397405212, 0.008305133787145187, -0.007583217574680227, 0.0957171247041183, -0.0020302397750564536, -0.034242518462805634, -0.06440203134998113, 0.109320745393087, 0.08724609919075231, 0.008409514362899898, -0.020594355565813897, -0.05662075171379273, 0.0037911547285917825, -0.03980662618139513, 0.0054317324709241945, 0.004343688603375878, -0.0726530013820019, -0.030694946198621502, -0.023506974623918715, 0.002204811823050635, -0.03887064086726171, 0.06500442556382663, -0.07113339763775772, 0.05974914824964813, 0.023048974811371484, 0.042799703453926814, 0.04483747818533061, 0.003094336344199088, 0.10940988814170774, -0.03570529379377759, -0.0014942712434120045, 0.028262690103811, 0.0378495164600946, 0.010139707884951311, 0.004829504106243695, -0.04899566796346087, 0.04323836001919201, -0.040204422590572934, 0.012109232661892412, -0.06618150012842333, -0.06528413866961107, -0.009843634382504072, -0.029888185468830767, 0.046287593046842414, 0.06571009231607475, 0.035425663214552, 0.033078840447199324, 0.027215648209482083, 0.06471560778815336, -0.08951323019311994, -0.08786085371576721, 0.06466258354427556, -0.026046182511339284, 0.045150747644900055, 0.004528397021085276, 0.11198818908127725, 0.047066544005170685, 0.036168712312976026, 0.028400506288481665, 0.0328455174116643, -0.0357260438571445, 0.013021367750772474], [0.027748913379798415, 0.03983281827688584, 0.0045877680471504995, -0.056317823632637036, -0.0842157929911839, 0.026156101578724708, 0.08120509607014333, 0.05128335424886121, -0.025516520577248226, 0.07758607450154119, -0.027173786993675238, -0.013757671132428751, -0.00034361419946954717, -0.02131834596935447, -0.03568224804891112, -0.12367987524141572, -0.01274944969548905, 0.012111948105156882, -0.024861169532009623, 0.07122023405957788, 0.043215273786059806, 0.11819231723784306, 0.05194999533836721, -0.047574611586182036, -0.03376791420396564, 0.0005375262937075293, 0.09714709687006957, 0.07419864875068258, 0.011711694504507516, 0.011872157438529953, -0.01894222953857922, -0.0283442774749958, -0.012011862975167376, 0.050936345391815255, -0.039698618541057155, -0.10353277445836342, 0.03309671559699609, 0.023752059794490205, 0.014316693136439566, -0.0006678614371577112, 0.030889751846296366, 3.172288665081248e-05, -0.05668000792772903, -0.08111547341500819, 0.09714507452312317, 0.03657590135707282, 0.013396204805025668, 0.0019793351807808057, 0.014022412541464519, -0.014107156729790089, 0.051072370998216, -0.02178084836627828, -0.019618542435116074, -0.06255955458969295, -0.03367641770647947, 0.03555248690782128, -0.07309866587965336, 0.08678741930090307, -0.014228048781005118, 0.029827920970003453, 0.056261149588903075, 0.06839944374275603, -0.053508322413730804, -0.056123890711807914], [-0.09908368291358151, 0.003845326087435636, -0.018065314634924536, 0.006354573331435079, -0.03449428592077354, 0.03306070516103867, -0.04624765420549494, -0.06506778480474266, 0.004002096655942835, 0.15854192411916526, -0.014463287032294258, 0.004741778818407197, -0.07111032758211107, 0.042535669387217076, -0.0849780297474292, 0.013695643796661149, -0.03647670567192676, 0.04517400233110125, -0.010028955963055104, 0.028102001150749838, 0.04972843267941424, 0.029163913560999507, 0.08989073123197569, 0.023631366781042072, -0.011217030488102603, 0.08658242749820695, -0.023465919081564243, 0.031602272988042225, -0.03136478599756438, -0.021373948007865566, 0.02511942725852012, 0.025107755410174657, -0.020103199812193183, 0.064843315279878, 0.01920812279689868, -0.07961907780030049, 0.007833777991709196, -0.1152572503247025, -0.1182946414170871, -0.06362032553130893, -0.09739720533692284, 0.07634316039701691, 0.022105323437767437, 0.009975582451225852, 0.01064194848458413, 0.044833270613131936, -0.004210190617081671, -0.01909564547683891, -0.06518672044070542, -0.0482917663785074, -0.037477073971791966, 0.04191875336991877, 0.05599294873652414, 0.08397574706931582, 0.04512928984267988, -0.07737770771616052, 0.04539565436540008, -0.019962365742302268, 0.002703266963520861, 0.008934591289719332, 0.06839210618468546, 0.03196521570867963, 0.046935826947744966, 0.023518287131118323], [-0.0256093674179463, 0.05934475029835323, 0.02531339588264582, -0.03237469532961303, 0.03329337509537001, 0.08615519079136937, 0.011248223626602794, -0.011258239050749816, 0.05756670018957139, 0.06004276953958244, 0.015245658112251441, 0.019155493606819216, -0.046836224591699366, -0.01341570643943798, 0.07055129009136173, 0.03609031128966272, -0.03830310996788023, -0.05482450875551544, -0.01765596198683836, 0.04303462277661311, 0.07118114046119917, -0.009905091432856197, -0.06768871067743, 0.04129678361644113, -0.019531016295897284, -0.0020226511684768573, -0.023898443583738115, -0.06032283388512384, 0.050931261070571957, -0.04363563893916433, -0.006493063239444456, 0.04081224547675467, 0.023888452328749244, -0.03354930262087574, -0.00905165743444819, -0.04499621287421331, 0.023564649519736264, 0.008472343812388834, -0.0054580044178538034, -0.06332099760314351, 0.03981062233165793, -0.07272265498321395, -0.03971249653101616, 0.006978281950814156, -0.05719236365718499, 0.0990531260396594, -0.05534005770439336, -0.048297276501963304, 0.048061735396963866, 0.033834450610619196, -0.01752059252035822, 0.00786428856298099, -0.029349435111870034, 0.04332004622940879, -0.08944992383789628, -0.08873779607882747, 0.023093359441668293, -0.08384752557515354, -0.0022861124154498467, -0.01932381211972708, 0.01683425718824386, 0.0013534942142088625, -0.02169123818244809, -0.010487153918745653], [0.017541809370386626, -0.0773290721018458, 0.04638910385291687, 0.027013029532615106, -0.04239095453652544, 0.010522410844054917, -0.08936351514226999, 0.04991714309833388, -0.028963134135591883, 0.03373464705639068, 0.03641472221370261, -0.07767654240510848, -0.050316292260274106, -0.036365565922671095, 0.008579968979753057, 0.05484386015933655, -0.005199914449945567, -0.003950294517159176, 0.03784374934261512, 0.004881052705820066, 0.025985347495419496, 0.037965776380679016, 0.01263006987355928, -0.00720195735039568, 0.1113217874700156, 0.03652283792739486, 0.021491099735604594, -0.020063466799813977, 0.1111291814824652, -0.011460027758543953, 0.01121702624234043, -0.07237529229412519, -0.05088728063349971, -0.051427769324620023, -0.02522088149828336, -0.011117193824593743, -0.03429084670752292, 0.15616150666845996, -0.04762951100698589, 0.02552545826013185, 0.037872063861620855, -0.04022204682765922, -0.03328808540587608, 0.0018942980654587213, 0.03738032727798436, 0.03937067217959294, -0.06217828409254401, -0.040149784931073414, 0.0027611484700676677, -0.0016136590017556466, 0.06658869850542594, 0.03663426928169098, -0.05608197377921089, -0.03637760513621243, 0.015090208198296167, 0.01517132147603862, -0.06897216688219947, -0.1149809810413052, -0.02167079416630068, 0.029368229437573803, 0.005478343171915853, -0.071325674304028, 0.018545005297188787, -0.007090543134148464], [-0.03647894918993568, -0.03509701716501483, -0.04541576791797556, 0.036091814601961675, -0.0064624954382095316, 0.01084413376029845, -0.038185975794989314, 0.010172456344792618, 0.02372016335025211, -0.0542425141294366, 0.04140739221937217, 0.05927765315488215, 0.08030363495940189, 0.05237671682940323, 0.01296843845606885, -0.04515235530046377, -0.0049108274968587265, -0.026557465766858628, 0.04245090593813076, 0.010517062075269312, -0.12475166412658893, -0.009775326888564327, -0.040678341589843986, -0.1044323648617455, -0.04596052594660385, -0.02495599991926411, -0.02773115121389519, 0.03247312765964976, 0.018595202768250572, -0.010399653401030865, -0.06678814489324952, -0.03451191104940717, -0.14363058425245312, -0.060348426045899226, 0.06942753478554844, 0.08049010655283141, -0.11045225658432768, 0.06786648994737339, 0.007132831364282478, 0.027438273683829933, 0.00010332445392238539, 0.0005130309614982092, 0.06335074586244493, 0.047893232269329775, 0.044708966540627594, 0.07651418779054305, 0.03710717763171742, 0.03199827778511046, -0.03344591198994156, 0.06706086412960892, 0.004747154593583986, -0.01988108685829381, -0.06768114659814081, -0.023584193615378956, 0.032506373196209075, -0.0519752969144117, 0.0307876503592928, 0.0005741550534759017, -0.018387963231552635, -0.057259179559141685, 0.017140720340178824, -0.03670832154145677, 0.03186303947350345, 0.03624153997685237], [-0.11219028531931362, -0.06328029462505837, 0.002659647938624085, 0.009272276902463458, 0.00431169848795382, -0.08954382463672139, 0.0664894447038728, -0.07325535763689286, 0.010830188717039477, -0.028807460597095214, -0.038331593903924974, -0.056925065652716864, -0.015471910557197916, 0.015896823521249968, -0.05685867095452217, 0.04252404901131059, -0.02716366192394817, -0.04795983038402948, -0.0857222194353144, 0.06693277594819005, 0.016848605654115098, -0.014010079390713703, -0.0335052349464312, 0.0013973585218667534, -0.04046796024017312, 0.028802783697336035, -0.004126496539937298, -0.05166173081838279, 0.059859075812525545, -0.08177701821683335, -0.07497949917785329, -0.11097034566820049, 0.02483171683582357, 0.04153641252566825, -0.0038654779464307233, -0.1006232720015851, -0.03676814066076435, 0.0779398840033195, -0.026945938726594305, -0.01520791295644403, -0.10878907395786663, 0.024466607306788034, -0.044064188151642696, 0.026488999738810446, -0.02730784304477752, -0.022733924968442773, 0.07731093744334505, 0.006880700230424261, 0.06279760912357821, 0.02876876753741369, -0.06826303267842557, 0.057070686806301646, -0.044450578017426134, -0.01323890663671875, 0.03937200046828028, 0.08102274172623884, 0.032229528036606156, 0.03507588304917924, 0.014235402721179173, -0.0033101508839413116, -0.005612912582785583, 0.01108241641393701, -0.026361090968737632, 0.014732026591098589], [-0.08561300724835379, 0.06549794720313909, -0.017463375224652824, -0.03783771133143438, -0.049649481237688343, 0.001622040290995364, 0.056402252139891, -0.009174497286778239, -0.05021532165154583, -0.014287776799016619, 0.018260493156496877, -0.03923661911612836, 0.003613501694876302, -0.022280238858648084, 0.020554469420218272, 0.003938353998075019, 0.045873776155392364, -0.07712976761655387, 0.001928171412930938, 0.04635783975303361, 0.032267995693249514, 0.022907646221936098, -0.029278084664905776, -0.05209200891023418, 0.08653273656029732, -0.08961436121905096, -0.025670224353242215, -0.051227094720686206, 0.01824422358769056, 0.015400233246976761, 0.000587394781460142, -0.017878551864940327, -0.04727779009629529, -0.0701163888313574, -0.01733574529965024, -0.0829945056602888, -0.02062937789478442, 0.07146777854513815, 0.029356050252631962, -0.04173829961849742, 0.0023307162213421387, 0.035320102228139895, -0.06538162971989583, -0.031683788999956296, -0.007651652210499916, -0.01478738750644532, 0.12395583445449519, -0.0028500774498635053, 0.030262537508239776, -0.05115531109842048, -0.030449414781152387, -0.015416722049889935, 0.012595252261353211, -0.05352564309636632, -0.024207909932734754, 0.033383391442604674, -0.01570341739286728, 0.04788896963232114, -0.06831145696492238, -0.1071405714177251, -0.016404826077893963, -0.025521859884706028, -0.019405926424293125, -0.012988177058932694], [0.09153614940531478, 0.03273551575971463, 0.0140271567615223, -0.04750904386482593, -0.016554027562190696, 0.024111574817769165, 0.05597461959332769, 0.010857740054325615, -0.037724037323229875, 0.09916497835462512, -0.06778165212555294, 0.038512977057850846, -0.14114545735475453, -0.0801240595682148, 0.019537095914101008, -0.04172769266193237, -0.021115689005541005, -0.07937653817973088, -0.03802586449859247, -0.029563803665367167, 0.06326965619072335, -0.024426749693537662, -0.001703364200786229, 0.02708492425538907, -0.02989115885600561, -0.044604874483519824, -0.023172647958987665, 0.04946970988142696, -0.0022668279590037596, -0.08120054724369902, -0.11495020484116764, -0.02582271740711121, 0.13622678243622993, -0.0289142881702027, -0.023932682120847548, -0.0379868795731082, 0.010723805849950146, 0.07220090821608685, -0.09029589034900348, 0.04880398713213468, -0.051553121604667414, 0.03628117286073054, -0.02769611912326554, -0.016256678177391296, 0.06156511302756336, 0.007002711412516566, -0.05920624632471316, -0.03830880613418119, -0.03571163624212312, 0.0035071687809705918, 0.05165676951115726, 0.05539456672819947, -0.01728174787874026, -0.009449461480956729, 0.012592147578025325, -0.018574620605369414, 0.04788468015001493, 0.008814775067100033, 0.10080853256359425, -0.012619350211393448, 0.027769216785306514, -0.008178486029315472, 0.0360203919754374, -0.03865889163857737], [0.0354655982036669, 0.028230274412303438, 0.039856134163050984, -0.006216792768841872, 0.04696381057578359, 0.02049251935244309, 0.0188756902392086, 0.076154774555181, -0.03281744901437494, -0.013541018074939959, 0.022524128771557277, -0.08107907212394563, 0.0361669121420064, 0.03891256215177025, -0.05041227669365019, 0.025385384405854517, -0.003693271520666945, -0.00017145383418364432, -0.07484346844084469, -0.022088831959630142, 0.09466672214516884, -0.033459068674179894, 0.009574413975113322, -0.05976340644985797, 0.0028486715696660393, 0.0042243663105053205, -0.007888248776503683, -0.029107094600404382, 0.031974699678279546, -0.02922715046562412, 0.04422262930064455, 0.03061844165892718, -0.01750490568619211, 0.022330220445384557, 0.11156988894864038, 0.03119827408119157, -0.05714721213679278, 0.016671177522248913, -0.05190772718358176, 0.0010743519507544267, -0.012873752778484727, -0.027547452707071006, 0.05335910503758338, -0.002556702548092868, -0.002591826130800368, -0.03276667476783447, 0.08088536405696244, -0.051513432213101625, 0.030526793103589616, 0.00364116704487021, 0.03382432167157636, -0.0023220540954698413, 0.05247251642900356, 0.0039341875695166045, 0.0561715424726551, 0.05472119042552234, 0.00911435967139154, -0.05077615090401025, -0.049944524292547185, -0.06199610470255563, -0.046763202160231956, -0.047637537981987166, 0.018240088003116977, 0.0001730641611385805], [0.00344221620205317, -0.00954146006999628, 0.0343924445150187, 0.03512658959934493, 0.024078890943339825, 0.02610564977752304, -0.008555246455664566, -0.03103995015519239, -0.009755117873016072, -0.009230485458732236, -0.02120389960845375, 0.010564358113020022, -0.0647768013024816, -0.009144231993551008, -0.01811172041011092, -0.043003479793493414, 0.04805765455495603, -0.03531966796944621, -0.030812457290056394, -0.02859920094423366, 0.016975917662869013, -0.05994197812168861, -0.05777101899850602, -0.051459169948396985, 0.06185062250673542, -0.10928405571593991, -0.03467264880746116, 0.041918173292473146, 0.0337468340702738, 0.05159966010751885, 0.056330776489692376, -0.035705600644889236, -0.04031456573997231, 0.008048885693775595, 0.022468611479825464, 0.0007844650056347299, 0.046472303165747554, 0.039641123944515376, -0.11864103296320598, 0.014015560389526786, 0.0018143272051444634, -0.022109146940409233, -0.017045147945390898, -0.10707597232290121, -0.03578752602340082, -0.050813097055959336, 0.03864254265403987, -0.0029340418937721666, 0.0834483910572444, 0.027111630850315746, 0.06571173746444728, -0.066447301436257, -0.04345320274156593, 0.05581996924464761, -0.020423518698603257, 0.010976380124788859, 0.06348541374503108, -0.08080169663663471, 0.024957830350053552, -0.003202987900214586, -0.02535391773816407, -0.03913739376730083, 0.09471294176897962, -0.08715387066229034], [-0.004102064356514304, 0.0816300871167998, -0.02463497861930347, 0.032542273482521214, 0.036232919818389164, 0.044886881986691066, -0.09238797450072224, 0.021262101777532943, -0.018930634783888307, -0.054985129374402905, -0.08492506692100991, 0.049090563444245984, 0.013381910520186642, 0.021114109897596607, -0.02065723759778814, -0.13240849012220768, 0.016133260499401617, -0.017940765077993494, 0.047552991024476916, -0.028401578835296037, -0.04432877857568417, -0.04159160974017547, -0.05290791455299411, -0.049457119069447754, -0.06684292897654708, -0.05887312597026891, 0.044787660498270154, -0.059482214087178874, 0.042587439218979964, -0.02816881943614575, -0.08904492768764269, 0.0020554218435499534, -0.007066970272730731, 0.016119629575203968, -0.008558681457491089, -0.0042860890804288015, 0.04468725440632654, -0.05655995891534397, 0.0033254264207139735, -0.0668819251476922, 0.019309728806584266, 0.11348005666697385, 0.041079692819205496, -0.05405001470138134, -0.0524513686672068, -0.05454259564698424, -0.0629007264856799, 0.022428235486376374, -0.0691471973045366, 0.012243872536078854, -0.017543267539716682, -0.023485773422715184, 0.05796928325738488, -0.08088798353479242, -0.004106812051728531, -0.001884968946701623, 0.042983884511817616, -0.03503502657280486, -0.04934975248073832, 0.01765595486963565, 0.02114357912621482, 0.06657308490066276, -0.0191344792627339, 0.03723294079003264], [-0.00605518807310542, 0.06299985242571786, -0.0348405200213526, -0.01568387727979722, 0.0050060594481485575, -0.012578672194536835, -0.05947634583167919, 0.022299882626447727, 0.049190324930575166, 0.02497116790818869, -0.05605082243449593, 0.12629097128729205, -0.003697530922032103, -0.013791513719998408, -0.010087585395520706, 0.016097599782061784, -0.08335748376416216, -0.029170341346340205, 0.0362873769967379, -0.11482872361067004, -0.06436367334305633, -0.08993488581862918, -0.0608478463485591, -0.017891028776393727, -0.031437465578744016, 0.015321132534030137, 0.030281567044292395, -0.07657196039667179, 0.023931490039441592, -0.03680562867810073, 0.021740232122100543, -0.07004194091307492, 0.0010208516202402777, -0.038837608603802386, -0.023467014944186935, 0.01255068676855024, 0.00434176108301993, -0.017169998377670734, -0.03286630749174901, 0.06636948538593121, 0.014637164668554135, -0.05985870572329686, -0.020863772815686715, 0.010798493279362978, 0.01911679186519862, -0.031719665958536356, 0.038741418265799285, -0.07259516625234338, -0.02830306887667192, 0.02150191173517104, 0.006846085616289845, 0.023050464601667472, 0.03050910674526859, -0.02137206438692141, 0.014566548817473624, -0.021329474802651075, -0.05466429630846277, 0.05909799758931614, 0.06929846871589271, 0.02884693845088409, -0.028293877581835263, -0.02329473770826022, 0.0392014610820724, -0.02937521746095221], [-0.046146328797343525, -0.028397248990820547, 0.009650841345997372, -0.0015900726648383791, -0.003786780489970828, -0.054219520443703366, -0.05929600786560836, 0.028502335876073, 0.06854856357723117, -0.041526212939625905, 0.06596831119972693, -0.03896328864896024, 0.03872404895036326, 0.07357917251095762, 0.06001187223617809, 0.045528198538925944, -0.02862877097820239, -0.02885373859820241, 0.03768145273716924, -0.031487070365737134, -0.052021923037279795, -0.06338231492844831, 0.009867749059656136, 0.05470767861311612, -0.0164619701331425, 0.03763659667543123, 0.00027187003364347495, -0.025208612176095487, -0.08040823715541646, -0.050449801999812784, -0.08362999767006125, -0.005338555482381698, -0.03129410146889592, -0.005253545984777858, -0.002055845636395524, -0.055592212953315366, 0.007874268642195807, 0.019299929988452237, -0.011886969347347082, -0.05933259712916858, 0.023558338830624387, -0.01184319987317603, -0.03118033050610557, -0.13656081267509376, 0.0030371181154804703, 0.05716244045890595, -0.04283632713020564, -0.06002751221279074, 0.007127215762251004, -0.058535181361689496, -0.09897339929473475, -0.05854222849130243, -0.011388713864347297, -0.06358925987238934, 0.05198895649180802, -0.0317171196443866, 0.026540082799158184, -0.039401170208293416, 0.022799198203039977, 0.003191090044535368, -0.025943283251329028, 0.01105754709080048, 0.03401565535102822, 0.012898622584288684], [0.03421278103913467, -0.13041817476103365, -0.006952512576653384, -0.025321418045004204, 0.07680968518094526, 0.04316649280827121, 0.017296742375309773, 0.05403152941651189, -0.0374614918072941, 0.03671319544438448, -0.05355426616628117, -0.04593671692065964, -0.03416224325434284, -0.01895985270492259, -0.028994549490517163, -0.03433554877415559, -0.0809693877586579, -0.010090893792069584, -0.024146530517155092, -0.06702845842285049, 0.052206915007475575, -0.003890026077918523, -0.06324210287509206, 0.044976881111161944, -0.04241087347125267, -0.10717873284845547, 0.06372728809364087, 0.02403423916407412, 0.030107581868309252, 0.09947994713451883, 0.04226910094553856, -0.037922552611283376, 0.018724914269044143, 0.07881345592625691, -0.01222907056070436, -0.038185574217910113, -0.06624683395899597, -0.055629360862623316, 0.02971331453803074, 0.08134717827476537, 0.021258537782832616, 0.04763974789811666, 0.02168619448758135, -0.012119822679489484, 0.05128758826290528, -0.01753395174838692, 0.018789158163568825, 0.006961216863650131, -0.005542835265176822, 0.04011564490393051, 0.049130788965610704, 0.07894997714566485, 0.06553140009054896, 0.0049677405627923076, 0.015802509249005264, -0.0022341774948539807, 0.047626865400577624, -0.03415686596180255, 0.010308351406079686, -0.06419256143449875, 0.007508993263498617, -0.03438045628962018, 0.014407333886859003, -0.06070349416519094], [0.0707972547174792, 0.03866230057446206, -0.11048063717652118, -0.01814555477542699, -0.08593709873800856, -0.0026302057134146165, 0.029189916763933833, 0.0543143117696409, -0.03517858393125308, 0.0232254970707048, 0.05419742685845521, -0.04885534207607873, -0.020567909145279284, 0.03253208636188233, 0.06471810816612776, -0.01986583563880096, -0.055711476435038626, 0.011549353574614743, 0.0071097207630517875, -0.0679450573068175, 0.03095290749699205, 0.012700106490662262, 0.00979771419801723, 0.07624845143525501, 0.042529290959409285, -0.014120830159914619, 0.08961609869496599, 0.018492332691223103, -0.06429610273063902, 0.06336627029766921, 0.0361409398515518, 0.022356762684049618, 0.004154749273461788, -0.006662882490583418, -0.08571602430044342, -0.000945089085221546, -0.05374653368374857, -0.01746012242415052, -0.03200906638567942, 0.012969777654398886, -0.024791883032867907, -0.03611690388710841, 0.017468701429004727, 0.003718373502025487, 0.05568467694955329, -0.009416495324050264, -0.05830894331526701, -0.015344988876587636, 0.019441619435054285, 0.06949924183098469, 0.01207596874693019, 0.07044870958235361, 0.02423436503275884, -0.020612084608512223, 0.04723195647353333, -0.08275161934875828, -0.016089065857117585, -0.06363499296666905, 0.011686312541732653, -0.0084471841431614, -0.02116062812618832, -0.011637017849947435, -0.005189356778815555, -0.012005589587530632], [0.03144570262413148, 0.01584856963087016, 0.006516856790714486, 0.02254390713679214, 0.04721148101099718, -0.08814597604962159, -0.0471908363392211, 0.024102635089635956, -0.032572450792508596, 0.020765348221127942, -0.013511389320166925, 0.018276666725222296, 0.07623639385387232, 0.0016849430242678552, 0.07405657001565714, 0.03449988851792529, 0.0935307228484109, 0.02728580523073527, -0.03472167293092987, 0.045805556342413754, -0.018822842491846663, 0.058531670882104564, -0.02732883462122007, -0.01775518463648476, 0.04975476438098747, -0.018590990488087628, -0.007129797510032501, -0.014943240468883463, 0.01986009600238421, 0.036645351679846415, 0.013326952488973837, -0.09177577142545493, 0.026053766819106178, -0.023961659229062824, -0.029167145760115098, -0.027639015222967172, 0.10294581346584743, -0.08748823808894736, 0.05369407746993858, -0.0436038852940675, 0.007853755080662984, -0.004585762219027081, 0.019666727164051424, -0.02154578046149302, 0.03668612741364957, 0.022172538469318027, -0.041353395839949, 0.02990464594251225, 0.029457524078891226, 0.021946188077517376, -0.0012584153492926301, -0.07939464985333719, 0.025434910288970703, 0.10896453639365641, 0.016332937459955614, -0.01669276947952162, 0.01775887317079695, 0.05077165350421451, -4.188982970913998e-05, 0.02864292993783665, -0.04576188825079043, -0.05565784254997928, 0.07276015265269178, 0.029170636866661746], [0.0628231671832874, -0.0012235034367260181, -0.001357682160690833, -0.013631521223034057, -0.014922764767350435, -0.024658010108077173, 0.02217921172299592, 0.05561552096045807, 0.04447779874102105, -0.017320445974440754, -0.019441477261407734, -0.03257102727311431, -0.008280243375909777, 0.011674738493119143, 0.021455997148248078, 0.0570448406753559, -0.028763398567915835, 0.060760276459425604, -0.013402306486196279, -0.022152055621010365, -0.07574038820492214, -0.05386171139298076, 0.038265386588575555, -0.00226102422639892, -0.024049717020406914, 0.0838637134042454, -0.024072835011032304, -0.07315121559892956, -0.008362041227417608, 0.052319090012215776, -0.007028109658677336, -0.036125439716849436, -0.03889071526494692, 0.012130161246310743, 0.007689356116792566, -0.05131852598447286, 0.05944341797718964, 0.03150180988950778, 0.04262852800087445, 0.026010279241817067, 0.049822897093136566, -0.09089731413812417, 0.029125971002285252, 0.06529209607843026, -0.07791556993956654, -0.04957026902470308, 0.07528761933950877, -0.06231951862767579, -0.05773877281429394, -0.06096539902658199, -0.0767550231792183, -0.04392458822129674, 0.015720464385477907, 0.023735662893468363, -0.005351944959185511, 0.1079229677628358, -0.07816305584600569, -0.024911147504104596, 0.026930524509374904, 0.03727236567015798, 0.034399807652515525, -0.04375667770421958, 0.015557617682532828, -0.015041740162741622], [-0.021195198650409582, 0.0036157110561188415, 0.001518207187524527, 0.008447822542725822, 0.006197353705081464, 0.13264542075849065, 0.07105662054619762, -0.005306346289570678, -0.0009114589290531132, -0.0301432481962106, 0.03246005351762489, 0.05516077442089316, -0.0930797576779828, -0.044698031385490694, 0.04688191347513151, 0.06872203898978904, 0.011234737893673588, -0.0076869332701626466, 0.003693252264949898, -0.02946528407317263, 0.003077976190957041, 0.02162276860823058, -0.022017069003878977, -0.041772934207574226, 0.017967934081312188, -0.04386462728811108, 0.07778564720364613, -0.0517389819519504, 0.06933367176651042, 0.017429582139416023, 0.10815546237389191, 0.07684657652710133, -0.016129350241659856, -0.022687169493442044, -0.002786665792772219, -0.06181790373135404, -0.04173822008557778, -0.030098025451806114, -0.0390170657911622, 0.05625209878287681, 0.014593086203532812, -0.017214833747734533, 0.00023824051441510404, 0.12150347605590396, -0.009691492838084527, 0.05053676580670837, 0.020661655236879812, -0.04724483976502153, 0.03034075181957561, -0.09510259277395616, 0.09865082510862982, 0.0038721802996338436, -0.02262340765208215, 0.019508110228148863, -0.04089148568179486, 0.001727541341425545, 0.009508345262365223, 0.013875698559473378, -0.07206513018993656, -0.05470295303661635, -0.03709903733838685, -0.044738555504662804, -0.008614609731200238, 0.02005428560925379], [-0.02271901615218403, -0.044938333920922835, -0.05160220414932701, -0.037596585341503744, -0.029100217241949933, 0.030016044698234462, 0.042257136071220266, 0.04051524908034035, 0.0375845490425714, 0.03973502224649718, 0.027331305043756058, -0.0159865675482515, 0.05291797650974236, 0.09473487617022443, -0.04924401550595999, -0.0006436123028199496, 0.06920110997175302, -0.009842946320428255, 0.05561335135229406, -0.053890744449623086, 0.05476573488825441, -0.12011149594197466, 0.025144199764951865, 0.0669457635075528, -0.05174082301188007, 0.013415781847286633, 0.0008352709777608834, 0.04387693085466706, 0.04178661952629631, 0.059325702120217344, 0.016120999808956465, -0.06947864625671571, -0.023316139013862435, 0.007551404976177016, -0.03915935012317257, -0.0958495730296171, -0.015079739357268005, -0.019542900030456938, -0.013495416316531724, 0.02818878102471136, 0.06244975809806082, 0.0051405709930297735, 0.06735116302943142, -0.04736404937285213, 0.007973800128064892, -0.05273349213279235, 0.055985427277301346, 0.09107331888008963, -0.07559384705135105, -0.05270593122606463, -0.07522497916403074, -0.01880945148501961, 0.06545350825367008, 0.04969827764271087, 0.05097892350712654, -0.03235201785103373, 0.10756963748488911, -0.011121203359148365, -0.02182109873209567, -0.0433434895273635, -0.10165064398200596, 0.048554484946678085, -0.01551285230864233, -0.04885745787002596], [0.05722431940353734, -0.020827759238690298, 0.011211233316188274, -0.047152633563978225, 0.038826581471530446, -0.09053388686649907, 0.031012542948732843, -0.057021019453862495, -0.03603670917459206, 0.015411790457196657, 0.011137786934726038, -0.10731033379407916, 0.051741987080422464, 0.03058572532976566, -0.036024204691240076, -0.008230045600693256, 0.0779753915258177, 0.003881094960095906, 0.05799170592512869, 0.005706923569330372, -0.03887273310633472, -0.018365516792841294, 0.03339027248987399, 0.08329686665528135, -0.016180890351256087, 0.020017894113947023, -0.06929597657815344, 0.02466591906631058, -0.002887184592856798, 0.06439833032845017, -0.054135447048471105, -0.02805620463214996, 0.06199940349576955, 0.011251461641832678, 0.01987348621320979, 0.05916793627799508, -0.025829003934487314, -0.024709275178284893, -0.04879096388676213, -0.01393680585167166, 0.06461912488883949, -0.010842102437332073, 0.009659189227314789, -0.05677984623853712, 0.041691352030669135, 0.07480217242122197, 0.03156036984240089, 0.015434837352513144, 0.02496200694509994, -0.11233843308986524, 0.046207662510349516, 0.03336867111212213, 0.030414001109076712, -0.07488254559071296, -0.05718176170220023, -0.04542720359579614, 0.04081555779186726, 0.008878903047919046, -0.056030676142897876, -0.06730805097033216, 0.013981769913212667, -0.04859760996892596, -0.013847161079396049, -0.01591691020024221], [-0.00044501376466498684, 0.050351151021389304, -0.05633991370019598, -0.04794994515084898, 0.04311634072140624, -0.014671871207651802, -0.023560220893811844, -0.0332567783099333, 0.013984902083311351, -0.007670880272967514, 0.00867150974064105, -0.03183408469445707, -0.007382950959786853, 0.0008115911773316373, 0.06365270682180793, -0.08365916307269308, -0.02940121220243871, 0.0030192242304372735, 0.017658480893201167, -0.05650946270520838, -0.016398259259811865, -0.07776832996889554, -0.016140790205260134, -0.03554402300753397, -0.06785129992948971, -0.10664066044582371, 0.02188942098273391, 0.02349186468188896, -0.05692387146873285, 0.04309151963653685, -0.014273766527516817, 0.01651463933847423, 0.07968555598122574, 0.014505827248728233, 0.050958310908443306, -0.02767445425561626, -0.003630624973250018, -0.07168459049037158, -0.03404808617318205, -0.0055402923986695995, 0.010350188875722864, -0.03866937122361287, 0.0484433142178127, -0.016611733658570726, -0.027057565895660173, 0.002846670892362171, 0.03535055297669077, 0.04278546711782095, -0.05166916637217791, -0.017940272608032538, -0.009533627167405582, 0.022036984186030617, -0.03195792690992704, 0.0017863505646940289, -0.08155911440012746, -0.013767174623209885, -0.007530478412841161, 0.044229382188147266, -0.03335562737140573, 0.04791785720237945, -0.00962631892307632, 0.039291833578810116, 0.010339223716257836, -0.07500881206863953], [0.08239882660914549, -0.05431787800399184, -0.02810239811859602, 0.007842398797865496, -0.06200827168768795, 0.0686405830683762, 0.009632784824678586, 0.07309912287719883, 0.016147947667424344, -0.047652617969790256, -0.03534791131539085, 0.04590023980511443, -0.015371307023062738, -0.04080257582101752, -0.010014883886671426, 0.0520539091068595, 0.0005451274226242241, -0.04218887414326539, -0.02933481652277503, -0.006028077749743645, -0.01248535857658073, 0.01617537370830855, -0.023175639537355148, -0.008974933394188176, 0.004381672189882001, -0.1103774582751342, 0.02093490441947428, 0.06744369079944648, 0.004056160741554299, 0.04181065538347462, 0.009527442072912572, 0.03306766826078735, 0.05543444717320913, -0.07357275045257773, -0.05271182845545461, 0.06632511456133611, 0.02014056464579918, 0.0009706727100655321, 0.06411172885406433, -0.009015760685485758, 0.09515267749327826, -0.00048592602756200386, 0.09108961998911311, -0.033630150383917645, -0.05222678745022206, 0.03743428282614064, 0.08406823177385087, -0.06967737869420819, -0.028430261652373227, -0.013531678798232976, 0.02850438651374047, 0.07411302126115325, -0.041116440914153, 0.007182716019053987, -0.001330093352912, -0.01941848531707758, -0.06041759817645521, -0.01758294054154092, 0.013072209198931687, 0.0017156013105261696, -0.07068001199638571, 0.07641211659697303, 0.010631798227154883, -0.049059618758147995], [0.04871252727303711, 0.045887441377449247, 0.010450331566808108, 0.008017746005404924, -0.021506214422240644, -0.038418387517502595, 0.03723279853856787, 0.031456848388304044, 0.02535915463376209, -0.025629592486486767, -0.005800426825211305, 0.03564287266516698, 0.03943538115042869, -0.010971600109224752, 0.02143015280990141, 0.04966379381434876, -0.06598010890880743, 0.04068641547006767, -0.02740621433644908, 0.04186149336508355, -0.058111503529034776, 0.005678355312820674, 0.07239499358952206, -0.0017452136513073932, 0.04122582970203944, -0.0681578183978837, 0.012223223879271999, -0.06886983161471275, 0.0174637203786978, -0.024732140379715658, 0.03164043727540026, -0.07632415754248272, 0.009615644502010672, 0.001339108420024156, -0.03139418017616555, 0.01862593574023089, 0.059119211735194896, -0.05985809722301215, -0.029735964116113525, 0.0025073901109127555, -0.037949279657849666, 0.0029771419617215817, 0.005042558912195959, -0.022599991239675557, -0.00041512053046211184, 0.020444660644339478, 0.012289612162989549, 0.029443980856376683, 0.014015220127311025, -0.01734745585831371, -0.005503718254374613, -0.03544549171367879, -0.025575124336750733, 0.057862580208439235, 0.016779761180630393, -0.033125995911304135, -0.048441579772028814, 0.017404062491147797, -0.020957792535744056, -0.05247606029602242, -0.07683274495919816, -0.03558304345585075, -0.129151072378421, -0.033648361687870595], [-0.009502795680947067, 0.03984425482463011, -0.09372389425832946, -0.009749740757612717, 0.0023884281361465547, 0.004489123852891609, -0.04293436309340211, -0.04870829880761428, 0.08213437383962367, -0.026377321614692043, -0.057969902911900434, -0.07491936284739019, -0.051181692693183324, 0.026340302435860236, -0.09302897978655267, 0.06756267114624656, 0.04232132362120786, 0.02128438171706185, -0.03276643033389218, 0.058958512613770823, -0.01000469459925503, -0.07321730474927289, -0.07705885505829277, 0.04764555904223043, 0.0010809522442286402, -0.1092966073387884, -0.003813996605760123, -0.03930824222469249, -0.030522685524623203, 0.010202539279558881, 0.018833915907498867, -0.013253220227770568, -0.02641366917574632, 0.038762019362235056, 0.0260145898880256, -0.0799776287760845, -0.0010424350816319846, 0.05279908344895154, 0.08206845914207317, 0.08224045637644115, -0.0005220334838558154, 0.0006115055682755714, 0.03158773444656239, -0.06545804042336995, 0.022412495971074236, 0.007500148973954581, -0.005214484833181101, -0.01407690476989955, 0.04593155568053072, -0.010917885475745313, 0.041922766698212766, 0.07565277980676484, -0.039912970628297864, -0.0065580614510416056, -0.015891415136982046, -0.004723068538344119, 0.03954814779508766, 0.01037580583011854, 0.08067927736872628, -0.06410946039976784, -0.09274094239116061, 0.034663791784917616, 0.05300043996108579, -0.03392993241660177], [0.07003118251864446, 0.08117887377472999, -0.07542993649536724, -0.021386201576470067, -0.059151320570992066, 0.010604373394844293, 0.03779560953781172, -0.052202503964452196, -0.05166872394075309, -0.0525955083691045, 0.05207299178226832, -0.02179068537222086, -0.00017662767084684498, 0.010509784483778284, -0.01951608559671992, 0.049098239848218504, 0.02017909394202348, -0.00024712971672123484, -0.08309751847793602, -0.021517411166254385, 0.024030442418284167, 0.01848036123057268, -0.06799751153267242, -0.030283855394399078, -0.10010379672929305, 0.014554720785333358, -0.023360646454685333, 0.08649965076721414, 0.013260534113514567, -0.05849701641874264, 0.01302582856516541, -0.04270313836996303, 0.006674941804776142, 0.08475163834889958, -0.006348264642651173, 0.0396012793131578, -0.03396891085719807, -0.06161532341646696, 0.00347336535173063, -0.020014998681045063, 0.08714178769422713, 0.05648874917268988, -0.05937852849307379, -0.01887441933842425, -0.06259682455172355, -0.0446037254194502, -0.004026800665610071, 0.09126450213493414, -0.03826765667678322, -0.000545350121174157, 0.029256506066480562, 0.012904387155872088, -0.004970518556051162, 0.0003955091993116082, -0.026068247790889655, 0.01656786221270558, -0.027801864195737, -0.04704707905988231, -0.018133827357075277, 0.004076583662474653, 0.007966620590037285, 0.008041627063743196, 0.02918065997520184, -0.018062291444277182], [0.02435897558729668, 0.03708213817774241, 0.02366960469222615, -0.004016189260035863, 0.04025024294234936, -0.0018251309028206202, -0.06952747290684903, 0.03671682710927651, -0.05156241891331027, -0.0058420034875921525, -0.007605326359846757, -0.008239084220791589, 0.06053116229614652, 0.0378930324395603, 0.024580241281906338, 0.02802554215246523, -0.026603960775955185, 0.0317125226948593, 0.04600706510148513, 0.08157380252450068, -0.013572953003271295, 0.03779153472966908, 0.1373257331182605, 0.006927102790398925, -0.02136159395233394, -0.03673971921755666, 0.047471292836437216, -0.011908920058873913, 0.03132274787471675, 0.008367204132864146, -0.024150305298971816, -0.006440027235444797, -0.04438427217245225, -0.04096836876877608, -0.08677562968997297, 0.12073654652299168, 0.008579768627450022, -0.007735471484796812, -0.012431602159435612, -0.07456294201406823, 0.0030454203778951783, 0.029204716746849862, -0.02518151506987667, -0.005824434397428676, -0.010238830248650861, 0.008613175915838803, -0.061020751126594705, -0.0800817657533951, 0.006621049199778511, 0.052568542079322926, 0.08441292633388983, 0.008354669356606266, -0.05466411041057521, -0.02348408720703259, 0.03028627072141273, 0.13233713797582605, -0.0756910188272374, -0.02754026976476343, -0.01646817336620098, -0.04333520667023031, 0.002933355724226309, -0.03400319221252377, -0.08577405425750882, -0.011566961614897802], [-0.07081375005172472, 0.10757893253854416, 0.027536691195475062, -0.018796079469826664, -0.006296227337672131, 0.03119513546082826, -0.025514620594633344, -0.00650986538616413, -0.018442089428595664, 0.005178378480828996, -0.07067972360860475, -0.021593211662665892, -0.06452232194037355, 0.08771217502475234, 0.0016409919775068162, -0.024151471001744036, -0.04041059628932789, 0.062013969383679014, -0.0014423904713089576, 0.0005616224345379813, -0.04519870440382474, -0.0698011922800112, -0.05561981260562195, -0.01906782817059957, -0.06596622248206249, -0.017059307445649624, -0.006957347350698412, 0.025641612044206032, 0.0416212013441071, -0.027968710409817726, -0.0009621125636693619, -0.02062632536900595, -0.07366528361526407, -0.024392354624782446, 0.0279820999731224, -0.01674757554156568, -0.09653872244163178, 0.024976415045984128, -0.0717088526891209, -0.00949780029459932, 0.08742862782421565, -0.018855291705500838, -0.0293171720395715, 0.042119199933860416, -0.008757990840531202, 0.02615562299259356, 0.08818872185708065, -0.00692784352377853, 0.03682299194584239, 0.07117136106277565, -0.008393448607780836, -0.026162005914723525, -0.023343989047695326, 0.0693508117090856, 0.004832562975890193, 0.02327698073210529, -0.0145120775689523, -0.013091000975879877, 0.022101151118763897, -0.03231033005818319, 0.013490922072150446, 0.009364881947152357, -0.001697952208976598, 0.005683932263312439], [-0.02649707185093712, -0.03194957928434735, -0.04621989215175428, 0.0017168420592962898, -0.0044476139250727185, 0.015657930269194428, 0.00828510206003489, 0.07382140527744138, 0.1313271299847631, 0.016378126360837363, -0.05938631161484539, -0.08691292425311085, 0.028348940583302274, -0.04100428881554137, -0.032219157060009565, -0.042343588511798376, -0.008574528206307377, -0.08847198306090545, 0.03119109132016801, -0.09010767072139977, 0.04522847858395976, 0.015228731189555674, -0.06907611101930629, -0.014196873258213814, -0.0007197826009608832, -0.012762017229644805, 0.02481183357795196, 0.043006519869447146, 0.0306241409899875, 0.040839625440813924, -0.03588866134383312, 0.009910983646856227, -0.054428885296995196, -0.04979884009120434, 0.06007375436186966, -0.020804812551827416, -0.08612631565886242, -0.03065619700229397, 0.012467414517713302, -0.0622271969501943, -0.01644858148606497, -0.0745336767162134, -0.013903275697048585, 0.002718406237490874, 0.022213940960054714, -0.04744013957843794, -0.06808336753324948, -0.017222508165100996, -0.053141543959248895, -0.00956677256886006, 0.09277903027085396, -0.043261687726034524, -0.16410997453239573, -0.02613231339238314, 0.023039311398018302, -0.04138152782410788, -0.06130975727266939, -0.07589457809714065, -0.02095596914180175, 0.016598618915951855, -0.0477633189856321, -0.007591119692919535, -0.07507558948928675, -0.030157293081516694], [-0.02692629872329408, 0.045637361751057204, 0.015603366269912891, -0.007016586044877723, 0.05716478466050069, 0.023047955440704357, 0.022649768028707735, 0.001976458854393876, 0.028142075266358972, 0.011060177646858243, 0.03870815215126506, 0.004992298370863742, -0.04628124021319397, 0.08191700928321406, 0.0794173517943135, -0.042133327471589196, 0.047131366185922695, -0.0188427132139585, -0.060204012421987044, -0.039563146389376, 0.022938964349624433, 0.03682592349145645, 0.024437989365867583, 0.021938615983479258, 0.01634376357349056, -0.018230178321236037, 0.032439102561571925, 0.05062298813695901, -0.06324673500011975, -0.017065280723245164, -0.011135926135288783, 0.013572657390586622, -0.05042820167738671, 0.04913222145750105, -0.0983060379341441, 0.00847700838054899, -0.05032349981346606, -0.09760067181682414, 0.05802925982250441, 0.0336347401541516, 0.09752368056383133, 0.019631522930002226, -0.060432415940895066, 0.04653121681467724, 0.05635769989687598, -0.01404436240937703, 0.0415184113073293, -0.027880043191760157, 0.029352318616519223, -0.011028843592477038, 0.01334615558928573, -0.07798510206131722, 0.050315698330504026, -0.08309751029257127, -0.04481942319489473, -0.05321381475337218, 0.04559525925049619, 0.01359056969527379, -0.030184274589019535, 0.03504130347685076, -0.024904798919280838, 0.08502517040509987, 0.04386983767683504, 0.06115017483259256], [0.12483316278442294, 0.0038026506421039523, -0.0019220461996264015, -0.0669515678398166, 0.050519943118607046, 0.027865097593135515, 0.013485679505472824, -0.02522960831482352, -0.030447177092599316, 0.05045633626557222, -0.003081496951578961, -0.05331493269604834, -0.02471985123812154, 0.04780424099292649, -0.07043583371567032, 0.030474081636944147, 0.005726305272617643, -0.060275206766534015, 0.019222187577168624, 0.03292662599919989, -0.06596816748898406, -0.013307004519686883, 0.0719235355228209, -0.0012877224771496371, -0.008032170598781654, 0.04941986132807791, -0.03691551493236174, 0.055091638574096914, -0.021618347609555826, -0.012928791148868895, -0.05736120246497329, 0.03084939437866704, -0.008182115040915327, 0.042407365461794, -0.0399471730212003, -0.060387535539411195, -0.001868895804883171, 0.032643398066943136, 0.03490531376668513, -0.07161130514233129, -0.03402655189565392, -0.025763042952122138, 0.03287683199552062, -0.023303380343951213, 0.007718185005138817, -0.03652471497199156, 0.0013931811272399155, 0.012247288138512514, -0.002326485425684838, -0.041038953339998394, -0.012018306990527455, -0.01803059528104829, 0.005534297267770913, -0.04390292495517579, -0.0390624217995861, 0.07297834148449692, -0.031063154562925705, 0.055854328002186295, -0.04677159643479285, 0.04618516378700809, 0.03060007132927532, 0.07271389282785938, -0.004436985965494917, -0.06967725385722821], [-0.10774093360662049, -0.10358837230928317, -0.025799596449263048, -0.06730226713981197, -0.07092529042477319, 0.06921665768745082, -0.02899258791270783, -0.004117182460531447, 0.03177779947528489, 0.01767178300913123, -0.012537694192408091, -0.027930987028772405, -0.12957620891901706, 0.022639229478472564, 0.0639837468639143, 0.03169116540813519, -0.05830422430874441, -0.09475281300363242, -0.009500242127751269, 0.008239787696352729, -0.03865408223089069, 0.1166512543319447, -0.10048267837702815, 0.09252051098861791, -0.07734089086384398, -0.0033856797292249373, 0.0698048255702857, 4.495187438598948e-05, -0.022010699887345418, -0.017503113045209448, 0.046209974204085305, 0.11455103211867845, -0.09572620372236497, -0.022860039626423585, 0.1103619795354078, 0.025990733314922656, -0.026616860557023014, 0.0515956035325492, 0.0018115375137463105, -0.003221746007863982, -0.02582777252110178, -0.036093569789294094, -0.05830541753478038, 0.15933090668057678, 0.04738672858867376, -0.0046134308077069655, 0.03514144561614709, 0.042038173695692384, -0.1636323592873995, 0.13674925226589615, 0.12335346279452387, -0.014102702417846447, 0.014152441471368172, -0.019704446397752217, -0.022042624097190572, 0.04054711160028395, 0.03470038436818586, 0.05170803419364883, -0.07601257391232095, -0.014332507722261323, 0.061162185518103186, -0.038023714595989, -0.06186678225044497, 0.04431183587201045], [-0.033268983839750896, 0.016528677635866573, -0.03550411737762963, -0.021483794586230745, 0.03912293725113877, 0.05429878920866447, -0.06362630908908976, -0.0369957690273629, 0.013284354224195436, 0.021760757586098557, -0.04043494950707837, -0.09387990381330247, 0.043480443550678205, -0.03585052565318289, 0.0728142844025803, -0.04159818175217351, -0.03863762158035986, -0.05393172764234763, 0.012508421104706798, 0.021153289881324984, -0.08127737904035451, -0.014943267888936504, 0.03404280586538351, 0.09846260584242682, 0.02751545166170681, 0.0030767444966351004, -0.06604596164435786, 0.11919200806208453, 0.04041896521791698, -0.008409807289765052, 0.03453676154007829, -0.10443318724189858, -0.05082572274451382, -0.0507264544921972, 0.012060035338790069, 0.019574973179581515, 0.03063816220688897, 0.01869947202491743, 0.07884096869804645, -0.007235997167909169, -0.0645999408579936, -0.04465632259268571, -0.038671332083559835, 0.0025041179196883135, -0.003813943768532431, 0.02061142472935939, 0.0036510553519812487, -0.028791402525868304, 0.03181206432723253, -0.04531442916019557, -0.02392525494475903, -0.036448370171093425, -0.04771964882369328, 0.03873540775571213, 0.009315488980889703, 0.030004464229094096, -0.11661062271140585, 0.05158813673530172, 0.10815671773884565, -0.03175459141858166, -0.0015913071825000389, 0.06624203365699759, 0.0005255152698533593, 0.05968117448052722], [0.05199487925569853, 0.10757948886947903, -0.06361593118686279, 0.03533408483290329, -0.052365385467508234, -0.0889537821566681, 0.0364243482794074, -0.03431968111291372, 0.009841028305841082, -0.07008812414492115, 0.035859936997827024, -0.07129219747385382, -0.06828067720582273, 0.07520742243466912, -0.0537353656408777, -0.026161361550638893, -0.055263072004561056, -0.04948938818766058, 0.025326149480976695, 0.003945916288500054, -0.10618960451249723, 0.032686617747743264, 0.020288061244182715, -0.016102132228993458, -0.12484461184913974, -0.048418014592321895, 0.02505422604633402, -0.0031031149958831764, 0.02070786617080917, -0.12440094294345871, 0.04114199608548387, 0.025463428078624586, 0.05221303187394704, -0.05100497089118033, -0.016996316962059194, 0.015263284246728143, -0.0027062121845694495, 0.14144457538209876, -0.033785407015868865, -0.10567113308583047, -0.08225262700724197, 0.0002790446811406888, 0.03667839454005435, 0.0631410368741458, 0.0209911998709028, 0.06982503339913913, 0.04739522134913432, -0.05953978255366594, -0.03267179379075307, 0.024456536899664233, 0.03884442420304708, -0.0007924633431815612, 0.06688405328890026, -0.05338318416267434, 0.004045431454806323, -0.020199507959584626, -0.017070194511211015, 0.04684645077911346, -0.0020605032260918657, 0.0013309554165932959, -0.006716618600343098, -0.03762117273995849, -0.030412439339096025, -0.05086575730067313], [0.0572055552482644, 0.04537283570951039, -0.03261883693861169, -0.12878346817315234, -0.030526702932625143, -0.019950114262449678, -0.016846772428003347, -0.01344644382203713, 0.009850652502128824, 0.03555595844133075, 0.0666765365707307, -0.06801516064592524, 0.03774004031247255, 0.03201800107538369, -0.0017690459496226554, -0.012164028058364607, -0.03491868494081564, 0.079893018701823, 0.037221745367519425, -0.01979707899774724, 0.039119072589415334, 0.10125914450895446, 0.006817708249763885, -0.002480525933822091, -0.01104584014661124, -0.016377256251115836, -0.07066184930547602, -0.007814963377930003, 0.03673575293667883, -0.059112360388809834, -0.04529417118698505, -0.010712893181939123, -0.05451693778978953, -0.045058982988603294, -0.05887874169371999, 0.012854631699578751, 0.1048063222251363, 0.038649817408633956, -0.019479853629172424, 0.06678664494482438, 0.010575892763057248, -0.04093272519957838, 0.0059587394143951105, 0.031043569295621083, -0.00041844908592109786, 0.017239976667613826, 0.06415619702929781, -0.00414363986709416, -0.035578313234771855, -0.029440399381796028, 0.017034371552837133, 0.009293707921661218, 0.015573025747450963, -0.00391177298536477, -0.0171033868682247, 0.06139639939704497, 0.004809058048615506, -0.059505287979843, -0.11690478223639218, -0.0406801408627849, 0.00977516428437631, -0.056503310985956914, 0.07412003508611177, 0.005603572346229885], [-0.05263434473603457, 0.09321527480231787, 0.02403157499845787, -0.07743671245828777, -0.0003524886611193381, -0.020776305360525656, -0.025367012688000363, 0.0025293467400607787, 0.009860623079051258, -0.03912636040979563, -0.03433969408345768, 0.011282143637300976, 0.020521332258772552, 0.024460318994956577, -0.12449816921570592, -0.053346424787672764, -0.024285879570888583, -0.007172184873328042, -0.018063311550861497, -0.06104334987428435, 0.03778428822860195, -0.07622821756262438, -0.07931376780604887, 0.04206158944053082, -0.01441102913021795, 0.06141202103351451, -0.09553297953323568, -0.09630847110787379, -0.030371586911643003, -0.04000951938621909, -0.03644263838661987, -0.0470443291165225, 0.049484397362785926, -0.09533045885475902, 0.0024099838279852724, 0.02787181235957853, 0.007730552609791119, 0.032689943284071335, -0.09358358846070454, 0.02167595048497583, -0.008810259192100729, -0.042311647009332015, -0.034141595318163014, -0.038608429446479166, 0.06137082551923494, -0.007783371959363139, 0.006418920829549121, -0.04990525127667709, -0.053998986964314294, -0.06108580212151953, -0.005160659993394837, 0.024792942183107583, -0.0021995776129031825, 0.05773130013780677, -8.315383980756893e-05, -0.028173240832294024, 0.002585875938600287, 0.06462889328234357, -0.11556690987724295, -0.05679057416060143, 0.02971294903680452, -0.043476166041278574, 0.06204101516925607, -0.12172709296052074], [-0.05423113218164937, 0.005845615687619032, 0.0230993088724505, -0.0006328159331169395, 0.02682471757264668, 0.04527208488535373, 0.07065599606958278, -0.07493729704304314, -0.0957347639633917, 0.018484704522003764, 0.008636230360109312, -0.010331585129561243, -0.06880878002814643, -0.009660017071498859, -0.02516617462597497, -0.052084174530529624, 0.06302843504371175, -0.005489772207879927, -0.05931503224311163, 0.10607606056039334, 0.03159963733363867, -0.02556331254112344, 0.06673080131531268, 0.07731685719445835, -0.02142553946070428, 0.04795584558362445, -0.03271022676952193, -0.01022745816189214, -0.02294926575757424, -0.0203869768044781, 0.05085795294136039, 0.07258923846005397, 0.0029646494173868197, 0.09236286272360668, -0.013034994163994132, -0.04391000992553694, 0.07952501508252303, 0.028438937679020053, -0.06437784080348997, 0.06769594386536165, -0.023315671760789407, 0.051730964834877116, 0.02122530741392726, 0.01899374457611222, 0.02953572636453077, -0.006713162033093532, 0.04548212111361625, 0.02856948514921787, 0.02763858008559911, -0.10229328922162828, 0.02507964639561101, 0.043375348569639864, -0.06391800623519735, 0.012968285453763684, -0.017548829538627443, 0.03947813914301157, 0.00590915521993558, -0.009222642596371813, 0.05403870282285853, -0.019725579415129008, 0.034785891078417654, -0.007570323973329105, 0.060635063151897345, -0.005385694896400183], [0.014874614942927848, -0.019142695353460533, -0.007565166093679204, 0.008651967074799198, 0.05184912402735129, -0.08070293786203869, -0.05025514093981426, 0.09120801295896265, 0.05742952064463664, 0.04666790093365481, -0.00400838333921345, -0.013349568028415894, -0.003086748314615602, -0.0716935244388682, 0.009992199381876931, 0.03252794034688176, -0.012692066107596992, 0.044100942569844044, 0.006019061375111631, -0.0612376478429017, 0.016785908569800414, 0.018321142395236273, 0.10247165725992247, 0.08184897757267322, -0.01865949672811668, 0.0001604440495099659, -0.06229892918886564, -0.01745216942931986, -0.013430360939186021, 0.11223312728674786, 0.008755866981346389, -0.0415391863884843, 0.04966406323500356, 0.03756865779179173, 0.04317985455480347, -0.039124115077475284, 0.0031213103957175117, -0.018124766438631944, 0.010421316339735566, -0.007200536247593485, -0.014005788501814305, 0.014883907530016359, -0.0562968102886787, 0.026728527434111048, 0.04965802566821712, -0.055838536415229637, -0.020922723642612752, -0.052574816160600876, -0.03130453780566838, 0.03176192878878851, 0.02436800986161134, 0.081948756572713, 0.034627783988046223, -0.01496314307441898, 0.0719873862092501, -0.037435520600562065, -0.019319853621850003, 0.006153020904082193, 0.019561957938904712, -0.08208365216392927, 0.03115445675316795, 0.019797741565825647, -0.039747030035058764, -0.08169287896262203], [-0.11126293160950618, 0.02385689362044046, 0.07136059702607794, 0.08132915269802171, -0.0016625570898348755, 0.061119376338730554, 0.041479555550057556, 0.09366883230630853, -0.044359165677444426, 0.08280505836724864, -0.022145642702998618, 0.054948678858005855, 0.01989004570334066, 0.009090574293768987, -0.09389380357013959, 0.015982137394434475, -0.009649394622251447, 0.04146028979671128, -0.05312006658657678, -0.023825334586967256, -0.05934564905386626, 0.0269964757643611, 0.060559579049583805, 0.042957767178558794, 0.04021657832800084, 0.02314107782398901, -0.07207872667894132, 0.008209696211342318, 0.003990229983368896, 0.04165916256584339, 0.04465604272889801, 0.04122913892860059, 0.03355216364055595, 0.024672285537327913, -0.016943560527286173, -0.04608632593636751, 0.06247289776731092, -0.01651082889078355, -0.03313992634380042, 0.07268905862381288, 0.03573571635408592, 0.05867059871555988, -0.003102285064853572, -0.08504213876978839, -0.009566301413352017, -0.015474053753323948, -0.030378149857846457, -0.036437692077697696, 0.04727026588011244, 0.03540084683740416, -0.017275389296439965, 0.04197363126939746, -0.05540566221042724, -0.030488918760428297, -0.07318420566720331, -0.048354565688625596, -0.043300499850568795, 0.04934631014019216, 0.03322517367151636, 0.01151436736487794, 0.023903696804510533, 0.04741944514894788, 0.0020453595114953162, -0.08880954731847567], [0.00736154229610117, -0.06724331030404988, -0.037960659160453075, 0.00851232924105747, 