{"layer_weights": [[[0.9561974429000043, 0.8288455037934037, -0.2953973128766319, -0.43817872478616865], [-0.2825763403081217, -0.9924678100563178, 0.49524456529154953, 0.6977447090509422], [0.5851906118189308, -0.14527870174028992, 0.1921222783605855, 0.43090200276265217], [1.225047773160974, 0.39151403296773263, 0.007502630350115916, -0.30080427169929164], [0.093705956542187, -0.33649144169640555, 0.7846396706574372, -0.6493966664876756], [-0.25869539906070504, -0.4097113263538394, 1.8366668760409788, -1.0016901453910767], [-1.3740732739289385, -0.09698591775304075, 0.25017209679569585, 0.2812761584929885], [1.3135337903435467, 0.5659740661697619, 0.33936664079823387, 0.8287326416213047], [-0.4205882967809348, -1.6832622431132296, 0.5393594105925312, -0.45668885176990426], [-0.7750616190757061, -0.2695826029478927, 0.5464380124144178, 1.2472935394283196], [0.057044103941301015, -0.02520633784587655, 1.2252400062685367, 0.4239447150150614], [0.33915316975000176, 0.08344919616446035, 0.05303949059873394, -1.340146590399269], [0.767314911788147, 0.6338357376516701, 1.0767023130636064, -0.18578583924782896], [0.4030423838223352, 1.208046851791809, -0.09756888980863883, 0.04904752039456681], [-0.2325605520890121, 0.7732832376771197, -1.0984631361090404, 0.38941998162422065], [0.7939276080995079, 1.0132347043403103, 0.5495702533817042, -2.207659074295827], [0.11044873132854313, -1.3811232600592411, -0.3654345523017769, 0.18597632197206979], [0.6980276495573574, 0.45749995044795205, 0.011012388903184697, -1.3194540927460452], [0.3915035985698897, -0.8871592806464914, -0.6786008780339965, 0.10906710070425737], [-0.46510686565282927, -0.9509352708276382, 0.5743760968629332, 0.6918990608724428]], [[-1.5787984039514558, -0.36458183843075476, 0.576143704229532, 1.3742425365722468, -1.0255093095190624, 2.1928238318408364, -0.7333263082474388, 0.5035188777325029, -0.4728162231815435, -0.46480310295375815], [1.638904176027292, 1.2720992289239066, 1.039410416893817, -0.2765579024832217, -0.3790291251843686, -0.7143392196789172, -1.8920730552760103, 1.8347873595056923, -1.6166441225243637, -1.1369334141140566], [-0.9341127077196754, -0.5061296077875168, 1.2562073792944937, 0.5270438401611393, 1.2532630628988033, -1.0163991249032471, -0.0985354540976073, -0.9412163376327761, 2.2084552161737165, -1.1859740331909274], [-1.9571224787437063, 1.3439994683392216, -1.2582049216638067, 1.1961258179252794, 1.3916071435218589, -1.1124806997706338, 1.1082002712824401, -1.5751742089678271, -0.7387163548270873, 2.2458292501684856]]], "layer_biases": [[[1.4331151159177657, 2.046469818975342, 1.611932528649437, 2.6186183528335585]], [[4.737476432515963, -1.6570365668648237, -1.21577496340297, -1.522475197997573, -1.5973151743332472, 0.13815937994530544, 6.5823772247005525, -2.159024664153922, -0.7731100530961249, -1.6952647476243818]]]}