{"layer_sizes": [20, 4, 10], "loss_function": "cross_entropy", "layers": [{"activation": "relu", "input_size": 20, "output_size": 4, "W": [[0.03394684356823443, -0.06919667807316296, 0.41410289999266797, 0.07652876799595972], [-0.17622081378958399, -0.43440670047972296, 0.23996770977049753, -0.05582409696617525], [-0.22589848178739497, -0.47401819892598535, -0.3832750136023883, -0.176059150230065], [0.4267312046880912, 0.5847218915737026, 0.41223412675472804, 0.1295939409901602], [-0.09656599280756592, -0.054151247204553526, 0.2913812294561128, 0.20244403537479227], [-0.3682384564304117, -0.4327691665165192, -0.04926920664846666, -0.38064120231609655], [-0.36500843746774103, -0.056412457987042045, -0.0164282949065956, -0.2773735728425635], [-0.500105358885064, 0.36523623601320615, 0.02679784959908134, -0.07535678058454619], [0.1224542190784193, -0.3599040619976398, -0.23912348763802296, -0.5089690692388931], [-0.05478504301047078, -0.22811802695245342, 0.1545731943681392, -0.3450505898243415], [-0.006861300528913542, 0.022175104956698263, 1.0038133601607868, 0.5526225994488176], [-0.2428641486554775, 0.5452711387389827, 0.51983672807933, 0.0270031414394894], [-0.2948914834078961, -0.012187221026704552, -0.05441592248016471, -0.11329891127206858], [0.6156240002091456, 0.06006936782297628, 0.32829058126650534, 0.5544908597928757], [0.21161283611861534, -0.6567585885880692, 0.03422273805951509, 0.5443832458433694], [0.006080044802591544, -0.27851322085517805, -0.40111917125870944, -0.28079881879814095], [-0.4460277030231635, 0.4247302225616378, 0.05287489794088197, -0.7060844953566966], [0.1774509605714608, -0.2674346316732641, 0.038493436416322704, -0.2984084071021923], [-0.4993962674370058, 0.4804937157555981, 0.22176954762099046, -0.2102052004616531], [0.0966053076805385, 0.40629188292659374, -0.1701296053949558, -0.0226801963128817]], "b": [[0.08157269641788316, 0.05311321339948598, 0.19089800106390725, -0.3437147388716638]]}, {"activation": "linear", "input_size": 4, "output_size": 10, "W": [[-0.11153144163345384, 0.22992154479986654, 1.1572512078453554, -0.0718984263210317, -0.2410381681609839, -0.05749361619525669, 0.252909595532379, 0.32614392358497785, 0.4379752886438319, -0.15689022965140711], [-0.048571012612607954, 0.30583859702970784, -0.18902716033445127, -0.0604284287557688, 1.2812670326341555, -0.20012294974205463, -0.5808910969759626, 0.7562636057353611, 0.4025982905683064, 0.25986834151239296], [-1.077646167246205, 0.36933753943593906, -0.5795050786329555, 0.12318180960541764, -0.8331480451095826, -0.2558091366607578, -0.9067457985695597, 0.4223777792451793, -0.34658053190500515, -0.3995218283740622], [-0.36574135519857937, -0.6857825338668043, 0.3580000096232542, -0.21968461212306967, 0.2687532348303618, -1.4936907344354056, 0.13267331086968992, -0.18566964403620764, 1.0652137742574457, -0.1900261364914811]], "b": [[0.2862014242830537, 0.07241697059864807, -0.13654964279042267, 0.1366753093107553, -0.33482128470593636, 0.27178561814818264, 0.2368177754180495, -0.30065058458558547, -0.3914459611713227, 0.1595703754945791]]}]}