{"layer_weights": [[[-0.07143732084618225, 0.04325916042571389, -0.011452233113519127, 0.0005565491005391082, -0.014125135458474979, 0.01869935918622688, 0.01935990036106949, -0.013240886784537262, -0.0051234700693094425, 0.031511012572656406, 0.006163645939779866, -0.06895451972360758, -0.0016198711781141666, -0.03181821435554202, 0.030163198210015563, 0.02083361596486612, 0.04433522205066423, 0.034506946617719074, 0.017470587964387073, 0.00782422473700212, 0.009423362314435739, -0.06661094381653822, 0.05857650411177981, -0.10184006586278206, -0.05241447673094162, 0.03546303238388377, -0.016784451789778967, 0.034407434500482295, -0.010203079086259479, 0.056857860119685834, -0.07675292563551238, 0.04088965479803269, 0.06235526936003039, -0.0644655983146612, -0.003867925417943779, 0.03447091908649459, 0.003425509943261109, 0.07487802119436252, 0.033120711598130764, -0.04779864031969443, 0.09842846306937537, 0.03252408430321893, 0.03399500920175177, -0.06152986516552252, -0.0029540995174968283, -0.03754206657860012, -0.05063358160108482, 0.012726407645223198, -0.033257336282867894, 0.16160275834257917, -0.08338653372083599, 0.04017846047603204, 0.047599746932626294, -0.006363590588457338, -0.02742651257347047, 0.028925162650871993, 0.014961145000500048, 0.02764209420482649, -0.05388214080744595, 0.031744466458764574, -0.03213972499466116, -0.04662156579891555, -0.008248393648555402, -0.023295199836229748], [0.01893008884214566, 0.016445807590675966, 0.06776967798312172, 0.04877723867321828, 0.0690710042348583, -0.07577475757538281, 0.09475567045829136, 0.0010615527907541513, 0.0034623765072522915, 0.007684437100733085, -0.06355931972809223, 0.001889641543106994, -0.06478156930526342, 0.0012951191293993564, 0.03366561562503252, 0.0024992573632968973, 0.03727860715610742, 0.04261405292052424, 0.03975541289323425, -0.04560801437110715, 0.042213601054230256, 0.004868772858967236, 0.012786226031464294, -0.07135579399230593, -0.022895861217682164, 0.014207512882534558, -0.010447396769452076, 0.00040150635918493374, 0.01874327509571513, -0.012795582068937682, 0.042895379287627454, -0.02221820598048437, 0.0418048435275131, 0.07446413065861979, -0.019186727565578245, 0.10794074749260708, -0.06055802087341797, 0.028495968675590674, -0.06192729476514248, 0.00861109557003766, 0.05205554512442547, 0.04109784818573266, -0.05511854152050694, -0.04296107395355307, 0.020220451635937442, 0.01769352726348038, 0.008327526220238973, -0.08405351082360604, -0.03937127496895887, 0.07251404845168061, -0.003104502301563736, 0.002954271670329732, -0.03297326666145376, -0.0864321664901672, -0.05855940668456673, -0.03248462663149254, 0.029101350521894366, -0.042467745602520084, -0.05603652496629846, -0.007097913515704806, -0.004386352800533121, -0.05219697150263158, 0.0898445072502477, -0.048706334924476166], [0.04518985547188341, -0.0024559484656071955, -0.0628609285226879, 0.05775514202449856, -0.02422205021903691, 0.037828442497661485, -0.10961937003382984, 0.011070774889506632, -0.07815135935829197, 0.10852068432010765, 0.032347899225449055, -0.06519187716414078, 0.07526846545584097, 0.11426088302730274, 0.07949729283265813, 0.0748453682645994, -0.012677715765704685, 0.03168891345498872, 0.01414960432832053, -0.02347561406485909, -0.013377853888936767, -0.011072615130396146, 0.056708510075611125, 0.07876960862194866, 0.010254494580181994, -0.0070662901215828074, 0.023209406371150515, -0.04516713540480028, -0.0373740638757316, -0.023764217655622432, 0.028080219008258966, 0.0068773292893424005, -0.04548373764820438, -0.05055375213087515, 0.06405169541517028, -0.01850576157163177, 0.03844684770659249, -0.039409158874549884, -0.06450708685756515, -0.020143254800835102, 0.01857170613519625, 0.07102608693260029, -0.0046997225204103215, 0.030222685345323082, 0.11562607595048716, 0.08290588687037223, 0.011166445777432076, -0.08643651697528619, 0.027162351866369578, 0.021366578251436546, -0.005268034345119755, 0.005199662961207553, -0.017991834802190784, 0.028796722952378388, -0.03604261015045346, 0.03983149510950121, 0.0015280847484683358, 0.03834713080751329, -0.01308312977806846, -0.03916395273761758, 0.019722625754158448, 0.06447567268548426, -0.048561062116538975, 0.05165052234919149], [-0.07180514916057174, 0.001785688984644927, 0.013498913679979855, 0.05875765037508438, -0.04346548799613499, 0.02062990987172019, 0.035267578850189864, -0.02991888171405837, 0.0022104179287147367, 0.07260820241381508, 0.11207666658940452, 0.08802229699960644, 0.0274577964098162, -0.0013947895672813862, 0.08050886206994347, -0.030861024507316665, -0.046452020419687004, 0.001348797449508828, 0.08967714100532334, -0.008242040533774508, 0.023489246603846853, 0.04134837899908608, -0.026560301058572947, 0.02275758664751905, -0.023634176541553427, -0.0019925835081909104, 0.07313129954437811, -0.03746114873819327, 0.08980850480437857, 0.009778246166693148, -0.009842149282032123, -0.11924482074224846, 0.03619028939190631, -0.044946525924351895, 0.05651794799295015, -0.08681949320250167, -0.01320336982321547, -0.0365942719343611, 0.0009335320347522917, -0.048605096075901175, 0.02304937200897911, 0.03883863915144903, -0.00012489632393279966, -0.08430144368369014, 0.011017688939608581, -0.02025898848937081, 0.05827965997369722, 0.05514013603585354, 0.08074206774159566, 0.01801484041339018, 0.07514855057813748, 0.015772971621145923, 0.054747772985340414, 0.07041152180576961, -0.015282409329456277, 0.041520517241210364, 0.006650323360528529, 0.07342543770027549, 0.018863477099726043, -0.06491446906718425, -0.019329966423723408, 0.013918884895910835, 0.06092471817776145, 0.0809148235392405], [0.10750482092078195, -0.03387667733413927, -0.033286711189254456, 0.0878990763573985, 0.030477291920285286, -0.05295131319323293, 0.07273616949117859, 0.03614343606062055, 0.012861127395244396, 0.08628349515062138, -0.016618927239902607, -0.03583858240492087, 0.03449480634384198, -0.040610433322507536, 0.03853332817074737, 0.018101916880442267, -0.0032587597141735467, 0.022004405003890493, -0.0514063628497287, 0.05841089235051101, -0.014126243246376976, 0.06137630183436151, -0.0260131128028118, -0.04153232701056127, -0.043637588307590666, -0.04202300237352795, -0.05613930333984703, -0.0603582550703817, -0.03504951342584176, 0.058689209264582876, -0.059750377793061964, -0.051934615411866974, -0.09739916541151299, 0.027910200075900015, -0.013937894426218468, -0.015444482361653378, -0.0003466661537072728, 0.009343615300186061, 0.013907204317207397, 0.005045314513134257, 0.011957154150653581, 0.06397313366935525, -0.04076923935693447, 0.03243220612451508, 0.08619700594980327, -0.02939111414078437, -0.05917834684865709, 0.0045007309816815595, -0.014462712666161094, -0.10545269403688375, -0.03791582188422401, -0.07641173828017601, -0.1031499695677729, -0.09092444179071697, -0.005227742414068608, 0.07637425293972634, -0.003338823835950767, 0.045743790108152445, -9.143788020360474e-05, 0.02841120079029964, 0.06461974219786952, 0.003200759666225335, 0.05660378761424071, -0.04982246304464795], [0.03682810622730984, 0.012689460114273047, 0.10745710888273989, -0.028098935382111074, 0.01337814197833642, -0.013076686100253575, 0.01656273135559942, 0.0665982218958488, 0.031078322144391858, -0.0030091597851015246, -0.07238501867400021, 0.1299194054889454, -0.0007760681021879676, -0.033016040985488326, 0.03906349377818111, -0.05659021132748277, -0.07536893091172496, -0.052702945017989986, 0.0179570280770049, 0.08049575545376264, 0.005921969811214399, -0.03880454467770989, -0.03028064531965919, 0.14080349730755126, 0.05453081661029063, -0.004688493854667286, 0.02632246781065043, 0.0005689622221896966, 0.010103297621356295, -0.0244373725034604, -0.04588643263472394, 0.0575904656955467, -0.031032582726904425, -0.0005621718897700986, 0.00013712335930125564, 0.020658534408219707, -0.030432850743031974, 0.009870490982766131, 0.05154656279232701, 0.017004775045442802, -0.04066652684879214, 0.048500478087821416, -0.02550778562678276, 0.011871092612970603, -0.050526527442534185, -0.04948938915934949, 0.062025176047297764, 0.0010443261247060536, -0.025554947180990526, 0.06092424886661923, 0.19118390688107376, 0.027115683886918703, 0.01704349780707557, -0.05418401214603028, 0.06074603108619802, 0.043034363461213185, -0.10456696529736094, 0.0212482584976673, -0.012975891340414603, 0.015315449697425385, 0.056635578643337015, 0.05487059584319125, -0.06783865396731802, -0.03722831955843629], [-0.027848965972224745, 0.03843402077456043, -0.014329715645558403, 0.059180325806657594, -0.07281291819074098, 0.05521305222298435, 0.05530750054520399, 0.038741360902664744, 0.06515258761740947, -0.044429980593024956, 0.03136158691636673, -0.04478241361231956, 0.05177626505068058, -0.04239618403452477, 0.007604674653560676, -0.04246609421590914, -0.01422378096300302, -0.04285743383720139, -0.013096518171302564, 0.037783154540438006, 0.07535172291387798, -0.022272378266182554, -0.03702886415379624, 0.0026111724477120056, 0.0578101726727386, 0.021136693533541372, -0.009450155671758085, -0.041004644071295115, 0.0004838829967333584, 0.006585158125312208, 0.09843088931044391, -0.029977241899309486, -0.028840648942254767, -0.0371364814658914, 0.08756338417120989, -0.09505089530422274, -0.08585005597888798, 0.040411470823647315, 0.06167121942729541, 0.0032380821251383114, -0.007287371425946582, 0.016475645063220773, -0.026816608795966423, 0.0056734682167042605, -0.10517352471339206, 0.02257876839143605, -0.0393986198415582, 0.05483991671206319, 0.03130292461599233, 0.026031974273199254, -0.0036345384048822003, 0.03605519886123953, -0.0673584705857017, -0.028719251819550765, -0.0541055307393399, -0.05244305779616483, -0.05710117455763537, -0.03490051115775397, -0.033415925309317626, -0.05536531672358701, 0.0406563985714635, 0.016065941208340477, 0.009657748200188838, -0.08309683807080608], [-0.008517060503963548, 0.02901851444317589, 0.033870726152723504, 0.05673709296700032, 0.05045754438269848, 0.03342918533759014, 0.018983483023590098, 0.006386579001052735, -0.037550153297331, -0.013742668427742768, -0.02818305290712252, -0.0025799617723955897, -0.0028533549492768227, 0.04073526754123118, 0.04767994125108556, 0.010137952672102438, 0.012341352686384689, 0.008342226032759827, 0.009447376690175025, -0.023206397075015994, 0.03781130120454985, 0.03196069369703223, -0.07758844323001433, 0.044048843977840806, -0.029148304355188035, -0.002187466998362136, -0.0706808189788716, 0.00014976158744975563, 0.06273099115530135, 0.040441709406168924, -0.029668053299506423, -0.053261138973625805, -0.03390482484128055, 0.0401911068903153, 0.003649466192352883, -0.011379022493742296, 0.05327182201977456, 0.12172274448452401, 0.016279806612026534, -0.07799244804030996, -0.02886136196346536, 0.00621316289564176, -0.0652522694118103, 0.025919413116272, 0.04505866554937238, 0.035037589974917974, 0.015608062242143486, 0.03269541447776136, -0.02863785470428077, -0.044340675003206854, -0.07725354843335858, 0.047610020733370964, -0.053358072053753376, 0.014135750097149697, 0.026290892359652866, 0.019383810458329483, -0.013792828583807006, 0.019413405509150678, -0.0032216243742079808, -0.009203780421515031, -0.10974734179974224, 0.0558707543982043, 0.049771442596765615, 0.1135285609956898], [-0.08231403955328324, 0.021989573809263366, -0.02541037065732498, 0.04002446973085825, 0.02106893858470749, 0.026585469607208173, -0.015252653899663115, 0.015097119709511728, 0.03586829721579369, -0.0649902566387273, 0.012226554714732066, 0.07827878386075088, 0.064577644539041, 0.03426749767254513, -0.03713931090935481, -0.0005836159272248252, 0.0018701229415423234, -0.02492681681944994, 0.06748774756992154, -0.023844364954934905, 0.0187267466113494, 0.023032773833530154, -0.0026263499520886016, 0.041236304752472516, 0.04005791661167035, 0.060100357921706246, 0.08848865192285885, 0.04473823674280531, -0.018727506067367724, -0.03636068266655801, -0.06360464351755532, -0.029877723376485758, -0.05425569936133499, -0.09143951136864494, -0.09045726772566132, -0.12098753007457151, -0.04889481324414694, 0.13710081434681143, -0.014192409187595052, 0.05912491919585766, -0.08046237539159637, 0.004286438860713856, 0.014918108325973739, -0.0479516107818638, -0.001972330929676682, 0.005580311189204962, -0.015394101961582612, -0.021701325882904295, -0.017128944839108557, 0.02414739328950716, -0.0929022808311508, -0.10429302353455804, 0.048134239120221384, 0.04023933021249382, -0.04511161829904057, 0.040370612810040604, 0.10104121721408267, -0.014192890080730646, 0.09584976117367823, 0.03819403092929943, -0.010485714255908727, -0.022113419073867897, -0.051420311505636015, -0.0488473018473425], [0.04151475443962236, -0.01627361313352293, 0.02201502018640593, -0.08341551050576779, 0.0060186946089236595, -0.008211380906424374, -0.011414557576195496, -0.015190829773106061, -0.06633073257090237, -0.145850177693716, -0.06624928131286183, -0.018345593352780222, -0.06544658515363, 0.08638134753611862, -0.04520568054819586, 0.06024861400815573, -0.010446519288139352, -0.010071249396251628, -0.03798416234914964, -0.03433350247737939, -0.01565980945659018, 0.047389965992042996, -0.005022551161024339, 0.019582506039843635, 0.08008942796732103, -0.1031983783739075, -0.04044809099155882, -0.02705951470523661, 0.07049886395719711, 0.04508136763137868, 0.03495518943036164, -0.01941987774726373, -0.016619938528404182, -0.06111978872454989, 0.04512393373065988, 0.039665670092750537, 0.05889798060078831, 0.04681859862922058, -0.04837390191894046, -0.03956765792607906, 0.032270359153509766, 0.045950188954797536, 0.15162706192332495, -0.042293525870111495, 0.03924271173924939, -0.022664272768767205, -0.03231978380548805, -0.06995557683486162, 0.0340283454123817, 0.008222167398170697, 0.03071944159539735, -0.005023465069666639, 0.008399944551305195, -0.02711349289301601, 0.017113512492111224, -0.007248636331178642, -0.00945624680658503, 0.0989302138017194, -0.061988292635276436, -0.0025283436669541696, -0.0017528141915531474, -0.0663344208897876, -0.0530625753829767, -0.09845563871311402], [-0.044137551396069, -0.04635370455219102, 0.02189499154084441, 0.030510276262070556, -0.026401843110457325, -0.06484487094815417, 0.07451314865176971, -0.0490540090434054, 0.02154158565800411, 0.011018994076191606, -0.03157796552266483, -0.13209393894143812, -0.06816842755093323, -0.05094892565359129, 0.017398374323625596, -0.032539239860942315, 0.006647241102022669, 0.1089021520125824, 0.011165989880988644, -0.09717693241946407, 0.047220789685146106, 0.05980021035746203, -0.01617996459749139, -0.030100225805413834, 0.02771889712403416, -0.0694282563547351, -0.06211096760822674, -0.010518762335731178, 0.020497995975404457, 0.03141922254826404, -0.08216474994822276, -0.04489932492250064, 0.10501917167316097, 0.02069912310298821, -0.07245018932723067, 0.06748856632054893, -0.015608048662767396, -0.06107027525382107, 0.006031070221148094, 0.011558716183011868, 0.021563692506601544, 0.04645025403985953, -0.09444705171400916, -0.025887826804138012, 0.07745798827505804, 0.05326955117043994, 0.03717102754839493, -0.10340046875132601, 0.036934415366146146, -0.015611266245545452, -0.04019889843798329, 0.03721140150703494, 0.0047528268351561135, 0.026159211027590744, 0.0012169055329216243, 0.0389966474929941, 0.050893120057484795, 0.061378670706790504, -0.017889120216773493, 0.025627954823924163, 0.097872014812269, 0.025322927759903482, -0.08798063997995957, 0.01739101996182996], [-0.0055865728335628756, -0.05646567106996787, -0.08573804253207072, -0.06903234169760661, 0.034398918670212886, 0.0026701330037018035, 0.07103387390947798, 0.09310244393504923, -0.05514357792731971, -0.035367158582554556, 0.004761993360294305, -0.030921356592337395, 0.015088607453174292, 0.021877968656346388, -0.035345377722480184, -0.0576610937694477, 0.08379949074391459, 0.02771865248714921, -0.06869962873712761, 0.0002682689765543568, -0.031308170585893115, -0.04946923835096246, 0.007753025610915855, -0.04150266924050787, 0.04674082914298555, 0.004516059330316756, -0.02714387214209936, -0.016779962411940488, -0.018583822206988482, -0.04697078058897137, -0.09110965144210205, 0.11020985361217078, -0.045788914913923257, -0.02699343196400467, -0.011007398143683466, -0.004933138029984722, 0.0048731574115805235, -0.01688053778530442, -0.052103719826698765, 0.02967107222760003, -0.006986995614749059, -0.04107877925335326, 0.03287692193445242, 0.005119882368991557, -0.011070671757890307, -0.024273141480357283, -0.07672068523299043, -0.04051816382628422, 0.024794883848338223, 0.03566948793281083, -0.04008931197239062, 0.06512500312615353, 0.045763301773882506, -0.06286345858850946, 0.05238923027507127, -0.009579619224983764, 0.008325242509447646, 0.0361981598467159, -0.031980526194661095, -0.11290244141877463, 0.028503715442942723, 0.004019934169711733, 0.02871585091515788, -0.10194551218410128], [-0.008323980157936292, 0.04330221204904248, -0.07235505667131245, 0.05576577305629202, -0.016540114312185612, 0.013452996131913121, -0.019771914845770865, -0.03399455491933731, 0.01057311286227867, -0.01340661893332089, -0.021279565787484935, -0.03452617876297602, 0.018496091779442798, -0.050657985728582836, -0.050031260666256114, 0.029075085035470693, 0.04132076805630559, -0.0109300550198509, 0.03277856027050838, 0.06544167894104373, -0.05727698543778049, 0.061479734149479236, -0.0010433468237635783, 0.03212836891810297, -0.04063147985197372, 0.021007686435648504, 0.030002891643702057, 0.002821526632370666, -0.005990558804710874, 0.022493390964667202, -0.016351203977752016, 0.028669539280354882, -0.07591258794038873, 0.030851873677291558, 0.01790566599301414, 0.04067076802482848, -0.07209604212317404, 0.020760025986590724, 0.06489050459758458, -0.032673252120838374, -0.06624232036495897, 0.026797352252193582, 0.008539989148544204, -0.018452480818128714, -0.029733264617936937, -0.043045071232259355, -0.0733596281100241, -0.004007472911269926, 0.006199308399273327, 0.010035013357400042, 0.03511035712575352, -0.06445832316776602, -0.017864228214151116, 0.013665654197471734, 0.004881689863154884, 0.06727162514225332, -0.07280385083389557, 0.08233272411808017, 0.031879720520170345, 0.010837274036445504, -0.050751221732520065, 0.016375840461745263, -0.02558223978512198, 0.013071488430394107], [0.02356919045555505, 0.0392142251054724, -0.016357044390039106, 0.037022505188613664, 0.016342828782534874, -0.004993795567193364, 0.01907283879116894, 0.05806479467658611, 0.014820378606419497, -0.013229379506822453, 0.011872959897651424, -0.05106988251126251, 0.014642541834590656, 0.06777722516891108, -0.056146289003253344, -0.16457344665792703, 0.004771977720559152, 0.017573169091968835, 0.027572081242641062, 0.0068074090621831765, -0.037059352118371726, -0.16045120417888817, 0.052191198808116374, -0.11723422118622623, 0.06384765598261229, -0.005681143195979536, -0.007045029023855165, -0.0585178388282894, -0.006974615544970439, 0.039668526963328676, 0.027345633103992247, 0.07008407549982745, -0.026986968511311188, -0.022622828423086744, -0.026252727148269213, 0.022158167628405973, 0.08527738094752567, -0.008044533506505585, 0.004742324743755206, 0.05586955220844377, -0.0486918510010605, 0.04386775669716617, -0.13938643945896653, 0.028405062041660534, 0.07406393195323735, 0.067397453954572, 0.04888424684160733, 0.018416654516044195, -0.014837693579408824, -0.0591948163163012, -0.023853947578198493, 0.033061774180789115, -0.02435536486159381, -0.015240126298457756, -0.0002562093481484565, 0.01441267976235623, -0.05849780557825538, 0.01126955087928103, 0.05894717069593133, 0.057131388175575414, -0.054952276850562184, -0.02238746475323453, -0.0011201921269186489, -0.03599526032796157], [-0.09993755159517896, 0.007543261115509402, 0.030618378141425356, -0.05150435907929766, -0.009839876889524316, 0.03174012826346826, 0.03226230719862285, -0.019981674091244614, 0.06266950206007797, -0.007342180347387385, -0.0029393099325604093, 0.017340548964456925, 0.04861825543874894, 0.12144827514706526, -0.018806655745115548, 0.06933146335925758, -0.019363812775728198, -0.015139254867770886, -0.040897849314622696, -0.04139431435294691, -0.025608734280372497, -0.012786291852081357, -0.06833497453347347, -0.07282490725066298, -0.056052833891145515, 0.09125960542634477, 0.09857624057793171, 0.01732680506383903, 0.10282862970234567, 0.056843131734191754, 0.0011987376785045404, -0.04196662685186259, 0.013445729949239685, 0.06997205256380229, -0.01507363960169199, -0.004326821034625647, 0.047849710893144506, -0.03672133759550039, -0.0147307548938475, -0.026173052923752164, 0.007998947222816634, 0.08590935061289229, -0.04645629137502932, 0.03066020687133397, -0.015684756537941547, -0.029971702828072672, -0.04776204624178735, 0.02131589784516082, -0.008406187719472756, 0.020839226286826745, 0.019589288541541322, -0.03415264401450207, 0.04604970255466288, -0.0008443261239379445, -0.06724268234428478, 0.057794846032339274, -0.024203649935820446, -0.009228372450226152, 0.0025313299762762622, 0.024010156583292953, -0.0292693892017027, 0.003098463166160846, 0.11177200677982274, 0.04038574115766702], [0.029909640206867, -0.04487760256393685, 0.1003470405124855, -0.02144062170788259, 0.03857232755122115, -0.0986362020385441, -0.006656175451387248, -0.03485788653944386, 0.08490864265434553, 0.1277678683159281, -0.10089377729879088, 0.019760811811768815, -0.022837993736451685, 0.0023596793965892245, -0.03371059295157223, 0.031055408876338297, 0.008259943385291676, 0.0604079301164805, 0.041773674911009806, 0.013326177338702196, -0.07533456587886667, -0.05668703610055027, -0.014493276597188957, -0.029041221589822988, 0.02326206757272364, 0.0010110785497511262, 0.016222975516631884, 0.023828740475552494, -0.03151328149423086, 0.036413598325092264, 0.00664599965638712, -0.0004019494561819274, -0.03952792206962027, -0.015827099555162098, -0.014277075700428665, 0.04469877295085926, -0.058819625444766876, 0.021305804334970754, 0.02936393480094647, -0.060156796704487536, -0.014318339686752295, -0.02208848140534125, 0.049739622868211916, 0.01882643042824878, 0.05578033266008436, -0.003960397687317993, -0.019736939963981345, 0.03272577981875268, -0.04061318101572097, -0.032156503255622824, 0.01766864090291733, 0.0052358960037260874, -0.019846887158074446, -0.08153797779428419, -0.029847014170406, -0.006812240743809364, 0.023696845145614605, -0.014755350503563223, 0.03657248037400746, -0.01728824536425498, -0.05979251929557989, 0.03598142537246385, 0.03335230314029988, -0.06168344973815581], [-0.05661686188808078, -0.010716669450563016, -0.058809450712045755, 0.007586704306558552, -0.00453975608029276, 0.01661708860671657, -0.012602609414686891, 0.011105186579137725, -0.0481212934269273, 0.016508206662559213, 0.08226181179201306, -0.06374481391374567, -0.030610933148583645, -0.05221657157706718, -0.01553770670848522, 0.06786763472231307, 0.06119497542797767, -0.020942156273242793, -0.0007457426820226836, 0.019182718707080118, -0.05088507065237411, -0.013514151715625984, -0.004787798061170088, -0.08960952483701022, -0.06517005056519129, 0.0692103261920584, -0.00794281432401817, 0.0673445973056542, -0.015710620508379833, -0.02255322674182485, -0.03935150499647154, 0.019547730210783792, -0.024500813591159073, 0.027679166046178604, -0.054139377813381566, -0.00435312537439051, -0.09168010341419269, 0.0041846916374580385, -0.007264768457982449, -0.06366429727861021, -0.048142990329980206, -0.013679443495856224, 0.058711170479326814, -0.017094839795400798, -0.10595991192595035, 0.09603635532263338, -0.055389020257284066, 0.01425792359353879, -0.06237905444971787, -0.014023398697776872, 0.04206734099430123, -0.05788369462237975, 0.017955950322058354, -0.028782161808334508, -0.114541304923522, 0.012986333343651398, -0.019390208583815276, 0.034535172397958454, 0.13069605647400176, -0.048906410970796975, 0.010782503052666004, -0.06389897144587646, -0.016198584315137297, -0.05644799056518962], [-0.05852457397538197, 0.012008292718702322, 0.07895854422740685, -0.03231762751825542, -0.0188875937332789, 0.061795229917003806, -0.1031704769703494, -0.016401031736788276, -0.03847777451537468, 0.024379640031267708, 0.007362371224791638, -0.035439355678826744, 0.1142918846306696, 0.03426361311651747, 0.09272210304338085, 0.06566885728850383, -0.03639956662535256, -0.07064403689273072, 0.02406440097298348, 0.0903916129729477, -0.012553863427073212, 0.05045727242352396, -0.000960093813056207, 0.02122728425066092, 0.0014530789103224923, -0.03372372283730741, 0.0881195101844593, 0.044722428625496045, 0.004431554915735651, 0.03888467299991283, 0.03687665762379424, 0.027769495074333773, -0.06324419436214594, 0.024420896100519025, 0.07800386902884297, 0.11115024786312322, 0.03275912282171838, -0.02103438845950692, -0.05860256036961718, -0.06514728987816992, -0.06816420382193988, 0.009211603819582907, -0.011037200367945808, -0.05216499532285042, -0.020463723788043422, 0.01427968941195035, 0.02148860701784954, -0.07486231528162582, 0.010199845570273255, 0.08007040934118066, 0.002399909268181991, -0.0026223389701249137, 0.04686584788411046, -0.02327550510411768, 0.06116532440062733, -0.09096627858994885, 0.07328571868836536, 0.02063951380534291, 0.021000315176670614, -0.02319521600087368, -0.013626063892339424, -0.09794275060970394, -0.00511201647129389, 0.007659185335667454], [-0.020989394872018615, 0.06393757532644653, 0.06601047478477323, -0.016738256559966226, -0.06662785764091514, 0.024363753741866254, -0.10173228932797385, -0.011245023240770488, 0.035135034860305614, 0.03625204798880713, -0.012256967141494535, 0.07759814050115002, -0.04206222017233031, 0.06610438090650322, -0.04912985041231844, -0.06393440446882705, 0.04628291828352988, -0.004383727579940848, -0.01801363192522078, 0.07743219489427118, 0.03180126516849883, 0.058401868997437094, -0.032263401683361975, -0.03715544441216559, -0.029213430240092632, 0.02245766949192491, -0.029375565013697938, 0.007814354679056616, 0.059708541715181106, -0.0017216131751893549, 0.013681358955691178, -0.000214721869802084, -0.03281338178513328, 0.03880924281559802, -0.0025579357372667176, 0.04721014580648634, -0.048806688866554475, -0.044273684686165986, 0.020259827445571903, 0.06711083249324303, 0.005622825062386849, 0.07325169237468918, -0.02906542680033234, -0.009020385801618342, -0.06409297409489542, -0.10122626430900959, 0.06583739251512927, -0.06445136965145884, -0.007020428892700388, -0.0622273809099536, 0.03677645043565107, -0.019206123833285713, 0.0304826907145461, 0.1311111888842602, -0.04382610312216453, 0.01024834085222369, 0.036572441959969997, -0.012589086974155382, -0.03430202211671656, -0.08894907271254876, 0.006123724344942085, -0.08264874157630862, 0.03598432474825547, -0.07527496663906531], [-0.02361738243472382, -0.058486277446633664, 0.018851794166651573, -0.05471795269287479, -0.04824836405918835, -0.0007921067407329545, 0.017783411418590005, -0.016694251631193938, 0.05513493354505979, -0.0934283071700487, 0.021705771269206448, 0.04858673142005763, 0.048038481192446636, 0.08259622827941283, -0.053719707303848, 0.023630895180470134, -0.008704902716712265, -0.057433059842782616, 0.04088746658224448, -0.030172057357225533, 0.03260722559767991, -0.0014926907315292407, -0.038549862563108106, 0.02875861581818055, -0.05327196277937292, -0.025367829574351176, -0.014570357717082663, 0.004108801262391963, -0.0030025572128651716, 0.020802491942419152, 0.03508457167881741, 0.010951009020236886, -0.06339693368912619, 0.03622363521848665, -0.019309386248032127, 0.0028948430193532155, 0.12144655526961975, -0.10044682852256707, -0.034446607646636276, 0.014602734461243848, 0.007797752472170886, 0.023940713311775295, -0.049380322072726045, -0.06170517657977089, 0.03797943436951357, -0.008477349611630646, 0.043473233583912994, -0.042456735632284484, 0.044278372242157756, -0.01669800426882695, 0.09275621942411325, 0.055934547514975785, 0.02101852385884962, -0.00013332023797619358, 0.014741207578794723, -0.02049625013222107, 0.03923293363823787, -0.015040433477076363, 0.09719704791468924, 0.09767378813126007, 0.02423929566509472, -0.0712845193024122, 0.04727607976558491, -0.00834401872317352], [-0.003785778270315428, -0.04894976646205747, -0.015393215792119108, 0.030063448584838632, -0.03024121986217584, 0.008629008763441819, 0.04985273313691618, 0.089166600493572, -0.0022274354103659177, -0.01721285732996356, -0.04497401544795279, -0.06434349807043212, 0.0883200922582767, -0.04315531323930863, 0.0031817390076413804, 0.0207937154326586, -0.039992811622859954, -0.037778298336774256, -0.04774913660249835, -0.08551651860181249, 0.009410069420661075, 0.006766839968451062, -0.035621872414021316, 0.020345895688677743, 0.014670854463174236, -0.07268648103305565, 0.08160528656711463, 0.10684735610910509, 0.01152079901896662, 0.10891775404256267, -0.048041880142706196, -0.02502521508324493, 0.03531627817535773, -0.08323249149977002, 0.010148585209739436, 0.09679791755941325, 0.062379568152534134, -0.015447929702549074, -0.027714311734081874, 0.027885202769533757, -0.06139915907238915, -0.01968133761748114, -0.0019342474455716126, -0.04329627378287039, -0.047690218786331263, -0.057189738882617205, 0.042372523892109874, 0.007525630989451357, -0.029052659859975145, -0.03240669332496539, -0.08336816508805549, -0.011234581024095781, -0.023855303084761498, 0.04011032036838074, 0.02273677553579555, 0.056358781830897306, -0.010105899682869965, 0.0358940343635663, 0.01566413564454088, -0.016289606848544122, -0.029971369239845128, 0.001671923257317601, -0.048073324357071665, 0.030780682417335087], [-0.04730551803927849, -0.006964671646806932, -0.003305508667306892, 0.042241914471335185, 0.04567771388647266, 0.03677213764347447, -0.040899007893006066, 0.038124095341637555, 0.012950590461444804, -0.01622535935647662, -0.04639853449511588, 0.05163343906401062, 0.016182162721922178, 0.006973206608228592, 0.018613916369302933, -0.06696085531326142, -0.019452843924752296, -0.028432261229490736, 0.02636050582216234, 0.10201219317939116, -0.035517473919892725, 0.0893509045658004, 0.014427611483934087, 0.03435050511030434, -0.004082862135312069, -0.07682703026701616, -0.004842633657365987, -0.11350511600683016, -0.009535783257634859, -0.06401225976260863, -0.025005951925242256, 0.018408580558627263, -0.010465885281657582, 0.039681603633096994, -0.07116329640852663, 0.016865670558077143, -0.013576533973828665, 0.030160583942811712, 0.03934646478928649, -0.027650588512587167, 0.022862059880214638, -0.07423906006982141, 0.0026333583776500854, -0.04615080142534678, 0.0029899575513317057, 0.03899788927424336, 0.09446413697905748, 0.02095505006773411, 0.0014092584758467995, -0.004697534504188369, -0.06747117883854181, -0.022787081925320907, -0.005530990886023726, -0.032547885546396496, 0.008715192409885539, 0.032864853057003, -0.03497530261095113, -0.02320030121762876, -0.10796346526107192, -0.028549058321020882, -0.059298732251366185, 0.06422677853110809, -0.07920679903697565, 0.004359068554150094], [0.010798347849997374, -0.05075413513245323, 0.0019229695004299616, -0.041979581478563635, 0.033133100888002615, 0.0632111344950974, 0.044174767001669904, 0.08652817659417018, 0.127302437027506, -0.01058917216009157, -0.08916150113955416, -0.022458697550013902, 0.0832032734656763, 0.038419270471685134, -0.0037388288922081854, -0.00371787812175, 0.044454071861647786, 0.050634212969015574, 0.03414128903456095, 0.011706834997335446, 0.011048289966167928, 0.04115475796583825, 0.06372818379945833, 0.036382248890873124, 0.11113115000099238, -0.04708741881334115, -0.017732098830953353, -0.014489905141003602, -0.05004375092567756, -0.011565415870625805, 0.09128076051984996, -0.0014185396010339792, -0.036603404407063195, -0.007156235456756051, -0.08271671503148728, -0.00435803025686729, -0.10100656199857068, 0.03887669061623078, 0.06177976995546913, 0.10580633693849158, -0.0431055047288032, -0.005425756101545259, -0.02416251176081614, -0.03431117674480705, -0.0722838408129631, 0.07129744390099452, 0.11180640676658289, 0.04985823921851212, -0.030125314439599534, 0.01159155993701281, -0.027382325027655478, -0.0472129124723402, 0.01856216686936952, -0.0022547625096563007, 0.06852875531667754, -0.0031780977476057503, 0.05062923319846823, -0.004232168130204944, -0.034583081174169236, 0.042307033057732576, -0.06854300958757922, -0.05904358453768111, 0.07513305244042894, 0.05595840514777747], [-0.02143653533242152, -0.032066638756247295, 0.13490819296811335, -0.016832188565731324, 0.08801211693603772, -0.06213177874084957, 0.0033835685846534506, 0.1010508779879795, -0.018016430518138893, -0.060990013445928415, -0.012489634867995194, 0.12469186813106901, -0.012184772186922169, -0.03734884637527899, -0.0646816311510233, -0.022687282409144492, 0.03767149543072312, 0.07283628321272807, 0.03435114351682681, 0.002264619727547399, 0.06386954497492618, 0.058176232245210235, 0.05092267338311667, -0.1031974989918171, -0.013057518920287824, 0.059573138464559756, -0.08368734698883744, -0.040968241227601905, -0.026517337750677782, -0.050667167934021616, -0.053335327439058215, 0.055833497222615644, 0.01757564321368891, -0.05824112863068253, 0.07211895375631314, 0.04127406621541481, -0.008141952427579313, 0.0018461199821019026, 0.0088536473783623, 0.016563911565332254, -0.05859988144088393, -0.041488182779339744, -0.10431377913232527, -0.08225906689798244, -0.04372673220913596, 0.06292158324961682, 0.019898590249489437, -0.05438754730355645, 0.004105419927796134, 0.06321336802771729, -0.01129087189096161, 0.02358415906119038, -0.030175898434260738, -0.021555424586993364, 0.012975131035975456, -0.04033383808506737, -0.010015164095865408, 0.0096676920630758, -0.002477381071157623, 0.042276276879355264, -0.0028626334912578858, -0.026191545664950393, -0.03808113451171908, 0.02986494816296142], [0.10015769326364482, 0.06590920619196962, -0.07155547261671548, 0.027110367941499403, 0.018360574849098085, 0.02535287792268685, -0.057112603998580466, 0.016747675464136073, -0.007472966275100739, 0.00913617195213771, 0.05723407242653652, 0.028950921615604402, -0.057254219065666793, -0.04069380418859486, -0.00208811170244402, -0.00969338432677402, -0.07050080659319, 0.035874698483633366, -0.007874186529132493, -0.0509167212062153, 0.03668788024147659, -0.011255536308332816, -0.06985105487600142, -0.011954806196139358, 0.024684553004013995, 0.03655786056652954, -0.006384802998714622, 0.016881274986882158, 0.019230725330998944, 0.03817039301716011, -0.020013900556314326, 0.07464135144026426, -0.06865985150797287, 0.10517831718595769, -0.011539217315974265, -0.04880848064915011, -0.0371977755625719, -0.042988507682487166, 0.016333721936014383, 0.009451771546774084, -0.06021089759709007, 0.05127947357481573, -0.07239014123343102, 0.05577787602816027, -0.06660570058084714, 0.023077659420070878, 0.03150681161817443, -0.07458613568731437, -0.028324517203748834, -0.020999347907727228, -0.06716254709759233, -0.0495597702879227, -0.026466750479671196, 0.009152749140425959, -0.036704566347207285, 0.033917715914677224, -0.015436256150034274, -0.07690013166443792, 0.08667890192228266, -0.020137976096426435, -0.032692494710832604, 0.033887518998092475, 0.014202042207761688, -0.03870363756106541], [0.034057383703019875, -0.01856579494577641, 0.03982706124190852, 0.0029016135227248117, -0.0026911164194649033, -0.005727814911544768, -0.016004827098052343, -0.11717927408974067, 0.025583098248209032, 0.07320342103435955, 0.006188457320488388, -0.023845338873374908, 0.04683903262155693, -0.07364344629365462, -0.0055636119485993375, -0.026263036269322353, 0.0027642697909017475, 0.022842359581391854, 0.03578296767349198, 0.048162078376058556, -0.03169240019427252, 0.028043104569933783, -0.05094401371442642, -0.0322257575216699, -0.09555695670041789, -0.021170135174942897, 0.02201918567070111, -0.042682008991872064, 0.1222968327085738, 0.032008267880374454, -0.0203262790133291, -0.08557984311483459, -0.07303970290664934, -0.05664300563467414, 0.02595511778579708, 0.03674455190760264, -0.01453979224404751, -0.03685111694934351, -0.036709644084816855, -0.033784609299399526, -0.02616451818612501, -0.05415357384492878, 0.05476402196480857, -0.026531320484178087, -0.01678146022912313, -0.01611107242631438, 0.029398630189645423, 0.03886387055078049, 0.0022363641596569402, -0.06188469794107012, -0.01557860804841356, -0.031223052490672868, -0.026808103198108932, 0.04595737385432112, -0.0337701731546345, -0.06377232687361097, 0.09147243252539877, 0.1356179567111368, -0.039222730895171885, 0.009404437003288205, -0.0027547308007444446, -0.013701480408413454, 0.03465313139761999, -0.06534908265506133], [-0.022665220978141765, 0.03004776383385466, 0.020457821172262133, -0.05329869840889087, -0.004878755597960525, 0.031385281667917805, -0.011679002595762754, -0.06049435872257977, 0.009754228597960537, 0.0009416841277811348, -0.0007705623942801432, -0.013856050235731089, 0.001488005370214113, 0.014836658674739427, 0.023187943634374774, -0.10849991462240477, 0.004293381132489598, -0.06799269134087688, -0.041993692811563656, -0.0071663738137845425, -0.041997642038550075, 0.005286947882345563, 0.016632878255270954, -0.07099572095103664, 0.02842243975980208, 0.07157097368504703, -0.0705957046824021, 0.05231454892585962, 0.027999637584538373, -0.0357673635305729, 0.005261773459594491, 0.0019938072028037727, 0.00798513204024978, 0.037687041669685444, -0.006364042147290786, -0.07549133012197541, -0.07553592098315086, -0.05030784917429592, -0.03784822555628089, -0.0010846398147374892, 0.028139248547107205, 0.022056805073657246, -0.018499278172876662, -0.06306045702965445, 0.022952704684291347, 0.007491983395399014, -0.035481743522299346, 0.03867899649736525, 0.04271324955449835, 0.034844507885967886, -0.031120190415001622, 0.0037762340425158427, -0.033661196826897326, -0.07409610517572975, 0.0644742863658292, -0.03200216918196515, -0.030871737045796287, -0.039483194024792376, 0.004104015845370459, 0.0250953230891643, -0.021912380693322756, 0.03055171298022026, -0.0462179891759052, 0.045525925932290524], [-0.04466426712591366, -0.021219108692609345, -0.06201666041874878, 0.0038164917685195245, 0.09372375454680178, -0.060655919487499474, 0.014777967067662767, 0.03722566164192748, -0.011590779937798296, 0.029355211845809144, 0.03960387634933874, -0.06149478203445286, 0.0757537377415402, -0.09117585115466327, -0.03368741661505863, 0.01739797355710065, -0.043768620577314725, 0.0373736971605741, -0.02594053049012994, -0.04245115278172573, -0.0778817481408125, 0.004488382275564828, -0.02778959408944882, 0.006202190756007088, -0.07607087540086092, -0.03576317104481463, 0.0024881952180658517, 0.028058054125351662, 0.0033988038781716016, 0.039331303816242356, 0.00763377510900671, -0.06056175828243951, 0.01332780517129309, -0.05087212659859721, -0.06548820497492092, 0.006132646683292777, -0.005130609269803414, 0.05251181706405534, 0.054453580406911166, 0.008098112803617136, 0.00037731256209597836, -0.08430284905312262, -0.046669867238937145, 0.010405521954729057, -0.0786603376327836, 0.03147490228274882, -0.01202298510134484, -0.029099342494227264, 0.006090827550326873, -0.010153590635966934, -0.009440714736363069, 0.10440345491664321, 0.08009655585187157, 0.04248755660210089, 0.06733169852938498, 0.06572343780905697, 0.01268957951870289, 0.0791413758836557, -0.027384506377000736, -0.08129853660523265, -0.040678079188643475, -0.03394089861468073, -0.061690204670219705, -0.06102304178494223], [0.017223578910443817, -0.0848522600164984, -0.0708824343204801, -0.024588244563430634, -0.015844382093394883, -0.03506784863844295, 0.047673303650242395, -0.0163879602662257, -0.12367987714023573, -0.061429022573810166, -0.10609325235301907, 0.0005096257620959778, 0.01322289717274272, -0.03696379672096913, -0.003307050576332151, -0.05238742126106321, 0.0463189446927486, 0.022739321433462842, -0.043306973942286456, -0.06637336056478778, 0.017893779058320482, 0.011370709411396179, -0.021809096267332188, 0.02867668732699794, 0.0014751501838599502, -0.030507422688793157, 0.040854073416012264, 0.05935248059009038, -0.026170363039019127, -0.03671765040737046, 0.07036460048182329, 0.051304261765388694, -0.01988598251392168, -0.06527818216145988, 0.02403854771803914, -0.04857691472831046, 0.02897754424846496, -0.031760714543537155, -0.08818444565432511, 0.01339070964951818, 0.09151340177595638, -0.054207960150850325, 0.13427934485692397, 0.07418966386695783, -0.0418803276063033, -0.04612282091899583, 0.048224967389027235, -0.05190082154450033, -0.09499219681300036, 0.08027739665507606, 0.03725959000875945, -0.053809055894085744, -0.03763894967858933, 0.018843056501431917, -0.0023254086845911847, -0.009172292631690492, 0.052437847799110635, -0.06382357568067976, 0.05237530431538464, -0.056583777442640995, 0.06558450162796625, 0.024661002690683873, -0.0031149864420424475, -0.019749282707352694], [0.014839280263928691, -0.011246469053946889, -0.14360751647147854, 0.03755059743416938, -0.14474829140259163, 0.06299601012610864, 0.08822019988776299, -0.0552974611600659, -0.03296554803626612, 0.08361511387417143, 0.00925648539899233, -0.013370184062953875, -0.02640029535625559, 0.009150933068615287, -0.03750455312134915, -0.07170265034512198, 0.08421285958780844, 0.020071183443100372, 0.0002109239704229149, -0.08690208325764644, -0.033317505007341, 0.003580229727864742, 0.02478623903039961, 0.02731547127677839, 0.04964137168555014, 0.03667217589346247, -0.040485217702214485, -0.013802802488964976, 0.03808486217208198, 0.004118694076822673, 0.056394649072501926, 0.07425917768191707, -0.03980637823572454, -0.06649921313989877, 0.004077031586877779, 0.06164727999744907, -0.004241293628552394, -0.021352504262661595, -0.02579226223890143, 0.030114666240288464, -0.04152101577771515, 0.08316864892850204, 0.062104053572753656, -0.05542342600456759, -0.011770574788318154, -0.016551823215305086, -0.055939631998508314, 0.010149200375207536, 0.024172343902668487, 0.03541065342782557, 0.01811187242529782, 0.0718499391315007, 0.05169374253024124, -0.031877723205728015, -0.014547648262220745, 0.010676345522501919, 0.01475880203041422, -0.019824197314578254, 0.04790913909021025, 0.04058945869579842, -0.04240828665357886, 0.036420701995533225, -0.0027285230021151705, -0.042653354253041786], [-0.032324696028554374, -0.02827906007563314, -0.05127645203433429, -0.050835927206867755, -0.010380014862128728, 0.10645355211607029, 0.0805175490218845, 0.017431720226534383, 0.03852703026903988, -0.018369525098415294, -0.019169313283920814, 0.006632689562220492, -0.061791342204338025, 0.04696055163447612, 0.024774468291273426, -0.09586158930034223, 0.013076013322637936, 0.04562248429141245, 0.006397878073701724, 0.062120000631918, 0.07266610652953492, 0.03349412343078487, 0.04085558934510793, -0.0006483152351062108, -0.034258357638142285, 0.05051230001060898, 0.054296921145491554, -0.05718895897339433, -0.035211163399447215, 0.0008262023330534451, -0.16779515531430267, 0.03483229152323139, 0.026491463931496043, 0.01804015331475681, 0.0321772789663513, 0.03960695260668353, 0.09360583989420966, -0.057261407183415214, -0.036607258395710905, 0.012223772532433438, 0.008416464604774769, -0.06921309211920128, -0.03584817241315181, 0.019076299054744974, -0.03159838493895003, -0.04089244516342645, 0.016210766537144736, 0.031048908200857653, 0.09650567557776311, 0.04945502304973277, 0.04431408128294945, 0.0021563683209793903, -0.043774112689017736, 0.05849736988910383, 0.017062367006777344, -0.06697801640083711, -0.03678346885734263, -0.03668665554566862, -0.12337588567484534, 0.0248620910274719, -0.001638986862476279, 0.036695694002180285, 0.019316327556526753, -0.023506356124198935], [-0.011344226746285851, -0.008022902653260673, -0.02629213446398105, -0.06750191746897485, 0.024481679820564563, 0.018550730562938406, -0.00013009566005148484, -0.005879055112219124, -0.010739917435352762, 0.029013929531292965, -0.07307225877452805, -0.0009353151592889164, 0.004104433364500217, 0.06363739151427862, -0.005594293331850163, -0.11740261315678362, -0.006238811557515086, -0.02535689505662084, 0.025990523207207617, -0.020412905690665086, -0.07209353241350822, 0.018707647335413725, -0.006103521956665677, 0.12357405412980225, -0.05565098093865771, -0.03611977140571005, 0.010518368129861243, -0.01655502663852756, 0.014689354916145408, -0.008466631514705449, 0.02281443061639132, 0.06353259929030568, 0.03856564264708273, -0.035316292739038295, 0.05888582657873687, 0.056970734938801386, 0.08433759783589749, 0.0017977550099307117, 0.011863811823524317, -0.010290107978078951, -0.03899245310412705, 0.07757075646759225, 0.05641804257523918, 0.10925181536054202, 0.09023974708572505, 0.029407164005414543, -0.019219682034157123, -0.08199302713940188, 0.013472213018516883, 0.03932702666652291, 0.0333962591839487, -0.027014160240293995, 0.009579166812083357, -0.04800487044160456, 0.0467048763700113, 0.056704121117992716, 0.022686581827247546, 0.00039832712423470745, -0.02800548302629192, -0.025642967064517755, -0.08450928060827412, 0.06331593447844276, 0.07173830698744209, -0.06536495869242527], [-0.010042646249019621, 0.01268380583713259, -0.037563434878373374, 0.0060996711621436, -0.002893801395740335, 0.08443254543633437, -0.00614039041583883, -0.03516162191085563, -0.06417599711210607, 0.10507235024979603, 0.09212406925261508, 0.006827057998688518, -0.01929972126358571, -0.052191162182416415, 0.015521427630042257, -0.04240400436686307, 0.01435593808284645, -0.011532233400221355, -0.06649965206480493, -0.016434927016907436, -0.023203304441825227, 0.001537806991103029, -0.044767423924989634, 0.06687271252416807, -0.07261213003279517, 0.06016213248434302, 0.022657396645274285, 0.03473635531073688, 0.040382890901818326, -0.003830944343428458, 0.10164460522537574, -0.03262479786803801, 0.005914592844502202, 0.0219151980882808, 0.034777098656057964, 0.01719452723970414, 0.008105928568717106, -0.04015704218352569, 0.03485209260931518, -0.04176919557443687, 0.024775897297174904, -0.061828331849797455, -0.05870231674375175, -0.00765114402913496, -0.039446866477232743, 0.05061832470876943, 0.06470426057244627, 0.05260089445856344, 0.0280609641179036, 0.025166048297602862, 0.08207140319550019, -0.08891758316664003, -0.09312461963437323, 0.057049527695212744, -0.0288438820350578, 0.04879895839679402, -0.0026593336654597705, 0.10837234470325849, 0.04252880744373303, 0.043829768778612235, 0.022397987178393027, 0.023100626318731193, -0.028453143941580182, 0.0061443604907825645], [0.019819673496834323, 0.030050979526581503, 0.0036891203432931584, -0.05765674971303166, -0.07573924525070125, 0.022598441486458343, 0.07444052629974768, 0.04656237824786771, -0.03844198504649102, 0.07405930834412584, -0.021080066760218945, -0.012459224821342426, 0.015478105166664109, -0.022111225259851697, -0.03559465666996589, -0.132266987862686, -0.01492241735707107, 0.0070302778650622, -0.030605103920907727, 0.08159428095955602, 0.051095375712149615, 0.11451495308640745, 0.04344833537829158, -0.0586350195116555, -0.04220211506530068, 0.004298552033880737, 0.09384953613392474, 0.07332345535244703, 0.0025195268721371735, 0.012608828648189276, -0.01621556579949888, -0.0264522834311204, -0.012898969809680047, 0.04465872074751903, -0.030353451735967363, -0.10452969435884647, 0.03898432733406086, 0.03400341688993937, 0.00616776587732635, -0.002550818672448033, 0.04154088121383689, 0.0009773773163105483, -0.056269574933557706, -0.07272432287165671, 0.09221759845647096, 0.05261189842063086, 0.009996889873160124, 0.004958884563510114, 0.019230554282095705, -0.009367841569099863, 0.059855129518281244, -0.02278348680029044, -0.0260324552070446, -0.06549452182447868, -0.0248953221690622, 0.03343988224977089, -0.08300803638502653, 0.08232342498705401, -0.017280323691780664, 0.03631984038720064, 0.07004330574407104, 0.0754551881487198, -0.04840754405522254, -0.06457986637707402], [-0.0970391100652105, 0.007722392521429926, -0.020897236249261434, -0.0026103574677005478, -0.03472220834151925, 0.033286813926464556, -0.0519182822289231, -0.05665903061129142, 0.008439896876404196, 0.1555962011684543, -0.012446535569792536, -0.000428687343335988, -0.07065571293758512, 0.046287782254297485, -0.08825078934507807, 0.02955150273224165, -0.03685553850853979, 0.046348810005567634, -0.008111484870871167, 0.030956834981901805, 0.052109557975674486, 0.03271933784012274, 0.07915752749844845, 0.018907246732012904, -0.019562058595365212, 0.08508592432056244, -0.028375125099567335, 0.03700603553055026, -0.03434676074885119, -0.023223719365766015, 0.023263029314470756, 0.025676789820836963, -0.022480758281508927, 0.0684792009170296, 0.014744460122417634, -0.07618991108342257, 0.009187659724445917, -0.125290402900351, -0.11841278450957153, -0.05556863114238951, -0.10109292311610843, 0.07246679884594903, 0.015651179439175704, 0.004363925997219583, 0.007534488471022184, 0.03390934060391011, 0.006454191421108086, -0.02806495752093584, -0.06630299097871309, -0.048770795598517616, -0.029217539685155114, 0.04878581042575299, 0.06357953448517766, 0.07759510589923627, 0.046656917593737184, -0.07836017023702192, 0.048897023204807565, -0.021317691060136226, 0.017124261461187885, 0.012469249534405822, 0.07031443892157291, 0.025292189284315772, 0.05258595427499497, 0.008529405309077993], [-0.02118758754141919, 0.06387682767267433, 0.041189245941571605, -0.03788368758151793, 0.032783923238663346, 0.09457959679183607, 0.01125966832435521, -0.0056058492494984995, 0.06886329666886179, 0.05590086138420934, 0.011447438760706571, 0.010683096909898406, -0.052210467398801405, -0.013015225112567391, 0.05806796840141765, 0.03741194444350267, -0.04032171706495322, -0.05545636666138065, -0.01614475183808758, 0.040970269100108495, 0.07766072957716434, -0.00139594559349922, -0.0783414763041955, 0.03917846673941821, -0.022517259501114245, -0.00034725578817760037, -0.02457435377673911, -0.06271971372832777, 0.05588267161133398, -0.04407915188011336, -0.010540598792391536, 0.04476528375979688, 0.01623643967874324, -0.03563192898750977, -0.010333753067897833, -0.04758181722636384, 0.015716141886275726, -0.005989570765514185, 0.02619090714001702, -0.051031268864022046, 0.03643238786266596, -0.06959530538192676, -0.03453072656329932, -0.011984641833800644, -0.053948315379220735, 0.08027037155505531, -0.05472422648600928, -0.051192212185549875, 0.05909069441883564, 0.03105604239452037, -0.0255355471251965, 0.006472591765037256, -0.010555422336565945, 0.046044104430036, -0.08231598279098565, -0.0911370658648509, 0.03613462738096475, -0.08258250315263439, -0.003293102571456843, -0.025047211347972317, 0.03250865073509567, 0.004481737009627706, -0.01686644888035438, -0.019456925231721354], [0.026039839369098417, -0.07296833568796371, 0.04309364558827907, 0.018497787622347366, -0.04465284830131017, 0.020307329101072347, -0.08910727313651132, 0.04679382345994265, -0.010699063884682202, 0.033850015859631516, 0.038073879473437454, -0.08441987458528762, -0.06098757493199352, -0.036980870918709316, 0.014157588521935636, 0.06514700823601582, -0.010277770573486616, 0.011342860909845468, 0.03697600676775241, -0.001089108999022951, 0.035211239615600125, 0.0328152676636406, 0.017503068930392537, -0.0022391056630806407, 0.11356892203557474, 0.03650271098232667, 0.018028818332837968, -0.01926243141549957, 0.10944028935868455, -0.0004818425790686411, 0.03004799672214417, -0.07382095116706323, -0.05598290312256898, -0.048465363104352545, -0.02869071257141717, -0.012344783314335254, -0.03824586531245279, 0.12621664052533266, -0.03889913255575799, 0.027536465136707253, 0.029802861933217416, -0.0405643297576481, -0.025284933692587743, -0.0026680500603111263, 0.05270944878760069, 0.02251168452408348, -0.0587215745686732, -0.04353194400222393, -0.0007017321580019864, -0.0017525856929541945, 0.051405962853111414, 0.03489000425849637, -0.038069479999121976, -0.027997664472193717, 0.012802177351672243, 0.011960764554345082, -0.051615493674924864, -0.11315035538051102, -0.015276043779746508, 0.015264281685750575, 0.00013688799591658274, -0.06664598382783522, 0.02012484192874482, -0.010965832702209358], [-0.03033076198994624, -0.03393803923655069, -0.04002874759469778, 0.036556623514529256, -0.008890262657278651, 0.005190595472797586, -0.02643515299049638, 0.008516784607859073, 0.016720106599589377, -0.053643812510376206, 0.03698208985135177, 0.057909715872193776, 0.06880590298171156, 0.04766262315291572, 0.01604389799001954, -0.03812771166036875, -0.00533203347155087, -0.011783477422709453, 0.03937093280215944, 0.009691014665528994, -0.12000390277835128, -0.01505405560403933, -0.02604269913277486, -0.09968333134218907, -0.03805666284649456, -0.018281527110601454, -0.033892757970343905, 0.02981117739861289, 0.019941021706389964, -0.011538933087518558, -0.06336595320535461, -0.029113696141236784, -0.12254262333810077, -0.06069142435779185, 0.07072177768787291, 0.07487598278302694, -0.10432420962137913, 0.05817304137101337, 0.0015287830075475153, 0.02444160522988441, -0.009647399819030792, 0.005015169078445756, 0.06156672195987595, 0.04975233512817921, 0.03591411571422813, 0.07561167441123864, 0.036511494818522026, 0.02392938454858185, -0.040904007399779826, 0.06769871355006368, 0.0007359383309624896, -0.01867100901345559, -0.05936283473500422, -0.00996735235592521, 0.027446873255121202, -0.047614184203949354, 0.03027634030779661, 0.009297061616811172, -0.018515446884882308, -0.05282605470046042, 0.004992869777448466, -0.03331397690274129, 0.03162293183639118, 0.046009502478991146], [-0.12266062966778199, -0.06349638843558188, 0.0007819706411522117, 0.015401456733639652, -8.635117980487414e-05, -0.09467701082850466, 0.07166328303156064, -0.07382299669462047, -0.0038053667066616807, -0.030997053736653155, -0.038533644758923236, -0.04703639070769266, -0.02424094039735912, 0.010772790173309106, -0.053308708464058205, 0.04304630008042761, -0.030843321173079166, -0.02641381652366357, -0.0884845753398666, 0.057609419933753486, 0.007496143097692532, -0.016777339967227755, -0.02778466976239341, 0.012928055136895758, -0.04195277140462106, 0.026504111744145593, -0.00532048646137941, -0.04862164733425308, 0.07426100705663347, -0.07957987943826984, -0.07525181083209176, -0.11587202121022952, 0.026580477143795158, 0.03528914784488528, -0.000557951189784589, -0.10256358191424621, -0.03391503210408903, 0.08913869459626125, -0.04178840317809289, -0.013776924801832329, -0.1164576900371083, 0.029841493850348892, -0.044074890085149136, 0.043604739273523076, -0.027356461282142808, -0.013165439801146012, 0.07110535984412561, 0.003967036310151357, 0.06493662739792559, 0.03215852602513192, -0.07243630460807354, 0.05622155404038557, -0.06100346618288085, -0.011698159739314007, 0.04198129151013538, 0.08308914973639427, 0.030100309029802624, 0.03878320398862874, 0.008812705323505046, 0.0061771079802565715, -0.016472292440460015, 0.011305223021887644, -0.03636453084035517, 0.025473721845225027], [-0.0824801730113089, 0.06581092096887711, -0.016328556180715024, -0.02703943137740036, -0.05371049302934531, 0.007520039088391141, 0.061732558521108996, -0.014752695542247478, -0.06051518320496467, -0.016963548079437975, 0.015575218209542458, -0.039398158184460505, 0.00769431704652698, -0.02283831447779486, 0.016000854906078228, -0.004605533216862682, 0.04773722095031715, -0.08187789928450427, 0.00442852749136136, 0.03857703299589106, 0.020450657813898588, 0.022402974852058805, -0.02345323373542126, -0.04738080496858608, 0.09798562782223648, -0.09382141391980876, -0.0267969861650301, -0.053275274280788, 0.018954072305524153, 0.01782195562698909, 0.004578239671833639, -0.026417361278034093, -0.0471377361948918, -0.0701251705661891, -0.02074235156100018, -0.09130481915167787, -0.022188278283865364, 0.09544587077440948, 0.02748841626474962, -0.04397246219058093, -0.001507962642618998, 0.04275454296960305, -0.06742494975107145, -0.028734778881973094, -0.016601579296902418, -0.003919792813286427, 0.12373837132636926, -0.0030407070615744397, 0.032097601944706664, -0.04748545222910621, -0.035218772750079244, -0.021713440239867862, -0.0009554808051456309, -0.04571377902362701, -0.023754267274122765, 0.02944831740342978, -0.022229493883600248, 0.042787050398882503, -0.06820025903492194, -0.10134472844376069, -0.025274726521406197, -0.025815608492706674, -0.03409305331704855, 0.0019823701864942877], [0.08386789235150086, 0.03099371183404946, 0.017415767141425013, -0.04277467560151376, -0.007952008456070163, 0.01919844965802045, 0.051089652682733945, 0.010995335826308298, -0.0475275839478934, 0.09866187506689297, -0.06552395942958181, 0.06374813785209432, -0.1424709412276894, -0.07949262783503248, 0.029709082068713758, -0.0448176665112739, -0.020123738399056266, -0.08850122797878542, -0.04104581651041853, -0.04089923223875533, 0.057373947161704686, -0.023079600116858907, 0.0044036673175609055, 0.01890077844905401, -0.027130114988742345, -0.04699236032371635, -0.010927501943830093, 0.05144786428688247, -0.005550114347849898, -0.08076335217816578, -0.1189647643610671, -0.021571686498741697, 0.1243964705889582, -0.028211101115597926, -0.01976361761883829, -0.0365486244925647, 0.010326469307879437, 0.09259567135954817, -0.09793974548237495, 0.039933360397885476, -0.05865013133422926, 0.04250190120380325, -0.03239346639313115, -0.00900642654311734, 0.06192627816888087, 0.01872623548787772, -0.056465033920597985, -0.03593572757913415, -0.03869537546292351, 0.006444711057119663, 0.07196349539291959, 0.06286328993402666, -0.0331261372935113, -0.01419775852032276, 0.021279505801938967, -0.021068380264538934, 0.032808017119806895, 0.00958410796118366, 0.09742760818657319, -0.015120075285026032, 0.028510777504013787, -0.0044126770710764185, 0.02293933688941536, -0.031641230695451994], [0.03390213188514205, 0.031182154348101836, 0.03944073213057694, -0.00829249418886584, 0.05326599074279972, 0.024886564702610716, 0.017245257461994404, 0.07281088100323528, -0.020726424750077077, -0.0011589847014768302, 0.02711828680862203, -0.08361646847188775, 0.0469562416527889, 0.047797634734660546, -0.05240241201978851, 0.016450331143602726, -0.005420638806182741, 0.00021458949384430454, -0.07671146909013286, -0.014479628976002945, 0.09332785136663246, -0.030569262000045002, 0.00982820049420814, -0.06291428461122185, -0.0006145819199795915, 0.002863929964374169, 0.00010772175801661492, -0.030794172059178504, 0.030912451092013245, -0.027247317481264303, 0.04275387876117776, 0.03045962588020375, -0.01573287558671278, 0.03129576792895679, 0.10787725947576973, 0.03321112486730976, -0.05537497689926036, 0.01675130343364409, -0.05102681897087287, -0.0015341535229219875, -0.0044324472895810605, -0.028279070563103997, 0.05163008735451739, -0.0007282684016214321, -0.0013412516107605956, -0.03268119484910208, 0.07760015854741582, -0.055977390684624415, 0.03487986044453135, 0.00363323827810911, 0.028241481345112927, -0.006259634884753442, 0.05065374874211964, 0.004594456987245996, 0.053249706983102364, 0.06067630972459432, 0.009606382514945114, -0.05238871283675872, -0.05026863194527731, -0.06873200406039548, -0.048500132803370996, -0.045217191774116566, 0.024099520014729984, 0.003841018459451956], [-0.001723654653945425, -0.01863050455925212, 0.03622671011874004, 0.034878492658946006, 0.023152285154836034, 0.022015133285683688, -0.009490291435816894, -0.03259323780108031, -0.015165237265647728, -0.015250808502513258, -0.02332116810671984, 0.0070608482130273525, -0.06910254063773809, -0.008836555355743523, -0.007373328049624131, -0.04667898611236697, 0.057853870990838704, -0.03980205029683128, -0.025189272554420616, -0.025167313957589383, 0.01434768030930992, -0.05867551691199328, -0.06119082564072798, -0.051770071905460124, 0.06324242665976389, -0.11121333989073877, -0.03525972754562472, 0.04021305518146686, 0.03125906975203532, 0.051456872775746246, 0.052139403649557936, -0.03531107873159002, -0.033544035443043164, 0.00026193410673888695, 0.024080457452408187, 0.009858677599167299, 0.04403211305044848, 0.04299292275177749, -0.12324822451777712, 0.011328373544090843, 0.017381267679024395, -0.018873465025260338, -0.004956804153122164, -0.11028610265934906, -0.03646546082954193, -0.04204369021610202, 0.036385320969756815, 0.019342494109396934, 0.08385132388009862, 0.026741507894093585, 0.07008698866056143, -0.06442260242092437, -0.04992267439233963, 0.05568176437478509, -0.020677449346110852, 0.011362707466002066, 0.05940176671145447, -0.07794905644335721, 0.02253750481954694, 0.00023184169367041727, -0.031681083563365214, -0.03849628345177972, 0.09206776403846532, -0.08869893476061502], [-0.0013054979296837205, 0.07104442292603931, -0.027546789072871326, 0.03331340440348975, 0.04032001468357775, 0.04866141641628751, -0.09315851654098815, 0.016142575508826723, -0.02236216140964711, -0.0552339286398638, -0.0830361220758929, 0.04233178637673791, 0.030541729777648713, 0.02142958686710943, -0.03076476904527822, -0.14279934891404228, 0.013682608043977107, -0.027085172908877204, 0.04301726790251279, -0.026868810941975657, -0.04011292926585644, -0.042871007396510216, -0.0576682165482679, -0.06350858671235056, -0.07083170120408057, -0.056312102549870534, 0.04354256053639241, -0.05167279535358289, 0.03383904403684131, -0.02773816527250205, -0.08905541533747044, 0.0050744740750372375, -0.01605533468685414, 0.015883449478421872, 0.0038212232136365662, -0.004467300310440979, 0.043982898712888366, -0.055770998333561084, 0.0006860132324962449, -0.06926949598795037, 0.031203872309497574, 0.11449246858379238, 0.04010810314172653, -0.05723916909319402, -0.04568561332779149, -0.04723177287324943, -0.06714227163024448, 0.03027196976911623, -0.06640476580802146, 0.013609426056545502, -0.024057674612829143, -0.024077586635703953, 0.05203525502193526, -0.08261226927000254, 0.001348227415714369, -0.004171091830288166, 0.03961844257387026, -0.03049233073988259, -0.04948113648160266, 0.013891019424619792, 0.03572716093997978, 0.07965286821409884, -0.017700551991594794, 0.03741868154743047], [-2.2364737197071882e-05, 0.0638622843750317, -0.038944139727155984, -0.015523065728836705, 0.0027837977382703287, -0.012602561449485806, -0.05960737032402172, 0.030111500665756272, 0.04641615793772371, 0.026189137889333663, -0.055552102736237334, 0.1148734432818302, -8.836898630590435e-06, -0.011839146365751488, -0.01979219792891345, 0.02420152218115109, -0.08295996572093703, -0.03713489965266765, 0.0381436887838168, -0.11686953478022423, -0.06658402494546475, -0.08449527218537743, -0.06388560613613319, -0.0279556107410169, -0.033868999994650546, 0.012621860797809996, 0.027479146849130644, -0.06122250741889777, 0.022138007051142754, -0.036215659922960254, 0.01951944872533962, -0.07060317200030165, -0.003036491678384537, -0.031918249986379175, -0.024755692508680687, 0.016553354248439466, 0.00299454144140169, -0.022443575039746935, -0.03548557740166187, 0.07266056625284244, 0.01232086383200631, -0.06403797042332642, -0.031200085739964637, 0.003980861435855106, 0.022281205735544412, -0.038407912829245966, 0.046439421025044295, -0.07781435432591569, -0.029982278754937572, 0.021219340254381346, 7.163304210223168e-05, 0.029370757594159632, 0.026387246764333003, -0.028211429357825397, 0.014400813936353977, -0.02415218141929424, -0.055352353430123624, 0.06286412007775662, 0.08036116094265885, 0.03198917336316569, -0.02640312456228146, -0.024084818314291365, 0.03948000578066726, -0.034284468993568906], [-0.0521487493610842, -0.0286414723207648, 0.027417010246534836, 0.0011348367889565595, -0.00678473646306945, -0.05673969997575571, -0.057194112008216544, 0.03467359633096626, 0.06382731614496877, -0.04539173440858836, 0.06377452309531349, -0.048021269404864515, 0.03391402393732261, 0.07356315141226559, 0.055124116841310966, 0.0360855057607996, -0.029151654952981897, -0.034792989459136, 0.038569932301141446, -0.03137490533337357, -0.0503629837110202, -0.05158876186554706, 0.002487143965478168, 0.046988663362522595, -0.015224374893386175, 0.03850301079482516, -0.0011191237350162578, -0.023352939331188257, -0.07424270476416533, -0.0531893589753296, -0.08266806898573557, -0.0033295508952167763, -0.034687361797839995, -0.00858195775913345, -0.0008858420217505085, -0.05651055795308554, 0.00937550237148154, 0.022828411072510768, 0.0032716962124939024, -0.04992207239417482, 0.021326587644214808, -0.011400288756997216, -0.035155525061294345, -0.14165180696995794, 0.0066123623518865695, 0.054870674187415897, -0.047673934306134945, -0.06390100004299527, 0.021690195416062066, -0.05977395486287488, -0.10728731152552909, -0.058819339907802734, -0.012867672698323441, -0.05860415867043845, 0.06054445467597273, -0.03532850520902462, 0.023462770803147483, -0.040187870817248804, 0.017200393253650297, 0.012967266504052069, -0.011009699785906301, 0.017658871172217545, 0.03176459865321708, 0.009035716631863977], [0.031892386769400455, -0.13507386904695054, -0.009262469089242378, -0.02336675127355511, 0.07381460155121841, 0.043291778320563336, 0.014685634436602778, 0.04987137391118298, -0.0354714139203039, 0.038582545617826064, -0.05310145771760918, -0.05142262790967603, -0.031999286773981936, -0.01616098233523169, -0.0174655843786549, -0.04408192119362236, -0.0838180821990072, -0.01863659966490656, -0.028230073045112755, -0.06830850543455093, 0.05777880700044405, -0.0009741088737984418, -0.0526788406353899, 0.03607525023273179, -0.03460800812666622, -0.10926171788538856, 0.06291923011535447, 0.024127344796642358, 0.028795680124884957, 0.11085656250891812, 0.06177005761870912, -0.04354012178269155, 0.019087268129623865, 0.07598026503746623, -0.01598127903350847, -0.04053247877726823, -0.06145562776199009, -0.052805236954314556, 0.023110508548381394, 0.07911034322731975, 0.014945185361032285, 0.04808079845279342, 0.01743992326881013, -0.006453008409203516, 0.06837425840380121, -0.01687246847214651, 0.013924359988196657, 0.003399321199425025, -0.004923163658943081, 0.04292534527146961, 0.035478217742655846, 0.07782631042697555, 0.059115966214885934, 0.013002089158335076, 0.011125238033637382, -0.009474768836814215, 0.04539853388447869, -0.03777563495577416, 0.009158998107842707, -0.06747530854319553, 0.009600865625011779, -0.0340736756081531, 0.00952218350521013, -0.06269586303409258], [0.07842297319813335, 0.038109208187973594, -0.10822868076438276, -0.016531164319366142, -0.08632545451999395, -0.0059396633334020165, 0.035622112279233106, 0.0545932541179466, -0.031114993115857102, 0.025019503296834156, 0.046037948226359794, -0.05633816966794136, -0.020335592447930446, 0.03491908073597119, 0.06206816999876732, -0.01951997585093556, -0.05689909036603885, 0.0032157117164015175, 0.004695491428031747, -0.06682678909781356, 0.03476634738430764, 0.019282249746017305, 0.019108249169166733, 0.0691031691958543, 0.04724628767074679, -0.008072089679791184, 0.0861741935654755, 0.012973753413760485, -0.06466093835728869, 0.06272040003982735, 0.035913135292127425, 0.026647398941782086, 0.017414467349560456, -0.005651784364457055, -0.08269211239969912, -0.006897384714764762, -0.05224596955426326, -0.019770112187631157, -0.03026280196046314, 0.010948422588907148, -0.030351324174453187, -0.03413594474476417, 0.01566619367021386, -0.0029918832594351356, 0.05656592945344595, -0.01759055043733883, -0.06144248478586481, -0.02434262470224304, 0.015635285739766646, 0.07036071897558036, 0.005942099903749284, 0.07096146026750065, 0.02982023016463437, -0.011125981930996216, 0.040253836394085134, -0.08422984302730481, -0.014533666129493989, -0.05703530765374099, 0.011714116233291426, -0.00626671211369668, -0.022880137552258782, -0.012476358703168006, -0.005322928509771382, -0.0063663903753111315], [0.026679541614933352, 0.016665252410716327, -0.0027197750318273366, 0.02050539991200868, 0.04518537083274644, -0.08975219074019639, -0.04370102619487763, 0.022412414967457564, -0.029024694002981657, 0.019697250087366357, -0.015276611441719419, 0.022097162344660328, 0.07812591511854322, 0.0039173289460170835, 0.06656543789404536, 0.03181332558617674, 0.08577739248801472, 0.032211760162304134, -0.036908054535758926, 0.040701658536851384, -0.019445182736761418, 0.06305704091183248, -0.030182769286764687, -0.01566918898833704, 0.04170454762809206, -0.02057685853967223, -0.006785803758872754, -0.014046726187163648, 0.0327404523033465, 0.03438161292349746, 0.00680488197641656, -0.0911012817184448, 0.02350003337105869, -0.02672972209333688, -0.027322441257649082, -0.0305473200340522, 0.10041110428701157, -0.0914371612192884, 0.047508962265296134, -0.04307390046694763, 0.0028437519374116035, -0.005376788681743583, 0.022890363177226012, -0.019701586150810017, 0.05147239599187104, 0.015525683151394421, -0.04741914434429152, 0.025568697200860996, 0.029051963107760388, 0.020555184553526503, -0.009770470072581345, -0.08051562010025451, 0.025183527998715646, 0.10670411080822981, 0.014884444904974264, -0.021344339442462834, 0.028879053257931747, 0.05420223397783448, 4.181794765202801e-05, 0.03202118362137057, -0.04446547186879984, -0.057763326520860823, 0.07292643886913441, 0.027534567767772394], [0.07154319572705205, -0.0015613733605647161, -0.0026765370136976677, -0.013278568135290816, -0.01966542302559194, -0.014329968584980795, 0.025247093720478283, 0.05235064498595524, 0.049937160360899346, -0.01812458497930746, -0.019308035515857885, -0.035867211264349504, -0.00454848727070958, 0.014369522410166586, 0.011929977218522415, 0.04662140201030105, -0.03062961521479401, 0.05621775955055145, -0.008020044879547227, -0.02445187631338785, -0.07775499907775363, -0.05157620698578213, 0.035406541875564454, 7.213834809156145e-05, -0.018061714301513543, 0.07914535255870435, -0.024152296317968124, -0.07582284480756556, -0.007788972159474594, 0.049622181547799744, -0.006591061802249912, -0.04102641384097248, -0.039293892277765134, 0.010787690812286563, 0.0037555505803349093, -0.05813247904294321, 0.05830404141535158, 0.031110029290096677, 0.05075167574465046, 0.02319976431512407, 0.04432813000380932, -0.09050058856210957, 0.029627263250794376, 0.059723301951732095, -0.07479653456129125, -0.05270843552601646, 0.07661339478944174, -0.060718473899404324, -0.05638847705966873, -0.06308609773261718, -0.08556223816720473, -0.05070942888902788, 0.019446590874358387, 0.029495754422133803, -0.008265218156122028, 0.10045688203526187, -0.07273644146367335, -0.028968225336725197, 0.031396683233728906, 0.04140154759910524, 0.028858011935010922, -0.04288945109562012, 0.011334804094818608, -0.007921555820369243], [-0.023824393155397815, 0.0037766664054400293, 0.0024184373517473594, 0.00817512860918308, 0.012076374202005908, 0.12708843149190288, 0.06416542527152123, -0.0028989134967476356, 0.0020863795495177427, -0.029920742029289724, 0.03168070196924205, 0.07506610472154988, -0.09025245101672959, -0.04413148989532161, 0.04854517731831098, 0.06291990651784164, 0.009325440792711448, -0.01656023720144816, 0.003592147430763117, -0.03391182429441933, 0.004920004297428581, 0.026165672214959232, -0.0275878962113014, -0.05026276941176065, 0.015123547939817907, -0.047197646062942106, 0.0903787487102167, -0.050976147873592705, 0.06812169636082102, 0.014610774521638736, 0.09815463508840216, 0.0863374251037282, -0.028881367576234964, -0.02290390699179954, -0.0039157005650663395, -0.05892676644983042, -0.040657338862681656, -0.031286594571364755, -0.038825843639719686, 0.04530732469569344, 0.011577993698222364, -0.016261922574426872, -0.0003640459362096604, 0.11987015952095396, -0.0007956468260423072, 0.05094098208834569, 0.022011616562896425, -0.04382105368856859, 0.028669202178297597, -0.09716774284590246, 0.11534378367994698, 0.009613057863465621, -0.023216259713668586, 0.013738807910875516, -0.03251035210912404, -0.00220583323549213, 0.00820916137598928, 0.01734344392582981, -0.07195913095284207, -0.06023642970147503, -0.03228143274492266, -0.042146908225972404, -0.011171531225124785, 0.018513172801673933], [-0.023976492744984396, -0.0434573132340317, -0.05227902899586081, -0.035514891509298145, -0.02428947491173407, 0.030747929795702504, 0.04201550927772233, 0.03643244901469959, 0.04923828061592624, 0.05439851068189653, 0.03083187970955903, -0.019785716752417602, 0.06650124185267192, 0.10406292545179875, -0.0561737591255529, -0.013559702737894086, 0.068595455539539, -0.019430813679476657, 0.05676924526236843, -0.04531339693070687, 0.053649269254216835, -0.11736259458471032, 0.021298323036926158, 0.05986128514179416, -0.0543948219939508, 0.011626432624482161, 0.008383828329249048, 0.045420488875090134, 0.039828673532194984, 0.05945079963819077, 0.011183327145008675, -0.06935682206606628, -0.024216580149396365, 0.01618320551296126, -0.04142108389284535, -0.09301837539738446, -0.014036947577182561, -0.020056596344173516, -0.010218721379802469, 0.026081120916320234, 0.0727593433940849, 0.0020851257160416073, 0.06374163959318693, -0.05098790917991626, 0.011022449987637706, -0.05334831347085113, 0.05086116213026135, 0.08625002908121958, -0.0720725286575599, -0.05405332543975943, -0.08529277185967873, -0.0211013462069467, 0.06150574296283472, 0.0465664385421908, 0.04924102733811979, -0.02822614525573993, 0.10490042947246349, -0.010419991340464766, -0.021038224026743504, -0.04720843712054651, -0.10205118095475471, 0.049029097107790874, -0.008399982141160783, -0.04490279713970165], [0.054984557690669136, -0.028958363760732693, 0.00923957152059081, -0.04171438715786793, 0.03712136109920415, -0.09406371551660166, 0.031751194173175866, -0.05988789510569395, -0.03818021190514913, 0.011373922308644497, 0.006762504531632978, -0.11367026152529391, 0.05247265000425863, 0.03046151711502986, -0.03001658845567977, -0.01523813847704491, 0.08800223432342738, -0.01081338946399464, 0.06426333852911638, 0.007075753064343413, -0.04076253730655209, -0.017027467865201297, 0.03168929142112956, 0.08154050937927797, -0.014252051307516136, 0.018067274890085416, -0.06996794424534296, 0.02674626606420336, -0.00586151758447506, 0.06033242512731383, -0.058991622050533724, -0.026241692418767632, 0.06392039275106488, 0.005037993440238659, 0.023454558381147565, 0.06490326440799747, -0.03059220157147037, -0.02065931514361066, -0.0522048217662407, -0.014854548687522517, 0.07913266703182922, -0.008001668813449289, 0.01933203098789053, -0.065658806922632, 0.04414883906342516, 0.0806089738947288, 0.025511344381140062, 0.03671022222626994, 0.024554607203850817, -0.11341396112727835, 0.04858713808737478, 0.0337513483492032, 0.026478832305213078, -0.07843048585363097, -0.056962789078714604, -0.048400027103406275, 0.03658045767200278, 0.013010426692865769, -0.05844776150994052, -0.06820169958863499, 0.009848830882468589, -0.049083900733776234, -0.01598125665907245, -0.01604832030053718], [0.000982723315583536, 0.040967638992548246, -0.05787928801022744, -0.04718518887227516, 0.04838188783343242, -0.009054333088486162, -0.0236464971383145, -0.0387949522146464, 0.008486564094588383, -0.008448277364365065, 0.009509894651813008, -0.03616937154550943, 0.008594207895912063, -0.0035709317482871005, 0.05357056570073389, -0.09146308057472637, -0.03150772595037355, -0.004728668379752865, 0.013635213694787728, -0.05333488232656068, -0.013740721167253566, -0.08058261754222225, -0.017475708809166532, -0.0472095172325479, -0.07062439030076768, -0.10496045050023942, 0.021702433102278804, 0.031466494614301836, -0.06526808745998601, 0.04113645183138933, -0.015166526055749223, 0.017730101710483063, 0.07023070696859246, 0.014921836605598442, 0.06334618700854654, -0.02954364277018452, -0.006964420003883794, -0.07327243813426675, -0.03292797965911188, -0.008691991407193456, 0.021716510841247656, -0.03980312659307972, 0.053089573125674805, -0.021750890165140556, -0.02250456761395431, 0.014222190894096888, 0.03125443112207871, 0.05201801480797733, -0.04751906363364387, -0.016819196499349105, -0.01742894143977326, 0.019313435409828862, -0.03465298095698223, 0.0013804969532170072, -0.07668285629623478, -0.018852453016873758, -0.00889710520201687, 0.046382990477244666, -0.032987316913909846, 0.04689228724999223, 0.0021351531163272147, 0.05178646052739543, 0.012993255109734416, -0.07313038305339464], [0.0868631102247155, -0.054136162523182534, -0.03182606180495558, 0.005753388472073255, -0.06402759384492407, 0.06700290729321748, 0.011411265247855332, 0.08259141051752363, 0.014050684807379057, -0.046877960766228785, -0.03303430222471602, 0.03834761597855077, -0.013108647166651366, -0.03848789346950205, -0.017342053670110488, 0.06213767399164965, 0.0014718163557171523, -0.05170890695065077, -0.027540741440007836, -0.007780221518502527, -0.01395309869309802, 0.02074443775355075, -0.027233485692006027, -0.016573506316103766, 0.0031055849888663354, -0.11297916776579271, 0.017866168092428903, 0.08309856915027959, 0.0022221296136207295, 0.03978408684722276, 0.00836631497437515, 0.03298915978218179, 0.05305515611927798, -0.06979844471138517, -0.054185974282949106, 0.07105576693147227, 0.019675070169102898, -0.0058062348810764795, 0.06036076839142875, -0.0013663538627379252, 0.09224390328127055, -0.005153206511772436, 0.07997270533553308, -0.03796445247798432, -0.04929305699050537, 0.03036877230063453, 0.08938307575068358, -0.0728777533867501, -0.0313746253068612, -0.014386847304983323, 0.022417482429251553, 0.08125266779962596, -0.046968441625522925, 0.00031166345493411225, 0.0006413708722596996, -0.01862717727631838, -0.06292897666018142, -0.011898820076896171, 0.02570256749888783, 0.005944004129326922, -0.0695580079240793, 0.07713902950341976, 0.012177647952164276, -0.0526896512196156], [0.04423490072480703, 0.04584143613713894, 0.02836240649609326, 0.008355014007879944, -0.023361748883125026, -0.04041669306494882, 0.03561227219320104, 0.03759303193221628, 0.026701671929321814, -0.028233603076365896, -0.0072939919359592134, 0.028625405839941036, 0.0322706694714757, -0.01252795128092018, 0.016661553759267117, 0.044097725313090634, -0.06556176505648927, 0.029914309268419346, -0.02684378400070756, 0.04208480226228338, -0.05737885730487924, 0.016999490604679226, 0.06687496484232876, -0.009877278031732169, 0.04392696811657737, -0.06761110166937127, 0.012574333605059076, -0.06321613695132454, 0.022775095858427175, -0.02292121789678398, 0.029334338226244566, -0.07487280522600112, 0.0054177568812182175, -0.00088443743041223, -0.03148542639953709, 0.0207208808449748, 0.060022887727729, -0.05739491626554701, -0.01109792267423379, 0.013292656244570246, -0.04246654862006243, 0.005090409422298, 0.002949286167708333, -0.028771187226615126, 0.001250094919025879, 0.014579802012611396, 0.009199149336480318, 0.024530291883022345, 0.02863154661970616, -0.01737075565254174, -0.01256649402296901, -0.03701053417803245, -0.027317497449404395, 0.05776864493326673, 0.01972523777231212, -0.037517428790165314, -0.05063054083053804, 0.0171322252399398, -0.028874348325047008, -0.04604583756410837, -0.061872061993546904, -0.0325931557773813, -0.1301306384902999, -0.032658318264208834], [-0.005732343343554347, 0.040120057438387466, -0.09017287953911104, -0.002603555159731864, -0.011345236325092685, 0.008916981542386371, -0.03355803808336846, -0.04994097611674361, 0.08103055116208194, -0.02745196102422403, -0.06656599853040918, -0.08532983693011541, -0.03904200256355479, 0.025767326815276007, -0.09669370826701792, 0.05428371312544401, 0.038555319165192656, 0.026807034924724946, -0.027838573389893227, 0.06739380718604211, -0.008154331226298255, -0.07453178555584652, -0.08297659655793796, 0.059876333142632694, 0.007187729507647078, -0.11195649804847246, -0.008097124398829364, -0.044373925932635304, -0.03086768862661084, 0.006944072848511635, 0.022489926888783294, -0.021371147651808996, -0.01793296512563127, 0.03549103312088416, 0.018198721519661766, -0.08795194545386714, 0.006926195573361088, 0.05033201607901927, 0.08271125680800405, 0.07232774941920343, -0.0023713500169813594, 0.001884903524982647, 0.030563133235331292, -0.06212214483284741, 0.02263579483714562, 0.014745570216484562, -0.01079588565782957, -0.014711300564759229, 0.05187872540014179, -0.014854747617594416, 0.0212997717947177, 0.06801146499652883, -0.03420976411491969, 0.0026648306005104413, -0.011923785076136353, -0.0074138211446430876, 0.045534548151268166, 0.003437989822284004, 0.08115469662712843, -0.05776088100580338, -0.09647918683304953, 0.03624070113121523, 0.050043621970504784, -0.029578753873105403], [0.06019343547092735, 0.08227411631550528, -0.0735668822580074, -0.015495029076638484, -0.06495519293281601, 0.002066150042886511, 0.033844248436862664, -0.04681612388651832, -0.055511664610216276, -0.05187559581762857, 0.045463992556430785, -0.0016374654120493363, 0.0032176252335193462, 0.007855620892919395, -0.012451415558376025, 0.039160974576996, 0.018401480912111547, -0.00021598727619506894, -0.08252325406930176, -0.01712521354784029, 0.03017442922571856, 0.017566401753233995, -0.07416335075955913, -0.028995163722205685, -0.10584649673847744, 0.014804221516018772, -0.014661811365342007, 0.08417834114379168, 0.014736063395176904, -0.0633939216242989, 0.005524942068012649, -0.0364167364903569, 0.0036442269162983536, 0.08250700563232059, -0.008839087900874577, 0.04110093532897095, -0.027847974809036505, -0.06620984827107573, -0.005214283041758795, -0.03740837414162385, 0.08851156544039082, 0.04592883805064095, -0.06451076890288175, -0.015405537890213162, -0.05290589267925015, -0.03607057768721961, -0.005396385771295391, 0.09394770797203739, -0.03820289334463406, -0.005699338242047887, 0.04052425948093419, 0.01896525532409097, -0.0017209376689720085, -0.004747619065734484, -0.02079810688470056, 0.01403653353917228, -0.029601525173913644, -0.050399054740088385, -0.022984212096703486, 0.002097873243561965, 0.01687627328726265, 0.007875366247358755, 0.030649231843902978, -0.027429997992915095], [0.018841181624420465, 0.040923600009275876, 0.02037178950461946, -0.003310736815764767, 0.04031488403628564, -0.008176577251813776, -0.07458329600626516, 0.03566276353071798, -0.0432959754635217, 0.006889022920885185, -0.0020866217319903037, -0.008980890982850149, 0.06741889287495877, 0.04184459625255778, 0.02161170563733928, 0.01765073484691368, -0.026997365935556922, 0.03311095873686105, 0.048471063428327105, 0.09608147015940222, -0.01268090071767495, 0.040895599286226256, 0.13142988570916114, 0.003631492822938476, -0.025438234735670452, -0.03798493658363503, 0.05160668048550772, -0.01696337534986845, 0.0303063062700804, 0.004135742765516508, -0.02486863322157801, -0.010438333886527488, -0.040211781210006514, -0.035312739678255683, -0.09136168004720605, 0.12498190616718605, 0.01614283036862322, -0.007366288922641952, -0.01498314823327277, -0.07793548528159693, 0.014965367701992386, 0.012140637156687891, -0.031109486360136784, 0.0006015178524011798, -0.009359792284328953, 0.01164712665783343, -0.06469123782074548, -0.08442188833779148, 0.010459350275608972, 0.050432384670522246, 0.08673948087464574, 0.006009791871330466, -0.05746383559863815, -0.0288783209954704, 0.02063798194537101, 0.1380106958945185, -0.07543594275207058, -0.033657978103197955, -0.021956963711670774, -0.04258187411394099, 0.001098733547239169, -0.03962909129409797, -0.0758231613415382, -0.014945603024165175], [-0.07311382535931349, 0.10102564333722007, 0.016776261985488174, -0.023500892110943625, -0.008049764588253424, 0.01838764094072438, -0.03101510287371913, -0.006573681849192337, -0.016108066871748535, 0.004894005406788056, -0.0644031888696272, -0.023385873326605487, -0.07178838054415367, 0.08946352080370508, 0.005712551575883284, -0.024971511612295775, -0.02961661804438908, 0.052363536251038074, 0.007434441357482319, 0.014025888786706476, -0.044044472634369704, -0.06861674422591982, -0.06055129658787301, -0.015810223915391653, -0.06850214206541236, -0.018281399527423924, -0.00816356946080172, 0.0260386218633768, 0.036932999519348884, -0.041574789132574, -0.007814943020015345, -0.021029082062817592, -0.0697665849684679, -0.03050027062047435, 0.024991783094528687, -0.0073780080390590756, -0.0943885804603689, 0.024162866286954594, -0.08109365567784385, -0.009646009960998604, 0.10042735600590147, -0.03090793178226026, -0.023286068088374995, 0.04036471986528848, -0.010482003395100322, 0.026143133110111988, 0.08684654600610121, 0.014982384819246573, 0.031059104960360295, 0.06664492894039162, 0.0028379601615452343, -0.025542078719407984, -0.027535472166054956, 0.056563489290720095, -0.009247524305465995, 0.02538693712778439, -0.016050208490638804, -0.013572436155439037, 0.01730279787417938, -0.02966482787887139, 0.006446369622019098, 0.00010829204670116419, 0.007311291869042289, 9.913491289825961e-05], [-0.0269473891833264, -0.0420987525574108, -0.054231425764580815, -0.0010160818159392433, 0.004116703877607936, 0.007313842359721864, 0.004859805910999001, 0.06975970450557291, 0.12662042704587392, 0.019725087616811618, -0.046688491075462454, -0.0908750277384352, 0.0392142710232513, -0.03782541267058315, -0.041085226592847426, -0.04704864688568369, -0.009548326205002127, -0.09738297951694368, 0.029351052939408297, -0.07786791636970429, 0.05039480186259244, 0.00987637275609469, -0.07327894339202336, -0.023093843005068504, -0.006345573278709696, -0.009848956927935977, 0.02399261845014487, 0.04856222173646171, 0.020673923012396806, 0.03403888104555784, -0.03587013486937624, 0.011569914146310171, -0.058859548039299506, -0.05181909704777466, 0.06692584379533632, -0.020166885984529537, -0.08029004505247195, -0.029609111661976325, 0.0029502170971567074, -0.06457353441660704, -0.005418073696581438, -0.07587961647542844, -0.017423457607311642, 0.008865631687960823, 0.02019925778795222, -0.03905540432720017, -0.07111032845363714, -0.01117258803513255, -0.055472678310576944, -0.009663304335467044, 0.09181102723160682, -0.04621589351990647, -0.17312035507158582, -0.03436185858364308, 0.02539867130284703, -0.037926921238036426, -0.06959780629963676, -0.07394756344962143, -0.022824621683477656, 0.020375136313541955, -0.03829233196821658, -0.000435653866527076, -0.0654106844332154, -0.0314790880172716], [-0.031131446667254058, 0.04516676064333109, 0.007601514080284636, -0.01129064282514378, 0.05941739759293489, 0.007651449049633486, 0.01839838884479661, 0.013159279815543915, 0.020907957456542125, 0.012166819374194575, 0.04727808091438706, 0.0016262894675272953, -0.0463811391051263, 0.08642413156490747, 0.07997818866636246, -0.02811639959541034, 0.04853790791188139, -0.03027671537885166, -0.057234637304191725, -0.02936840849851222, 0.02303264937790939, 0.037166349322659616, 0.017946961139495714, 0.018648451188361573, 0.011221842041883253, -0.018975493457475602, 0.027430498709207895, 0.06302007853388823, -0.06757506056219814, -0.022710392180788477, -0.013964995043916626, 0.015796897588732692, -0.044519522163430324, 0.05311238723215473, -0.10481832295440396, 0.014759524190735743, -0.040530393461607576, -0.09419007441787292, 0.04306485193138139, 0.042293404116274545, 0.0924149408601114, 0.017906754259679518, -0.07776177178404263, 0.05256187137038182, 0.049025529989413286, -0.01816575665323815, 0.04838146153211474, -0.03664921311738961, 0.02195281647640661, -0.011682600307315189, 0.019154428203121306, -0.07099231376747869, 0.042109183016147494, -0.09699385009744751, -0.046181013051454646, -0.04555807929477718, 0.03393645596694599, 0.01373484130652788, -0.02117133610658287, 0.04373550537609835, -0.025418819414048315, 0.07785306961044561, 0.05129175065617679, 0.05029656445600593], [0.10973971856884357, 0.004132086363561437, 0.016405992143122886, -0.06806636168488006, 0.05109396803593349, 0.020733401467569967, 0.00920010973647327, -0.02025066202909276, -0.03725122850765937, 0.045126401306526245, -0.00254269261682803, -0.05475574484568011, -0.02722994304800979, 0.04431628709772675, -0.06646557332418736, 0.02418105137071062, 0.0038863241170180194, -0.06213009066716962, 0.0181197086594159, 0.04107229850028572, -0.05917825881732849, -0.004204469339946573, 0.062013040416728775, -0.003007002000626733, -0.010511808218238017, 0.05026110621135038, -0.04029141758624598, 0.04972765775586031, -0.01584455918867141, -0.013760705658328268, -0.0548298499028131, 0.03161566131421163, -0.006335644938334474, 0.03677657376708598, -0.04241403895598453, -0.062369652349828525, 0.007396804940129753, 0.04254468995606084, 0.04424910918259436, -0.062456002424759106, -0.03716918517833829, -0.026608541794501176, 0.029266798186896672, -0.01802412419144463, 0.00306461110982525, -0.03317787975899274, -0.003163982092929459, 0.0033740317626969486, 0.014301064223803554, -0.04089305642632771, -0.0036839226116886555, -0.019054614639438573, 0.005515609706092786, -0.040825890210360205, -0.030370774389538353, 0.0686318006110853, -0.035061180243554174, 0.04740579389119075, -0.055595842198487844, 0.06176293249791414, 0.04723051046112782, 0.0717468788569314, -0.0008288862096798849, -0.0790990041373619], [-0.10973664473028528, -0.10362670798427961, -0.028652265729582144, -0.07181829895101756, -0.07020507579378468, 0.07292190705185117, -0.035077722079305484, -0.008304586021617762, 0.037970448827386157, 0.013784977778240828, -0.011482681145705343, -0.03181181046293948, -0.12258723932507379, 0.024626996482334938, 0.08009985911718427, 0.02662692537247008, -0.0634256969117592, -0.0971126339401255, -0.013177967162914002, 0.013060709939389433, -0.027614598993134364, 0.11819907847780871, -0.09794021997864581, 0.08738787479123936, -0.0767304382687413, -0.003154241665964869, 0.062603142376574, -0.008976067581004905, -0.02448828256945413, -0.005096900442462693, 0.06532688271282346, 0.11219473669785356, -0.09575063932029526, -0.0251059561840674, 0.10670406232203479, 0.020777857340733265, -0.021076203512980073, 0.05091050774753995, 0.0011258598655011574, -0.0059310704213242195, -0.033265367665039326, -0.035999293083782496, -0.05474535761485602, 0.16566772379821737, 0.05736629125105895, -0.008532678601833845, 0.03570058238382351, 0.03292713712608159, -0.1641276979174023, 0.14031485105990643, 0.12334520522978401, -0.017231082821166498, 0.020944204354030497, -0.014005186958157329, -0.023007328784768785, 0.03189324666556867, 0.04080177219711962, 0.042314774136675434, -0.07459892166592645, -0.016740227327783203, 0.06467057163418512, -0.041969930297484664, -0.06108016563912674, 0.031125107689979448], [-0.017813647257096513, 0.021457694739639536, -0.03544530650962417, -0.02623872673933113, 0.03822366185024576, 0.06288233904262704, -0.05214914969138075, -0.0402997330113771, 0.0285508863958753, 0.021159171860809397, -0.051234087581759485, -0.10260653747770125, 0.041074523805736805, -0.031581477803317166, 0.06706270262812138, -0.035781178720139147, -0.040567064558544946, -0.05265858586474083, 0.009771020566663114, 0.014593378642574586, -0.07510425036371522, -0.010988509553088253, 0.044542570856782655, 0.09493460790959467, 0.029728565738436467, 0.010380290850220093, -0.06819248768241172, 0.10834288820061634, 0.04309682278804247, -0.008939142432277086, 0.028345925313226984, -0.09729791594648197, -0.04433555729473686, -0.05020117996574011, 0.014970674639923435, 0.01222775925087172, 0.021876249503495912, 0.0017869294041662866, 0.09445341711749487, -0.010377193613022922, -0.06826464200605277, -0.03970462411967041, -0.032875326391866654, -0.014342236714415943, -0.0019243584042938895, -0.00022701102987950252, 0.003722854465619377, -0.03543222144733106, 0.02553857243805306, -0.0451915026434899, -0.03439214060344234, -0.03612662686815846, -0.02570771747897656, 0.05003778589358047, 0.006858245850978002, 0.027309912376897484, -0.10245016482848392, 0.05976384401488368, 0.11242912338957271, -0.039493374830755254, -0.001383067632716676, 0.06530723934312811, 0.002151915580441267, 0.06102137019407051], [0.0556353277508419, 0.11251899785554562, -0.07276654191270736, 0.025543390813637913, -0.05323170137674919, -0.08188239779827942, 0.03832196205851015, -0.03356740747347923, 0.023366678508764973, -0.07148942352278234, 0.035514168120026265, -0.06569592806459586, -0.0786928911570328, 0.07406937416376044, -0.06446655389771778, -0.014253116454976771, -0.06454143981143938, -0.026846950002777457, 0.023871831226487734, -0.0034229461035265914, -0.10431378360070592, 0.03391334098933826, 0.012852115501187244, -0.0033536284109783703, -0.1357855605009685, -0.05019623243496252, 0.027911033963357545, -0.002135233265362729, 0.032686704995262945, -0.12356856522757026, 0.03804502099096218, 0.028838042379533087, 0.044626148738599436, -0.05271169671665227, -0.015546923872184504, 0.014524614807678603, -0.009639812691822, 0.11404281718790353, -0.02774784935424837, -0.09862369121766006, -0.0876047443371859, 0.0009934131723462298, 0.04732867043063591, 0.06003599521343745, 0.03385840194842859, 0.05171284228342323, 0.04749263244333842, -0.06091630609487492, -0.03564017373400161, 0.020543638265989584, 0.031055718620637895, -0.0015396949916881113, 0.08224550051761069, -0.05392259116831007, 0.004179465684571757, -0.01593313645735516, 0.006031515767271667, 0.05176107757992307, 0.003722608581718074, -0.00664824335731194, -0.011497269818870465, -0.03772524392497773, -0.025911229399690604, -0.052688078780021595], [0.06245951466295057, 0.04473455421335912, -0.031411516170088465, -0.13199003461072004, -0.0353769704998047, -0.013123359623907397, -0.013082205765930343, -0.013448718539692579, 0.011639119979738776, 0.035424798624913635, 0.0671142820286335, -0.07149059722575735, 0.030149255968282034, 0.02845352621005597, -0.008571691728013761, -0.011127817724612942, -0.03663752198220369, 0.0974945416282569, 0.04209315775427924, -0.016933120520073265, 0.03856090500149575, 0.09417481679253581, 0.0014013854243298401, 0.01578208978561032, -0.0076581703576486275, -0.020496302062151386, -0.07133342009954786, -0.0067670875412667525, 0.03549553498214784, -0.06058585504537023, -0.03903193510928102, -0.01451686660145229, -0.049443004429158895, -0.04331117459812374, -0.06442095896125671, 0.008057200547222693, 0.10782727518629187, 0.024517054720231926, -0.014701270556358965, 0.06896079163949802, 0.0057261027712335166, -0.04015203212789763, 0.010628130625171407, 0.032591809476754836, -0.004543916477641028, 0.017471952579353293, 0.06535407424775842, -0.0011275110188419708, -0.03534722138138915, -0.031204792204803215, 0.007818471269246355, 0.0010997850837194223, 0.02460837165732675, 0.0017971232803680483, -0.01662478801187931, 0.06480752464216391, 0.014831165983477555, -0.06337358839176437, -0.11346143830385982, -0.04337826285399192, -0.004120316154342513, -0.05513873421184561, 0.07300639034533687, 0.01607494578899164], [-0.06039260645669278, 0.0940732965595369, 0.027990265124628176, -0.07173011728932423, 0.004221216391695011, -0.028757204764611455, -0.028535086996410365, 0.00409120566545008, -0.005722164063015128, -0.038750107124484214, -0.032351509431743364, 0.037789794974634146, 0.008996598332493456, 0.018153807074968584, -0.11227187669714565, -0.05278120514279166, -0.02277751750643446, -0.00014440279164698908, -0.020754858895214834, -0.0703767201620582, 0.03230898876452004, -0.08082594183251834, -0.07655485746071727, 0.04191106266376007, -0.011536642893620658, 0.06000233804025452, -0.08540634683744663, -0.09078881335166272, -0.029907643063093382, -0.03988589568197018, -0.04032710438326929, -0.04045876325321268, 0.04483047537692145, -0.09533840990024607, 0.0046570543467752724, 0.030162042920817936, 0.010110148030138147, 0.0394631729714401, -0.10298829030856989, 0.012328208383662196, -0.014084678734386142, -0.03875815222999876, -0.03968296576442588, -0.02940110570447232, 0.05883319287751525, 0.0036110479878220868, 0.010303271833578959, -0.047141846453292044, -0.055807065141588515, -0.05982057441124511, 0.013339855938869731, 0.032200976363470184, -0.013380380962370514, 0.05454338569005273, 0.008448256277680758, -0.025800996674314843, -0.0108012951984959, 0.06510677909680124, -0.11928746087435171, -0.05945516035305954, 0.024948201474102625, -0.0376883212918715, 0.051842858097182566, -0.11588363241636225], [-0.058439195699528546, 0.008375376750153875, 0.02578345072489771, 0.007761342564945964, 0.033799418155868045, 0.04647032042375146, 0.07080349009477063, -0.08190572271435394, -0.0965550691247321, 0.03050215618600444, 0.011984118306680214, -0.011027056600289187, -0.05974565856206621, -0.0007507358804248106, -0.02474346806824439, -0.06399745837513111, 0.06533272773596323, -0.010274933186243366, -0.06070662058374148, 0.10506694378521203, 0.020362350758071857, -0.023334736768098142, 0.07376625652237967, 0.06919243047360583, -0.016679336238766884, 0.046019822032919724, -0.02677881230706318, -0.013673500087731006, -0.022617631386632333, -0.015282519655238325, 0.04555588308037375, 0.06567463314787832, 0.002592615963856518, 0.09806888206079906, -0.012535050678072517, -0.042817957139183696, 0.07757110142151884, 0.04972021727976229, -0.06670697345385629, 0.0638092126718194, -0.015348526773766974, 0.055192333895028596, 0.01338999495245417, 0.024117121816070272, 0.021094902933749157, 0.005451916363786559, 0.04111242046171751, 0.024651879150281795, 0.030664671213107526, -0.0980588220694824, 0.024932965330830604, 0.04069285756314583, -0.08406724479372657, 0.013876582239501405, -0.01658130181756825, 0.04429323143866127, -0.00767662451634754, -0.011328099824089954, 0.049286813987011575, -0.01955546365122719, 0.03126719575863505, -0.006226982351669245, 0.05527108764543102, 0.007032712772608328], [0.009459837022826992, -0.029127840708176388, -0.0057862049346500775, 0.01685631000726879, 0.050036937704787274, -0.08366411697871177, -0.049609147898221226, 0.08868610916139415, 0.04573167120144939, 0.041084415648011734, -0.006637997459295686, -0.015480146334608544, -0.0050154486955213805, -0.0720092556677084, 0.02193788117251229, 0.023805593060654925, 0.0006677556744945892, 0.038138583628633184, 0.0090193915682306, -0.06396235199772106, 0.00896864973018504, 0.02125714409781359, 0.1079795081398167, 0.0794409245303572, -0.012212528722933939, -0.0007972254467958173, -0.06323829632439362, -0.022338944695927038, -0.01448910716655041, 0.1103072934558486, 0.002402298639407492, -0.04295929801794323, 0.05410966988339261, 0.029289171066987585, 0.0475762051896688, -0.0333603417392431, -0.0007744324712435672, 0.004047238204195986, 0.0021339426043298065, -0.01110804719590684, -0.00044808573474145906, 0.018386095746131332, -0.048090913369348266, 0.026483163618621058, 0.04241326896012307, -0.04207956221087343, -0.025468348612384548, -0.030905938492663924, -0.03006265334965367, 0.03280565479316534, 0.03300586882963315, 0.0845834812971901, 0.01846874827898384, -0.01556938218403219, 0.07267343335487537, -0.03915344085323695, -0.030625811254659338, 0.00884226437391797, 0.013870678771830517, -0.07635685115170254, 0.024469736809500757, 0.018492187915827112, -0.04874869011328928, -0.07541454472581341], [-0.10835379497833178, 0.015115579998807502, 0.06754316561424524, 0.08370383471172754, 0.001823026427893597, 0.06472960682212958, 0.043359278033689275, 0.08789566692886838, -0.045461477827674845, 0.08268801383232034, -0.01945782275252125, 0.04471795323675893, 0.03657760659630353, 0.008415596330931965, -0.106172097990892, 0.007886717367258938, -0.012486073813391018, 0.03611539932617959, -0.05569890020456608, -0.021304111554940938, -0.0542243393193093, 0.025449124193396767, 0.05476124059915501, 0.03077771017637662, 0.036626753367521664, 0.02428895825652457, -0.07468850989581585, 0.01543939803735552, -0.00387305117891767, 0.04001434064029233, 0.04367163367917363, 0.04210342966412994, 0.0236939434122248, 0.022693191530409117, -0.006219756525269666, -0.05037851035597483, 0.06314882509135691, -0.01727355415093234, -0.033702564682688396, 0.07040193905828808, 0.04824420697777489, 0.05869561334681189, -0.0004161177149437877, -0.08739759400388761, -0.004454796858690037, -0.006271019297971663, -0.03535619455190758, -0.02961573371856969, 0.05135189702857009, 0.036727275554251294, -0.0255638645007437, 0.03869539226429974, -0.05714191181231697, -0.031754075149610976, -0.06551560935065995, -0.051262990446448026, -0.04174686074348806, 0.05456993109484711, 0.03324030097725115, 0.012635988406217803, 0.03733838322666886, 0.05951872051832569, 0.005359186003130455, -0.08896033990032581], [0.008942779618157148, -0.0669578389498369, 